solver_type L2R_L2LOSS_SVC_DUAL
nr_class 2
label 1 -1
nr_feature 2000
bias 0
w
-0.0003178000833312122 
-0.000992973429036917 
0.0002916610415611667 
0.001554339074838612 
-5.527153477578471e-05 
-3.461097687075822e-05 
-0.0004894476390974215 
-5.074655041937921e-05 
-0.0005788898870918295 
-0.0004159020036495082 
-0.0004483645815242398 
-6.340100163945382e-05 
0.001293044779139337 
0.0009337527182897966 
-0.000266536776007868 
-0.0005485533446479748 
0.0006695550619586738 
7.532281512636942e-05 
8.234857980551692e-05 
0.0006153971050623623 
-0.00136964555702056 
0.0002181168897167085 
-0.0001028599384528559 
-0.0002830850533279549 
-0.0002336636066795893 
-0.0005483322868197625 
-0.0006991807795622435 
0.0004781458588527298 
0.0003916774596850521 
0.0002263664479029244 
-1.814767238875254e-05 
0.000308284481877877 
0.001193667275055413 
0.0004685312227804817 
0.0001550045773765209 
0.0005501892229779509 
-0.000591423673941921 
-0.001357874902394492 
0.0006727449754443558 
-0.001185688794430008 
0.0008164406045412212 
-0.0008054523128829731 
0.0002756593739898388 
0.0004908100852304586 
-0.0002297092476152834 
-0.001350927772139321 
0.0004149493637532298 
0.0002933798079910775 
0.001103307431745319 
-0.002176845888576067 
0.0005036627125587476 
0.000410899262531354 
-0.0007047952074985286 
0.000172449254375018 
-0.000382127507946363 
0.000978599845678899 
0.0009471002593538396 
-0.000303588871396129 
-0.001129530423796197 
-0.001473935484315329 
0.000755848125616055 
0.001143296001595412 
-0.0005594459945503465 
0.0005254062903609307 
0.0008878756874817442 
0.0004049047063583982 
-0.001047934052038362 
-0.001958522132275934 
0.0002918559158612099 
0.001028369910010455 
0.0005734252167918912 
-0.0002748253493211396 
0.0006840171266086357 
0.000917285703081589 
0.0004421227310028532 
-0.001356091331752509 
0.0002520622310125423 
-0.00072656973850106 
-0.0014348563154727 
0.001127179496888916 
-0.001569658118094313 
0.0004360254010727089 
-0.0002563123599580408 
0.0008821726250080949 
0.001280743368559038 
-0.0003984205511420614 
0.0001945227142902373 
-0.0006639231768673888 
0.0004950445787389436 
0.0004369714219901554 
0.0001225207141617118 
-0.0006714130423088504 
-0.001444295883068984 
-0.001271712842085238 
0.0006288980051183362 
0.001609136950322126 
0.0009221430212065708 
0.0007692086879762499 
-0.001070828663482786 
-0.001666608389926888 
1.754761650546562e-05 
0.0004543018156495964 
-0.0001511729113416191 
0.0006305587262816917 
-0.001764407536555256 
0.0005099575467431904 
-0.0005347780538536683 
0.0006449662188367622 
0.001001861570177534 
0.0001448904308645397 
5.463195828075529e-07 
-9.788659292758869e-05 
-0.0001156284269431228 
0.0008883506455997517 
0.0001397662952575064 
-0.0002186196874890186 
-0.0003130049448874082 
-0.001563600146597178 
8.636878036115782e-05 
0.001001517387566561 
0.001149802034640776 
0.000396872946703433 
0.0002792772527105602 
0.000323693816256347 
-0.0009045800170975324 
-0.001259141385041049 
-0.0004098351552760269 
0.000329060409971712 
0.0004084319929160642 
-4.289738196441713e-05 
0.0006078377833402132 
-0.0005963388300554696 
0.0005510678217067596 
-0.001149589315567895 
-0.0008861508422914923 
0.001012788674784517 
0.0007946353287362317 
4.985132099204425e-05 
-0.0007020571946084255 
-0.0001666186069051092 
0.0002159740123110228 
0.0005030832442315766 
-0.0008761997869702103 
8.648158508110147e-05 
0.0002787651712683738 
-0.0004895874755560247 
-0.00186496209495297 
-0.001425387794857146 
0.0004583053367595607 
-0.0002475187088231976 
-0.0001836638315454698 
0.003379199300575123 
0.00250743692246718 
-0.0003177351636425606 
-0.00160563989085019 
-0.001742763027073117 
-0.001465990092114279 
5.622445423810057e-05 
0.0003019376572999131 
0.002171679042543193 
0.001004782481700237 
0.0008364813771121242 
0.0001149732615042791 
-0.001416005046049949 
-0.002139791698333919 
-0.001323588649525952 
-0.0004939571411046717 
0.003322255317566098 
0.00187599652089992 
0.0007121349524450813 
0.00022122829708518 
-0.0002977973372545895 
-0.0009721975636057447 
-0.001598415766364951 
-0.0004092732550003655 
0.0003734740546637286 
0.003608229700832629 
0.0004833217939021787 
-5.678474436039824e-05 
-0.0007468869025599614 
-0.002360465953375855 
-0.000933666461207726 
-0.0005050912872263003 
0.0004164937568636989 
0.0005872466867342015 
0.00051180516344761 
0.0002761872014376307 
0.0001675751238830405 
-0.0008725831833609959 
-0.0004108488279460323 
0.0003323120795080709 
-0.0006865443408352615 
0.001639126491039807 
0.0006141678378431874 
0.0001468374020011283 
-0.0007646980346485689 
-0.0009898967510406742 
-0.0005920495035922032 
0.0002089041565782671 
-0.0003572416953127163 
0.0002541908892509427 
1.965297294899503e-05 
-0.001615036541388063 
0.0002360987395477338 
-0.0004819918523736354 
-0.0002983422825022675 
0.0004372652321925472 
0.001353312745192013 
0.001435488633794563 
-2.627277449968171e-05 
-0.0005374410228605706 
-0.001113732687635795 
0.001074293853854611 
-0.0003021541441818831 
-0.0006835918862460781 
5.855993064308637e-05 
0.0005663656770260584 
-0.001329034434277656 
0.000632039370347181 
0.0006814653676739701 
-0.0001911139980878945 
-7.873676287846584e-05 
-0.0009719298291533769 
0.0005960945122184544 
0.0001914997710905392 
-0.0003635007166608216 
0.0007686505592797867 
0.0004381462918519696 
0.0003200600781642667 
-0.0003184954834769232 
-5.189338786622889e-05 
-0.001079317209514351 
2.466787586781376e-05 
-0.0002841986722548273 
0.000448059646034752 
0.0001326123089268319 
0.0004569938942707511 
-0.0001192206943252007 
-0.001123055644670109 
0.0003692911890182339 
-8.562358549967997e-05 
-1.891084991098353e-05 
-0.0004705643080041988 
0.00135659629177943 
0.000711847803642203 
-0.0005087427847033629 
-0.0007011278532027428 
-0.000378324811232334 
4.400785320182069e-05 
0.001004912881131249 
7.651645282917063e-05 
-0.001971527720395472 
0.001249248668876296 
0.0002169525953596422 
-0.00074913512077397 
3.41742926396147e-05 
0.0007026397771687662 
-0.0001071919899518227 
-0.000716034452602932 
-0.001151667889822328 
0.0007199437448261129 
0.0001172899549620603 
0.0004775977031417379 
-0.0001374269448533132 
-5.49975707713028e-05 
-0.0005734902770959268 
0.000281806265328174 
0.0001649778261515664 
-0.000658351822259045 
-0.000789683096099563 
0.0004619114384890767 
0.001072977139125261 
0.0006250970095333068 
0.0008886093719584197 
7.646310848151685e-05 
-0.001490943721988673 
-1.855633338827844e-05 
0.000182555238830045 
0.0003238219371977919 
-0.0006818967077558473 
-0.001307803433186563 
0.0008023171828717509 
0.0005723263977068008 
-0.0008115484922451785 
0.0002379019778485291 
-0.0008694842766141144 
-0.0001379461401133251 
0.001419386686600374 
-0.001422447891325709 
-0.0001026446187515119 
-0.0005167446727472386 
-0.0004330444796831429 
0.0003012283776936023 
0.0002884863216987307 
0.001741543273347065 
4.877359263649876e-05 
-0.001038583248731307 
-0.0005594534016559062 
0.001056683373584061 
0.002241261121752671 
-0.0003131140660536673 
0.0005918919534669943 
-0.0001977138011752558 
-0.001875822028319369 
-0.0003459663694148238 
-5.362865992975801e-05 
0.0002235530385537538 
-0.0004913425005727756 
7.247488891235744e-05 
-0.0005225862428413732 
-0.0003983071467125861 
0.001420952894873451 
-0.001162887896996027 
0.0004442438013364523 
0.0004694392271874386 
-0.000577861391508482 
0.0008018213842611989 
-0.0001950630120668734 
-0.0001411988498310863 
0.0002666566404856627 
0.0002988140498866039 
-0.001109962925533525 
0.000412447786401079 
-0.0008867218394210526 
0.001910027018250612 
-0.001019081758435328 
-0.0002967126459892288 
0.000596340217709043 
0.0008175279586482128 
0.0004572210470468249 
-0.0001048797535075821 
-0.001050021049172605 
0.0007730078486263396 
0.0005040552833562871 
-0.001350103597208686 
-0.0001416578349205183 
-9.297245517303897e-05 
0.001255987343032262 
0.000463807190895488 
-0.002157177880718412 
0.0001659427056441359 
-0.0001200917851027912 
0.0003213886187295894 
6.826616556098254e-05 
-0.001272851283408423 
0.001693794870449515 
-0.001728624988869765 
-0.0004873055438219346 
0.00120297245096623 
0.0004444882150015413 
0.0003006550119692854 
-0.0002479788294182336 
-0.001069855918905536 
-0.0001534123119540853 
-0.0003715596366520208 
0.0006798450613934767 
-0.0007874251323584942 
-8.803395883732859e-05 
-5.051109344732294e-05 
0.001746102893629659 
0.0007328444553237098 
0.0003879233975075107 
0.0001816567821835912 
-0.0002171020194350357 
4.716182276385915e-05 
-0.00113472272942528 
-0.0002386220264529754 
0.0001460102204028805 
0.0007626621364447543 
-0.0003093344908606456 
-0.0005945163358055265 
0.00108928398181874 
0.0002347557845299731 
-0.0006635919353026092 
-0.0006861918227979333 
7.20825848415669e-05 
0.00235537350854626 
-0.0007539055089330791 
-0.0007436014573986683 
-0.0006814293596744314 
-0.0008733015023509429 
5.704353149902288e-05 
-0.0003596329538897766 
0.0009046036450698983 
-0.0004374598559371469 
0.0017045445603326 
0.0007928178215241786 
3.230752253637825e-05 
-0.0003595242431394821 
-0.00057309747590169 
-0.0003547924494831365 
-0.000899645977063454 
0.001911100491865472 
0.001443932525876163 
0.0002842281287879458 
-0.002470474577060628 
-0.001499346999369104 
-0.001087994588941288 
-0.0001145040249631068 
0.001438208946672865 
0.0004018556170184038 
-0.0005996729913648347 
-0.0001587689955974868 
0.000555178708988225 
0.0002878149515297986 
-0.0008241681176164687 
5.520588273715234e-05 
0.0001877048471734545 
0.0009707103698683741 
-0.0008181071197144191 
-0.001549502628008231 
-0.0003291321646922798 
0.0001489891884684529 
0.0002487939366251502 
0.0002096407000341228 
0.00102375762028704 
-0.0007254110704123909 
0.000362903219708266 
-0.0005125350026747441 
0.0006168364287158409 
0.001326412220052908 
-0.0002179711103761344 
-0.001068111070757276 
0.000123026288611678 
-0.0004431586475345869 
-0.0006572219941015709 
0.001204081832020656 
-0.000106745269489894 
0.001097618888644421 
-0.001339650719534833 
-0.0006165196630172335 
0.0007667454758812564 
-0.0001868322417507947 
0.0008464829170326627 
0.0003064782864702283 
-0.00110505187391573 
-0.001301097386218092 
0.0002689488777622448 
0.0005312012813467971 
0.000545020042140915 
0.0009271189754344656 
0.0003675831731375723 
-0.0005483285791886286 
-0.002162002787943965 
-0.002100253163458075 
0.001783827706120054 
0.0003209156966010038 
0.001316288882165809 
0.0008177633673682707 
0.0006373647028581397 
-0.001486181607047904 
-0.0002053723544001167 
-0.0008647269595605973 
0.000229087985665367 
-0.0001047608997495578 
0.0008819756677346225 
0.0002849486845565534 
0.001307332734241224 
0.0004805632828370061 
0.0002448194135669412 
-0.001907473734526172 
0.0001844727210144267 
-8.707222373886472e-05 
-0.0006024409750827595 
-0.001137265866229436 
-0.0005176100387605775 
0.001104587006635843 
-0.0002523901202161509 
0.001666684502436645 
-7.510516629326993e-05 
-0.001042027473829769 
0.0001582770591249782 
-0.0006467211848147554 
-0.0004469300653464884 
-0.0003654409042558919 
0.002168799891601096 
-0.0009486197041567045 
0.0002343882727532176 
-0.0008285479415556448 
0.0007382215386433387 
0.0002273819722763219 
0.0009760858636230132 
0.0001000514530926548 
0.0008731401888693012 
-0.0001635384001221245 
3.001386833243498e-05 
-0.001552952360520963 
-0.0005850326826823762 
0.0002047521514676724 
0.0002908914339768575 
0.0003277529892708013 
-0.0001621613083734568 
0.0001390880453942272 
-4.866648662844717e-05 
-0.0003111071225477952 
-0.0005353997996916395 
-0.001373873944482325 
0.0007903397041152243 
0.0004146326254815011 
-0.0001239874804927657 
0.0009539601340120453 
0.001015429398492415 
-3.007415360618e-06 
-0.001768343118897239 
-0.001182610010133196 
-0.0005495929744192803 
0.0002396964069595699 
0.0003508503645281588 
0.002028004269462793 
0.001317632149829554 
-1.371345742472227e-05 
-0.002285116845934595 
-0.0005667594980526552 
-0.001494715364408605 
-3.969335667456564e-05 
1.236686831062724e-05 
0.003413533083411802 
0.0005562633774631423 
-1.502746369155107e-05 
-0.001960817743489926 
-0.0008215822434951749 
0.0002041959890268758 
6.288181907595675e-05 
0.0004256623979407412 
0.001976151022754446 
-0.000322755813672005 
-0.0003190911197542413 
-0.001300312149008335 
-0.001039072286235997 
-0.0002528796322093669 
-0.0001435936712424944 
0.0007017083575859568 
0.002596910929540371 
0.0004406490973845656 
-0.0008911787691583022 
-0.001507394122796443 
-0.0003493617278694102 
0.000646355270464966 
9.309771841442918e-05 
0.002493943555951883 
0.001304388610878436 
-0.001492050212954584 
-0.001768192583739336 
-0.001023030728278204 
-0.002673137507206028 
0.001328629139783382 
0.001646851197801044 
-0.001415651859166219 
0.0004083632613266342 
-0.0002528892200759195 
0.0007290584104000183 
0.0001339264800053624 
-0.0001733678184265887 
0.0004858732915198531 
-0.0005068789707879237 
-0.0002458210585828359 
-0.001211796509487057 
0.000878933439381522 
0.0009071760423469879 
-0.0002289685130956868 
0.001633981460378246 
-0.001787844848393551 
0.000289542272162413 
0.0001774472014306329 
-5.398678573228793e-05 
0.0005425096952545008 
-0.0001509448518262184 
-0.0007455542404054005 
0.001354440758205581 
0.001144374473007796 
-0.0007681957689103814 
-0.002056821955350042 
-0.0006596730415841136 
-4.25052020371391e-06 
0.0002092910798218422 
0.0006859848778813029 
0.0008598620324000928 
0.001198588291126153 
0.0004555722342596515 
-1.375125470648688e-05 
-0.0005371848789150239 
-0.0007923592872301906 
-8.782758358119756e-05 
-0.001177749650484803 
-0.001151784835975739 
0.0003166336492775741 
-0.0003381528118468846 
0.0003292833824082995 
-0.00083385005867707 
0.0002481853933188819 
1.988629606738032e-06 
0.0013328465547564 
0.0007656122696758958 
0.00051298744417357 
-0.0003255546763511236 
-0.0004321621424045646 
-0.001145981251591236 
-0.0007612558368897183 
-0.0004608249961114585 
0.001752329092366823 
0.0006084672673293841 
-0.0005999757275733901 
-0.0001436635142605109 
-0.001536032330759458 
-0.0007557537579466231 
0.001001937564673319 
0.0009418654605268185 
0.0003883049408787226 
-0.0009037145812932041 
0.0005745501726113692 
0.0007948838189887117 
-0.0001639846398868151 
-0.0001153421924311468 
0.001192688240637601 
0.001131568199248762 
-0.002605499115007102 
-0.001694344401159984 
0.0009387995239466966 
0.001862785295352548 
-0.0006169921870746876 
0.0003135604101626197 
0.0005073980229335702 
0.0001593823243491536 
-0.001565439085641657 
-0.001825784720103716 
-0.001057854877989174 
0.001000921811960151 
-1.331060015122667e-05 
0.0004026822603010509 
0.001256628837165166 
0.001497231948469118 
-0.001355364756783177 
8.919635082728517e-05 
-0.001366844783830513 
-0.002438022803813606 
-0.001408602196530003 
0.001731170817209896 
0.00130159450644792 
0.001570872189973369 
0.0004257858225838373 
-0.001512809475353155 
-0.0005228436626319641 
0.0007608523385747664 
0.0003744225451249418 
0.001507292424452198 
0.0009912647854624502 
-4.83826596267407e-06 
-0.001688190786798223 
-0.0001099528379213182 
-0.0008501752360851031 
3.78384327994687e-05 
-0.0006857105509472263 
0.000446026877271109 
0.0009307676660066272 
0.0004457644109668215 
-0.0003094088592221527 
-0.0008546907992347089 
-0.0004863319945858283 
-0.0001366821596992802 
0.001093732437820516 
0.001847929790467916 
-7.91285364249565e-05 
-0.0004165741565210574 
-0.00106310467895441 
-0.0001168293601469999 
-1.558892307911227e-05 
-0.0006683932075462661 
0.0006948293853919287 
0.0008955720403361182 
0.0009109712707857895 
0.000614569692822318 
-0.002409980995695411 
-0.0004839860211681099 
-0.001345273432846967 
-0.001076931568937676 
0.0003266216775303897 
0.0001015316772481846 
0.001636167339797703 
0.0004634934286743362 
0.000283526802570393 
0.0005392079350030382 
-0.0007152648523831983 
-0.0003619096082477694 
-2.307434242084695e-05 
-6.831081791226289e-05 
0.0008253555850046146 
0.0005336260946959383 
-0.0008244800908712536 
-0.00221289245357971 
-0.0006255688336774833 
-0.0002320967708270694 
0.0003976057596578889 
0.002843749757970219 
0.002227401157897965 
-0.0003001618050748388 
-0.002192886909498828 
-0.002107990305025677 
0.0005122886462058464 
0.001667357573387702 
-0.001115724932996776 
0.001724799580815696 
-2.942023423193263e-05 
0.0001876581561258518 
-0.0009338185814125927 
0.0005754622244496496 
0.0001327557024280841 
9.48763127743017e-06 
-0.0001953729848143606 
0.0007839193226826755 
0.0001804241838269542 
0.0005139101473343612 
-0.002095436324316601 
-0.0003224503895551967 
-0.001412653843993349 
-0.0002072506372042704 
-0.0001912143071564472 
0.0009574623091878047 
0.001594496172368036 
0.0002622864222464938 
-0.0007755258230248459 
-0.0009863770185007668 
-0.001189969153792534 
-0.00067620386746688 
-0.0004543676747341188 
0.001378080886112363 
0.002071721590688102 
0.0004468994429715519 
-0.0006846343024093389 
-0.001142663172611531 
8.277029407420064e-05 
-0.0002883966548959196 
0.001067650418226787 
0.00172075055393952 
-0.0005564586439215543 
-0.0002666070293185245 
-0.0007118958626246752 
-0.003182882520046809 
-0.0006679202046445671 
0.002669693418845023 
9.77888998796281e-05 
0.001101029040346285 
-0.0004415902237769613 
0.0009349458069279141 
-0.0006059143146622103 
7.256274564798037e-05 
0.0004058511317146498 
0.001694086912897642 
-0.001293667907600507 
-0.0003346436985113854 
-0.0005560320039661024 
-0.0004157744496553238 
0.0003327671723412499 
-0.0009699331763106025 
-0.0001250462376626831 
0.002433008336119397 
-0.001112566253836113 
-7.576572356207091e-05 
0.0002754510364571456 
0.0008311933379129547 
-0.001351191416249801 
-0.001437340840124385 
-0.0003783346789011544 
0.00183602882047444 
0.001808269558954475 
-0.000554601490388255 
0.0004654352235566503 
-0.0005175060017031215 
-0.001316800689000466 
0.0005563008247204528 
-0.0004578482265721461 
0.0003978782284775698 
0.0002975815177442211 
0.001526439351154867 
0.0002294696402022205 
-0.001168268488988644 
-0.001476402943870217 
-0.00189602630451138 
9.977517436512675e-06 
0.001328587811380358 
0.0003512391694066084 
0.0002416141738327494 
0.001474131297566632 
-0.0003726280172904231 
-0.001231745744952839 
-8.069361819043979e-05 
-0.0007087437062011974 
8.432095570676032e-05 
-0.0007212017840013522 
0.0001462139885079898 
-0.0005257252665555605 
0.0009293521814840323 
0.0007816271521180313 
0.002060219890942813 
-0.0007375595486389 
-0.00024542948105063 
2.465851740609755e-05 
-0.0001726372732606828 
-0.001410768114763128 
-0.0001333059900925508 
0.0005199719023251614 
0.001816430800433873 
0.0004751446263489863 
-0.001124917155494054 
-0.001311110851120412 
-0.00178607209006765 
0.0008085144256287911 
2.266565666518666e-05 
0.001004494490473572 
0.0007888477261221152 
0.001612934740030054 
0.001723706343457664 
0.0001655762881037548 
-0.001827657629930739 
0.0004349828099396566 
-0.001094885802699904 
-0.001898354572154214 
-0.0004268883406657786 
-0.0004055839897896094 
0.000894393039828238 
0.000382507847442292 
-0.0007147237076547867 
0.002191021953496354 
-0.0001589138943127247 
-0.001856663005475686 
0.0002802121776171789 
-0.001061256040574854 
-0.0005428268187625559 
-0.002869916684568224 
-0.0003417128463277695 
0.001969476634523746 
0.001156907582635507 
0.001314265898325271 
-0.001244090927150151 
-0.0001054073918129926 
0.0005387112453414904 
-0.002371523634869436 
0.001089381258775699 
0.001855355547938479 
0.001344518061528616 
-0.001201794256883432 
-0.001322728864456838 
-0.0001197845995181473 
0.0003631058436675999 
-0.001871762869678597 
0.002064133952247217 
0.001306758316698147 
0.0001410159427824017 
-0.0006555878188736283 
0.001241441797496591 
-7.08785560400754e-05 
-0.0002545910329439112 
-0.002420838612057061 
0.0009776657934467063 
0.0007376484014301285 
0.0003158322158805974 
-0.0006211301043446687 
0.0004621979941221153 
-0.0003496655842728164 
-0.001069743996537281 
-0.00102634775080798 
0.001784963724124225 
-0.0002670164682364144 
0.0004564547289751576 
-8.569274449874048e-05 
0.0001323552921151556 
-0.0001696027692010198 
-0.000718166023115045 
0.001600515035702563 
0.0002032411272742634 
-0.0007805884932192995 
-0.0005047484304286886 
0.0001421441637402973 
-0.0004518915004275762 
0.000260240352203715 
-0.0004430313555705927 
0.0005598237920644535 
9.885403634529148e-05 
-0.0009739165390413159 
0.0008046886389301141 
5.03824783641744e-05 
-0.001294296649772003 
-0.001400904314317817 
0.00115704952997871 
0.001013296363686626 
0.0006349786267045908 
0.0003133394204678086 
-0.0007289572501507398 
0.0002106441762710759 
-0.001391116030137106 
-0.0002545151471451106 
-0.000180600205217671 
0.0007409307439375748 
0.0009786464192413475 
0.001170943551719496 
0.0008058130426687297 
-0.00196495247219902 
0.0002409537444211172 
-0.0007713525043332854 
-0.0005569739206522982 
2.625405086434254e-07 
0.0006052248198427726 
0.0005659187825743999 
-0.0003788953445117783 
0.0002000117850186487 
-0.0009770429591961208 
0.0004469665215765645 
-0.0005532895465492195 
-9.624904669448102e-05 
0.0006764701967726147 
0.0006542719990737794 
0.001541957197758121 
-0.001787934459872945 
9.394969335129915e-05 
-0.001194014535541409 
-4.77748865320251e-05 
0.000593634594740407 
0.000262569889515579 
0.001907595033392826 
0.0008508135642272506 
-0.002561623450285697 
-0.0007155095151601102 
-0.0006561173210338406 
-0.002320976754532679 
0.0007588250037436196 
0.002056606884010311 
0.000827974994774107 
0.0001141339473521536 
-0.0001597873362852092 
-0.001204815465904982 
-0.00103504353674019 
-0.001259015781289244 
0.002587908208335547 
0.001412283410483125 
-0.0003139767079638454 
0.0001967935458296367 
-0.0004789837698818042 
0.0006630348562824003 
0.0009294336593860241 
-0.0001459072828444354 
0.0002611155292513002 
-9.032350180338736e-05 
-0.0003032450832217596 
-0.0004692753607127635 
-0.0009396829134691059 
-0.0005374707712427466 
0.001598517581526657 
0.001816010502255686 
0.001102812655345342 
-0.001059985891009949 
0.0004786408391167947 
-0.001094127220563052 
-0.002399247792560459 
-0.002423373469435258 
0.0008821198589974515 
0.001351188690012325 
0.001134536701959407 
0.001253602108322762 
0.001065803022896287 
5.744010036822509e-06 
-0.003364471019921556 
-0.00302601761520518 
0.0004520824707648571 
0.0006780660714438518 
0.001913421749414036 
0.001122604499118033 
0.001082391528222719 
-0.0005903635649000293 
-0.001727035235990125 
-0.002540528485131247 
0.0001605262409260648 
0.0007562453959100099 
0.0006316287497051209 
0.001792683235301389 
9.330475955561037e-05 
-0.0006603238815114242 
-0.0003283861118874462 
-0.002804192345033681 
-0.0004459214406949229 
-0.0004353235347411569 
0.001528051909798353 
0.001501888968148643 
0.001140104217416554 
0.001124622020550488 
-0.001704079892576006 
-0.0009178921626190518 
-0.0002319647209454694 
-0.0003335268840985594 
-0.0006513590722898137 
0.0008754205049034513 
-0.0004444831308724517 
0.0005234376528574872 
0.001085517715932666 
8.496967867495038e-05 
-0.0002554490481767838 
-7.078254435462201e-05 
-0.0002280746718189976 
-0.0004732745703049024 
-0.0006380262630116796 
0.0002619791825538354 
0.001223808139306427 
0.0008359271806445691 
0.001730368449264302 
0.0006903392449554713 
-0.001354775435188445 
-0.001084032014028777 
-0.0002349093530923457 
0.0002119153480155998 
-0.000889683517702089 
-0.0008211778590141515 
0.0009042615643461404 
0.0013101679132095 
0.001134950634133368 
-6.097532024396402e-05 
6.282885621041355e-05 
-0.0004121731729305122 
-0.00221273271284255 
0.0005507292149847217 
0.0001840011654065263 
0.001046070394397182 
0.0004190851714345437 
-0.001384093034499393 
0.0003072540743829652 
-0.0002947892814682308 
-0.0009231078017700856 
-0.0009713680536821219 
0.001185668923473668 
0.0006074202148726308 
-0.0009636659127646004 
0.0002732776248891186 
0.0005815276297973474 
-0.0004571393799572294 
-0.0003505711437604851 
-0.001267608029492963 
0.0001168048804432942 
0.001245407617375318 
-0.001126924771943322 
-6.304570269379854e-05 
0.001880097434211135 
0.0004332615338941263 
-0.00131284305892551 
-0.001371476539918851 
-0.001532235748179016 
0.0009713408632617688 
0.001995823944725096 
-0.0001211527651929546 
0.0005105806845186726 
0.0005957781652818294 
-0.00114350870162825 
0.0005469234327876588 
0.001474021138779248 
0.0004055290523259523 
0.0003928405386796511 
-0.0008774633422028204 
-7.658539706960419e-05 
-0.000798331477390668 
-0.001161784043041163 
0.0003092261030644619 
0.001129941880128417 
0.000988180227510915 
-0.0001201337715138738 
-0.003161528173448358 
0.001262406411317028 
0.0003258738667011727 
-0.0008288166408915147 
-0.001123940174298371 
-0.0006654083416396375 
0.001043379671949534 
0.0002170613125921186 
-0.00033981492734482 
0.0009296824059101929 
0.0008952772783702398 
-0.001051087322671034 
-0.000973228241379624 
-0.0004437025810478466 
0.0006980507635121815 
-0.0008663086316221142 
0.0002938376215045407 
0.001383668696743471 
0.0005642760594382168 
-0.0007514437842805813 
-0.0008656298370033912 
-0.0003010034635743324 
0.00014006051540206 
0.0002440876987060497 
0.0001239130601085172 
0.0004572714063213148 
0.0007576336441528076 
-0.000651183121244766 
-0.0008300045660438374 
-0.0006463302705106035 
0.0005333134612696077 
0.0009431376387764575 
0.0009764658948244096 
0.0003286075127786742 
-0.000767083231608329 
-0.0006329565366181889 
-0.001046244923362431 
0.001909933430510393 
0.0004094735364636731 
0.0003725040008995167 
-0.002284421483362604 
3.427160485075836e-05 
0.0006074907866390995 
-9.785704977015681e-05 
-0.00319573821318366 
9.769277758139347e-05 
7.557358873060482e-05 
1.412094370664573e-05 
-0.0009195645360308357 
0.002385316066899286 
0.001670259931979341 
-0.0002225106568145612 
9.572242241512342e-05 
0.001111492278285279 
-0.001237985138273792 
-0.001968465840681167 
0.001461295258558646 
-0.0009068489566430812 
0.000890823843864436 
0.0004591160353427904 
0.0003653330907834576 
0.0002425270880483624 
0.0009014038042822105 
0.0001639982037624847 
-0.001224205012439219 
-0.0007536104658579791 
0.0002317984267370433 
-2.209523244810093e-05 
-0.0006758716305338002 
-0.0007021041835946334 
-0.0001145480211569055 
-0.003427469650320446 
0.001455796982390384 
0.002198803619692546 
0.001682460103732807 
-0.0005119173173417148 
6.438224392508619e-05 
-0.0002055096801193952 
0.0004724355026997056 
-9.382870393959224e-05 
0.0006762201811066711 
0.000418773701685752 
-0.0001621718727303734 
-0.001265151469759643 
0.0008626418066241347 
0.002200001142418958 
0.0005246741645643893 
-0.0001425435952590275 
-0.001380207524081601 
-0.001301236743419453 
-0.001101161117735403 
0.0002429817697563279 
-0.0006425180578909941 
0.002739725295123369 
0.0001551400446751633 
-0.0009438086864619234 
0.0006200078054254443 
-1.354258159905461e-05 
-0.0008551902663284979 
-0.001154663650075368 
0.001254663466813716 
0.00308284566655242 
-5.521474744709478e-05 
-0.002469760404605009 
0.0008256017799985242 
-0.0005992033468053867 
-0.000867058155544825 
-0.001266724356094217 
-0.0008795117851770306 
0.002371219849037361 
0.0008919527823235338 
-0.001601203983893388 
-0.0001482334899139012 
0.0007557156488431333 
0.0001688978318832376 
-0.001653686950234694 
-0.0003003906797427592 
-0.0006371546750980553 
-0.0002755670316355324 
-0.001233358318322167 
0.001065295016257854 
-0.0005031874239652906 
0.000449968238024023 
0.00133954477735016 
-7.891242815553622e-05 
-0.0006933670726000758 
-0.0001567740324037962 
0.001056803717933085 
-0.0002596187682899898 
-0.0005363592857797415 
-0.0001864699573224457 
0.0007598477294866865 
0.00252050559925145 
0.0004780037037739738 
-0.0008104334956231187 
-0.001229200167006945 
-0.001123334246748674 
-0.0002184289427896511 
0.0006702027739409045 
-0.0003821653219297816 
-0.001706265114610854 
0.0005038173320235322 
0.002023037476373414 
-0.0006959283958844556 
-0.0008014464820148819 
0.001196214255337632 
0.0001732147166770529 
-0.000787493885033165 
0.0001268388141764869 
0.0009440223061852098 
0.001732378783097352 
-0.000723461565027049 
-0.000700708052174019 
-0.0009160948377009719 
-0.001317772555295514 
0.0007599470096067367 
0.001282595378096353 
0.0003898750899447405 
0.0002783089219274618 
0.0001669243527065861 
3.366817032823256e-05 
-0.002217022077567761 
5.740256545082788e-05 
-8.660249801820363e-05 
0.0008388827709056991 
0.002246393626725831 
0.0001635919777576204 
-0.0006046697150775301 
-0.001529415602669187 
-0.0007464706081797768 
-0.0002457227620532193 
-0.0002174397845412443 
0.001081881974137069 
0.001591635791846563 
0.0008535851285263124 
-0.0008964633053783372 
-0.001113745805043153 
-0.001153806936786145 
-0.0006141380887127338 
0.0001562011442786633 
1.538909817256942e-05 
0.001042241461938035 
0.0001441204410750219 
-0.002340493582675786 
0.0001633852695074662 
-0.0008738799921603078 
0.0008242755601553067 
0.0009301116468559004 
-0.000425069007821815 
1.563676440281903e-07 
1.599248326003675e-06 
0.001160981978828145 
0.0002515615944393854 
-0.0007290020340692642 
-0.000237831944463597 
-0.000117246300014621 
-0.0001582187589025111 
0.0007599598930042014 
-0.0008908004467523956 
-0.0002063502395964539 
0.000901415891468199 
-0.0006030320975700866 
0.0005063066603130191 
-0.0004041309990957055 
-0.0001527757001402256 
-0.0005519860484283582 
-0.0009515646393351822 
0.002345162531621644 
-0.0005089520955198463 
-0.000137159663968947 
-0.0001943685822727734 
5.679410091195977e-05 
2.826983804698422e-05 
0.0006918466570910802 
-0.0006967960179819751 
0.0001852770423865549 
-0.0004711063311798192 
0.0001846472758320245 
-0.0003259103234471246 
0.0003089217621205326 
-0.0002675907541872207 
-2.382832058038023e-05 
-0.0003139809367814596 
-0.001303700899278875 
0.001026604311887422 
0.00144513883723132 
-0.0006313224409749587 
-2.616989444757456e-05 
-0.0003172182880107133 
0.000133861792814893 
0.001723352317328157 
0.0004427711743079357 
-0.001893566628148009 
-0.0001889700810228884 
-0.000601117580153867 
0.000606037195752785 
-0.0001858194234396042 
0.0008580734271543946 
0.0006816092575927155 
0.0007544049034939191 
0.0002683808103054692 
0.000343599760347804 
-0.001475124656749927 
-0.001339974175836516 
-0.002102983963241636 
9.55709766692064e-05 
0.0004639491177202604 
0.001649656970600333 
-0.0001302059918481758 
0.0008917572229068535 
0.0003293323834343266 
-0.001291926813373055 
-0.002360126101590154 
0.0002796328712103202 
-0.0005911916142776351 
0.00174095043726741 
-9.501686612845026e-05 
0.000895800455842932 
0.0007617480922345451 
-0.0007266473716906065 
-0.001021362571621257 
-0.0002050121848735749 
-0.0006374822452189228 
0.0007944236719260967 
0.001217827275426174 
0.0005080075832387152 
-0.0005289395412798059 
-0.0002223120847291608 
-0.0005641012093110341 
0.0001125470348374213 
-0.001743883679768631 
0.002965775800006048 
0.0003338174553835567 
0.0005574605832751107 
-0.0002065309135966685 
-0.001549935167957683 
0.000792094761818007 
-0.0003882318372408108 
-0.0007958362886760394 
0.0005436310910899134 
0.001664653444951379 
7.419211342994724e-05 
-0.0003127814880765089 
-0.001672571894427571 
0.0008866319423126427 
0.001031276502951725 
-0.0003185630973516932 
0.0015378334178173 
0.0002299615335577822 
-0.001781790384629744 
-0.0006344514631935505 
-0.001045748548596216 
0.0009213803403574723 
0.002614200235161685 
0.0002556354022303575 
0.001219534232029001 
0.0004194185935182035 
-0.002261352928392587 
-0.001899632926513644 
-0.001364033045522248 
2.139288191544594e-05 
0.001709916749171512 
0.001128654531173052 
-0.001025203970991245 
0.0001258551283245793 
-0.0006279618196640614 
-0.0007622776401519211 
-0.0006652259569092247 
-7.737490677950517e-05 
0.002766595354510651 
2.255237720229814e-05 
-0.002510513947650116 
-0.0007487522910509323 
0.0002030558454124551 
-0.0004494885723162934 
0.0006990760435397265 
-0.0002097276798572247 
0.001140138471828117 
-0.001079220268573274 
-0.001824692040505055 
-0.0003745582438993311 
0.0007507697480399845 
0.0008701206256101638 
0.0006323192902248038 
0.0001293816230996181 
-0.001880903426190752 
-0.001526461865016382 
-0.001565520688983887 
3.93456746246561e-05 
0.0009319299882338531 
0.001193889366418036 
0.002583489230682972 
0.002130429378586883 
-0.0001301115272695252 
-0.001057595068133284 
-0.001032308494479529 
-0.001207047500001317 
-0.0009143838498537341 
0.0004863382234895721 
0.00162982874052918 
0.001018150877416001 
0.0006579692099070515 
0.0005579465327498103 
0.0003753180388613702 
-0.0003910429878646185 
-0.0007510552050741337 
-0.001080795094151268 
-0.0004813414689759269 
0.0008708153983580518 
-0.0004633211202218518 
0.0009020342927659613 
0.0003182984325899488 
-0.0001618450179981206 
-0.0005657826960920303 
-0.0006388981465393472 
-0.0003561512399943499 
0.000177960722843014 
0.0002442418933276206 
0.001648462444608239 
-1.458831108081963e-05 
-0.001936922502523947 
0.0005042229290413522 
-0.001103565168429703 
0.0003853378950824861 
6.50618296209936e-05 
0.001131713475594326 
0.001687345938463501 
0.0001162019135324583 
-0.001622151658656833 
-0.0003715161991492679 
-0.0001241471700793408 
-0.0009773582264575918 
0.000302671557863179 
0.0006823751370881282 
0.002051802263513514 
4.078384658040641e-05 
-0.0008513686895963584 
-0.0005565619898718824 
-0.001395538893500033 
-0.0003690133292086943 
-0.0007641940839141412 
-0.0007409021127745872 
0.0004162219870679651 
0.001150710679779511 
-0.001252389487179836 
-0.0002982560393222578 
0.0005301976882881813 
0.0008637612709233619 
-0.000267805023884208 
0.0002005671958546338 
0.0006961876746323819 
-0.001053450748593766 
0.0008624308575040523 
-0.0001221001448969715 
-0.0004180371709835793 
7.357263235734925e-06 
-0.0007797048275634615 
0.0001166988637587111 
4.735725561026799e-05 
2.821891610535748e-05 
0.001343771116953058 
-0.0001047690439512695 
-0.0005645856148973436 
-0.0001818367631470623 
-0.0001504532062806249 
0.0008301811183239255 
0.0002860140418671469 
-0.001935797859420211 
0.001640855886354101 
-0.0005250654737198782 
-0.0003349767818434532 
9.439217758724873e-05 
-0.0001624996399732412 
0.0003118517659767109 
0.0004129413170662448 
-0.0002471362402708464 
-0.0007568857782200961 
0.0002387936612620367 
0.0002616617493027194 
-0.0001535769322752822 
-0.0007494565357579188 
-0.0007793510893005723 
0.001337663582080114 
0.003378949574096796 
0.0002396603348135436 
-0.0009418973655125857 
-0.0009085184264474469 
-0.001671900171103624 
-0.001468693692143152 
0.0001615949816188275 
0.001534990834916525 
0.001517503559413956 
0.0002088586103839543 
-0.0006445818883970423 
-0.0001981438934403055 
-0.001206378609484493 
-0.0009956313247734996 
0.0009176733902117138 
0.000666511789047379 
0.0005512639405342391 
-0.000212941032848457 
0.0003955198125586243 
0.0008753256434891795 
-0.00229257231535091 
-0.0008397333682286968 
-0.0002557088580306348 
-0.00017773209669405 
-0.0005175637066075289 
0.00151470678527011 
0.0003282646392194035 
9.246908999038224e-05 
-0.000239552582050712 
-0.0007959704860769052 
-0.0005582424735438527 
0.001006047479974201 
0.000761611410968484 
0.001116071233984068 
-0.0004664517734873625 
-0.0004354285964493591 
-0.0007224868925009624 
-0.0006722263901351941 
-0.0002852967809641454 
0.001417162883159486 
-0.0006807974371598842 
0.001015652939473202 
0.0002942307860502835 
-0.0007832242181913894 
-0.000400351879364079 
0.000186920499427943 
-7.550620010997192e-05 
0.001614722246422235 
0.002030688856438481 
0.000190257224547711 
0.0005452663447058297 
-0.001701423575028995 
-0.00288577549353512 
-0.00049761228564511 
-0.000748765119413471 
0.0007608051299032575 
-0.0009269493891756247 
-2.275564507635298e-05 
0.0007539880423631021 
0.0009325308157258356 
-0.0003460916458133884 
0.0007551420824073214 
0.0005356058477480609 
-0.001437123804885573 
-0.0007030558478992246 
0.0003526765132725393 
0.0008528122256846422 
0.0007392819279389599 
-0.001190189041398505 
0.0007587359945005496 
0.001722842083923474 
0.0007838554939230251 
-0.002219065994377524 
-0.0009587297627975758 
-0.0007846472761916908 
-0.0006596323418303319 
0.001261791705718356 
0.0008600073807449249 
0.002341084581604393 
0.001176065079523049 
-0.0001507849868021677 
-0.001453049201128046 
-0.001947687475518096 
-0.001495109993385417 
0.0005746245178296772 
-0.001283087870467655 
0.0002013410852225409 
0.0001680826848864762 
0.001453715781169897 
0.0008084998387219395 
-0.0001414851911842695 
-0.0005873873274581346 
-0.0007145290980225409 
-0.001635187673181987 
0.001559549228168431 
0.001244744417970717 
0.0001390113544018747 
-0.0002297228140077065 
0.00105924666859395 
0.0007920636312476842 
-0.003024554910324646 
-5.537909414113142e-05 
-0.0014235452589541 
-0.002416355408086411 
-0.001282493397843765 
0.0005174487923336173 
0.001393374555206817 
0.002373381213171326 
0.0007987185011818607 
0.002349516168028705 
-0.0004581246888498493 
-0.0008957976619832143 
-0.00257894951295244 
-0.001208936180183382 
0.0003106317620037445 
0.0009432204219375199 
0.001443589594867148 
-0.0002360619051936547 
-1.582701143841928e-05 
0.0005555037519594295 
0.001784210815376554 
-7.980562590604979e-05 
-0.0004572313454657275 
-0.0005582702188291911 
-0.001087368557634777 
-0.0002063383630116873 
0.0004511707721104301 
6.491057562611317e-05 
0.002486599459977599 
0.0003413013336373704 
-0.001033966253171663 
-0.001395774945786349 
-0.0008027526765135953 
0.002127083427375957 
0.0003123087320857117 
-0.0002791659533519893 
0.0007428999446107328 
0.0005523488063270655 
-0.001001432088636452 
-0.002213296905568452 
-0.0003355960599743839 
0.001074500873363847 
0.0001461266233034811 
0.0008682640921756526 
0.0006210093489249889 
0.0003520429873946458 
-0.001404629660650603 
-0.001428660794774555 
-0.0003235035668692409 
-0.0003581011112865856 
0.0003469008335564459 
0.0009792741816846125 
-5.046430823111206e-05 
-0.001360909032824842 
-0.0007238376887907761 
0.0006377817120815576 
0.0004345053166789339 
7.643941473054337e-05 
-0.000575402940448439 
0.001048939883551068 
0.0005934862641525422 
0.0001762531749683279 
-0.0009311293778236382 
-0.0004421524978289345 
-4.128401843323509e-05 
0.0009374528372309626 
0.00113666594786011 
0.0009355050228689697 
0.001024606944253173 
-0.001687577132061164 
-0.001848641591813244 
-0.0001432301157827736 
-0.0004496320096878185 
0.0001279007739180365 
0.0006142906160095879 
0.0007451912044522019 
0.001259284908785481 
-0.002898963132702211 
-0.0007523160255996195 
-0.0005907685074672278 
0.00140053006547203 
-0.0009320173349442341 
0.0007236999870678841 
0.0007794397118701663 
-0.001226559665743779 
-0.0008840871468103021 
-3.06039452185448e-05 
0.001329730384024443 
0.0001455479126226223 
-0.00155533940572924 
0.0002615968790701126 
0.0005165509032443709 
0.0008005632777941338 
-0.0008291440571475783 
0.0008130608034877719 
0.0004256278802786003 
-0.0005277663781298435 
0.0002504067941733062 
-0.0008175029648417633 
0.0002054057107367856 
-0.0002086614187883608 
-0.0002852397355392426 
-2.40509780493857e-05 
0.0001323407617255669 
0.0006524517334513712 
-0.0001198242900951771 
8.16562472286596e-05 
5.5126210306503e-05 
-2.273314301161251e-05 
0.0001023596615514826 
0.0005003705023510186 
0.0004933781208915637 
-0.001185183406354225 
0.0006294639838408662 
0.0001813165543630836 
-0.0004933599649427166 
0.0003659433761986897 
-1.428669591399985e-05 
0.0003129966496604526 
1.1033979521885e-05 
-0.00108795797985997 
-0.002314275092122284 
-0.0009323066218728785 
0.000352391001345365 
0.001126854972974885 
0.001143713432106228 
0.000630004279790495 
0.0003131017389603755 
-0.0004143338083138767 
-0.0001304366636085297 
-0.0008834952058692267 
0.0001515323777115989 
0.0002797709059620565 
0.0001606333831548705 
0.001085587202440975 
0.0003621897994714015 
-0.001120631896394946 
0.0008525043626088751 
-0.0004817559855945793 
-0.0001842053732652693 
-0.000158212676160556 
0.0007692087865198565 
-0.0003222772678103916 
-0.000255685438863121 
-0.0003144265045665698 
-0.0007595104433072219 
0.0004962222440462238 
0.0007369868425564832 
0.0008186197589715752 
0.0002851993284801045 
0.0007433643333293765 
-0.0007078000872445794 
-0.001707932073963707 
-0.0002907600612485699 
0.0003489481953244918 
2.337670925795499e-05 
0.0007087601789558458 
0.0005668902047776126 
0.0005873832549313777 
0.0005180014602005889 
-0.002557450039331111 
-0.0008923865659121005 
-0.0006691288903378748 
0.0005796730106722807 
0.0005253778086225055 
-0.0006978237979725521 
0.000104876078331482 
0.0009968627113906953 
-4.230045192615625e-05 
0.001246932056328041 
0.0002168938839018257 
0.000677745303505776 
0.0003698762546980706 
-0.0004995075147931709 
-0.001308748648382854 
0.0001138782018158507 
-0.0009119196342053177 
-0.0002958634072078375 
0.0004459940043756769 
-0.0002509114039086031 
0.001700173564305032 
2.961790104810245e-05 
-0.001233144200380567 
-0.001000716535864628 
0.0005099999805010826 
-0.001042062137406472 
-0.0008428214872840154 
0.0006945426317288266 
0.001509268534959647 
0.0002937912168822118 
0.0003566396814282332 
-0.0006117912970361723 
-0.000452417240403939 
-0.002535322232887037 
-0.0006221365001826533 
8.086985747850273e-05 
0.001533059583630875 
0.00176787194995422 
0.001331690280699482 
0.0003311643328928888 
-0.001982047368718011 
-0.001519502895096995 
-6.741045120995912e-05 
-0.0001401368816923427 
0.001385478537057998 
-3.120365377405771e-05 
0.001074787578408382 
-0.0004118311397523559 
-0.0003850311910724198 
0.001362370856160803 
-0.0001677499680335236 
-0.00120033458337633 
-0.001701102713524941 
-0.00136959192907457 
0.0003659881516707535 
0.0008601183208678205 
0.001755451768178333 
0.0008054941128984236 
0.0004282252254223918 
-8.738301214179001e-05 
0.0002412119833988521 
-0.000380547745208819 
-0.0003317926416523022 
-0.000789341028753965 
1.928300890545368e-05 
0.0007255498157333136 
0.0006020824264694882 
-0.0006811430810000422 
0.00128564031421796 
-0.0006848023637396559 
0.0001216619134588138 
-0.0007347162147677945 
-0.0007291229075038213 
-0.0004140254905234756 
0.0003104152788227351 
0.0009826534287792562 
-0.001612350938836609 
-0.0003989759794183217 
-0.0002349141911676262 
-0.0003957435497653596 
0.00166809134497771 
-0.001089224537033274 
0.0004139418624022329 
0.0009035080286504453 
0.001268417143897168 
0.0003426710470654167 
-0.001080012932525344 
0.0003823241262535468 
-0.001236474835841991 
-0.0001712153306161976 
0.000276680466835385 
0.0003040069835799609 
0.000142065161502461 
-0.0005831439027103895 
0.0002550078721782694 
0.0005015935030083939 
-0.000819844850909613 
-0.0008023502154378909 
0.0002008944647166209 
-0.0002164783058235672 
0.0005300261379302247 
-0.0003734561338309922 
-0.0001004827792882136 
0.0007574497437919009 
-9.045300918983066e-05 
-0.001180969297290048 
-0.0002885243060622316 
0.0003536288448371204 
-0.000533607787908604 
6.519665503446995e-05 
-0.0001431010454444355 
0.0001692372670215591 
0.001463289572680452 
0.0008889168687853818 
0.0004459206548788012 
-5.942569435111651e-05 
-0.001180272822876856 
-0.0007612088516533351 
0.0001463610544136723 
0.0002534621312217969 
0.0001713965624499215 
-0.0001344534870368011 
0.0004647662619487688 
0.0001824173247949713 
0.001009759799801732 
-0.001746207438439446 
-0.0007310724282446424 
0.0007607161163917413 
9.922375365196081e-05 
-0.00101136948207675 
0.0009084109699260717 
0.0003515786557328868 
-0.0009367388305639387 
-0.0004996479673801384 
0.0003518313963978577 
0.0001944287989391892 
0.0005466563618931188 
0.001170784923938054 
0.0006075619957171776 
-0.0008538595841062193 
-0.0003795299093998882 
-0.001406578230863968 
0.0008857482050653884 
-0.0003207074678270363 
0.000201729970344804 
-0.0001915144041972244 
0.0005504849993014173 
-0.0006230432557882869 
0.0007573657009836625 
-4.489423457087335e-05 
-6.698689133344224e-06 
0.0004805218291000176 
-0.001017072042827073 
-0.0003868839950020447 
-0.0006290809204859301 
-0.0004960148082554949 
-0.001091505357607636 
0.0003012092722593009 
0.0009809291106806332 
0.001626292595704578 
-0.000399795994425026 
0.0004095537019341525 
-0.0004886700968017536 
0.0006686852070809205 
0.0009947011861696081 
-0.0003721403539478945 
0.0001542685668008407 
-0.001175909310088799 
-0.0002853389982788285 
-2.386112472333254e-05 
0.0007471668095710666 
-0.0006276057568047873 
-0.0002262487808231478 
-0.000640756858317666 
-0.0003350376379462943 
0.001031398769569325 
-1.990551765693061e-05 
0.0006417232224361 
-5.016116742104362e-05 
0.0003030756717239363 
-0.0007442172961118151 
-0.002716341984979354 
0.0003654569258481879 
-0.0001755116329503573 
0.002281126164322646 
0.0003423232877512982 
-0.001199931480431327 
-0.0009611733602046181 
-0.0004961126214373353 
-0.0003262186335711547 
0.001931738199182434 
0.0008238929778722905 
-0.0002093684662933582 
0.0001612456486190133 
0.000935156733046532 
0.0009300599234103689 
-0.0003123730547859388 
-0.001866677046210793 
-9.757225332335586e-05 
-6.119811834574952e-05 
0.0002165080704581514 
0.0001036222452204783 
-0.0009777107435112212 
-0.0007303503858230701 
0.001211279083645408 
-0.0004493647575142173 
7.615854300109762e-05 
4.376678414230766e-05 
0.0006277491337074639 
0.0006184671998893838 
-0.0008814473662221349 
-0.0009401622985773066 
0.0003626535748529611 
-0.0009296228668373308 
-0.0003907108129064573 
-0.0001148764881758515 
0.002180848960844928 
-0.0003506208218745287 
-0.0004257230717442042 
-0.0002735660049807947 
0.0007752321690057538 
-0.000734417272946877 
-0.000671852086881656 
-0.0003969770661737714 
0.001983074058464243 
-0.0003435331743329945 
-0.0006683912646277523 
-0.0001245989094455721 
0.001805715538381839 
0.001243209734080996 
2.312500548599165e-05 
-0.0004133474521922198 
-0.001617029574481998 
-0.002111760303575265 
-0.001497573024667564 
0.0003915141434702733 
0.001137162031572919 
0.002276044609821259 
0.001098698109423202 
-0.0007765630565008579 
-0.0006123726066757385 
-0.0004037365755199639 
0.0001704992758659467 
0.0002415033150765943 
0.001282809881858495 
0.001000578962442146 
0.001526642721479599 
-0.001041418649653188 
-0.002871729028681486 
0.0001099542421591096 
-0.0004693141782422101 
-0.001235590595523181 
-0.0001617919414021206 
-0.0009622688652738031 
-3.916253572058497e-05 
0.0002548540348172679 
0.002408469742053727 
0 
