solver_type L2R_L2LOSS_SVC_DUAL
nr_class 2
label 1 -1
nr_feature 2000
bias 0
w
-0.0003117725294453744 
-0.0002181393564487007 
0.0001828756614888049 
0.0001105564350010918 
-0.0001032380235159199 
0.0004178113910857354 
0.0002815105973690345 
-0.0005579577688627269 
-0.0005749507573952956 
-0.0004883199069938282 
0.0003307503237794684 
-0.0004234479918409115 
0.0005043036067761602 
0.0007406351246692306 
5.155409953407709e-05 
-0.0004127524004712485 
0.0003319473457639174 
-4.230928021249058e-05 
0.0001488815686493624 
0.0005458687104931708 
-0.0006983102417284274 
-9.257267101455134e-05 
0.0002185765949182581 
-0.0002373863744099425 
-0.0002719918968137714 
0.0003881883410833557 
0.0002138635341965691 
-0.0002094008413508653 
6.245798908999303e-05 
-0.0001125042660966418 
-0.0004285390277578862 
4.215282646333207e-05 
0.0009070501633647503 
0.0005094991321614127 
1.471976405725132e-05 
-0.0003365509081043412 
-0.0004236367385017463 
-0.0007634910154807989 
0.0002926478723947018 
-0.000328403500531078 
0.0001114069098922427 
8.100437094918948e-05 
-7.354412304215841e-05 
7.26676583500671e-05 
0.000140249108427849 
-0.0006881222238595654 
-0.0001374987761608556 
0.0002940942765593188 
0.0006231921678094555 
9.319394356687158e-06 
-0.0004145315462151587 
-0.0007225512060423128 
-0.000538504528049921 
0.0004156027985402016 
-1.358611952581318e-05 
0.0006942863982876645 
0.0003884028171338055 
7.822948265236186e-06 
2.622408075087934e-05 
-0.001271307695202799 
0.0001040130500252487 
0.0002626283778607417 
-7.177121367931028e-05 
0.0004958782002697568 
0.0006414287064399801 
0.0006707518027655049 
-4.125095671327548e-05 
-0.0007361149634676512 
-0.0007866804194463369 
-0.0002399476647589008 
0.0001211861827655424 
0.0003821742398555972 
0.000178428684238121 
1.91465000788711e-05 
3.380245751714247e-05 
-0.0001529206599638146 
7.101314289686146e-05 
1.221798497669793e-05 
-0.0003592149985449449 
-8.900152682264452e-05 
-0.0004260384891413478 
7.082898618213959e-05 
2.408801586036333e-05 
-0.0008142004084544052 
5.242717722377037e-05 
0.0001955709108292441 
0.0002069169951953988 
0.0005354739064097811 
0.0004588664803213599 
4.217832191350266e-05 
0.0006541503738314629 
-0.0007707347624038104 
-0.00106460778271713 
0.0002643926306779944 
0.0002767130755199413 
0.0001195301962065077 
0.0007068250587529522 
0.0001556249226781064 
-0.0005812337172899304 
-0.0005778911936089416 
-0.0007556613445766148 
-0.0001068085533587939 
0.0002498249685741852 
0.0007576076364520975 
-0.0005306718308404424 
-0.0004664392846681207 
0.0001095973351251043 
-0.0003626891817740364 
-9.851920970647974e-05 
0.0001971769336128791 
0.0004853437151840615 
0.0004375157225319986 
8.131524867358397e-05 
0.0002397907185387922 
-9.972303002340108e-05 
-0.001147149554714811 
0.0004059789441557557 
0.0002124643531214879 
0.0006231436602379514 
-0.0003799034741368216 
-0.0001748418051716244 
-0.0001210337956141078 
-0.0004958961474350081 
-0.0001962751970818822 
0.0002025825134070884 
3.543792197397424e-05 
-0.0003168988222240367 
0.0008238297302213034 
-0.0002433733461179912 
6.210810772093965e-05 
-0.0002322518256169902 
2.41180622872163e-05 
0.0002211445410227437 
0.0002078384525987446 
-0.0003418972807821311 
9.550073169907514e-07 
-0.0002013446497537391 
0.0001826647652081313 
-2.865923081578596e-05 
0.0002489643239904751 
0.0002574713099431546 
0.0001866596871242377 
-0.0002365102740225912 
-0.0002521992944274445 
0.0003320733669154641 
-0.0008017140478430826 
-0.0005171519068541498 
-8.738486762054148e-05 
-7.679516944537865e-05 
-0.0003182308451110229 
4.955247139935384e-05 
0.001205504365873437 
0.001758580490225045 
-0.0004712682413559905 
-0.000306364427075046 
-1.983208414728582e-05 
-0.0008990523303857969 
-0.0003251408863010253 
-0.0005617205885458765 
0.0006518759663511349 
0.0005663559134414796 
-0.0004893338877534422 
-0.0003441309909822785 
-0.000745692034675038 
-0.0008329872231100544 
0.0001307497854014999 
-0.0002233282466494266 
0.001827694073443735 
0.001407683312900922 
0.0001300730189392352 
-0.0007184865013188007 
-0.0004954137266299471 
-0.0006033280586143638 
5.805981908510485e-05 
-0.0005865800378487434 
0.0007450722840590257 
0.001428867584523557 
-0.0004179797389047039 
-8.313558767251107e-05 
-0.0002573151387625606 
-0.001006984958899477 
-0.0005373670061624453 
-3.849041089932028e-05 
0.0008878373038764068 
-7.071070613168687e-05 
0.0009897831685350849 
-0.0003888954301343283 
-0.0006555360481089271 
-0.001055838136580276 
-0.0003528924572768967 
0.0006595888065818966 
0.0006636264731645829 
0.001799000163375371 
1.013758480319423e-05 
-0.000237577863028594 
-0.0003055391951068565 
-0.001364021033849289 
-0.0006084330269196519 
-0.0003591472924229448 
0.0009590531761233642 
-9.52201341759545e-05 
-0.0006628474704935412 
-0.000507657069525891 
-5.54082658542383e-05 
-0.0006042682659542894 
0.0001307175943329477 
0.0006517141171007495 
0.0009452837347038651 
3.924492560306063e-05 
0.0001635573972274109 
-0.0008396733940580134 
-0.0004097612165256108 
0.0009985543721156127 
5.521764565730978e-05 
-0.0003652029490058747 
0.0002301370529496332 
0.000319120983269733 
0.0001290445081426876 
-0.0002508688831941755 
0.0001671054648706617 
0.0005831524141519918 
-0.0006924797802701397 
-0.0004471473981708806 
6.414652516364931e-05 
-0.0005361484308438688 
-4.878539814732623e-05 
0.00021636017985155 
0.0004735068738309022 
0.0003412531353292787 
-0.0001449580659570461 
-0.0001235377834641251 
-0.000295927058093465 
3.830834821159465e-05 
-8.827763436607651e-05 
-4.41229278719595e-06 
0.0002519048079710056 
0.0006667748840077989 
-6.546532334639771e-05 
-0.0006544389804373458 
-0.0002966220242664938 
0.0006834850953039246 
0.0003095203828829704 
-0.0004260798426517549 
-0.0001140763316722983 
0.0006430909125423565 
1.739174188931806e-05 
-0.00083199074791741 
-0.0004076993147583413 
-0.0004256237998598467 
0.000410308698146118 
7.832472254442274e-05 
-0.0001249157865780614 
0.0001752034429331488 
0.0002610376999170851 
-0.0003705940146047316 
-0.0001186227597555544 
0.0001517334776360186 
-2.491959320993994e-05 
0.0001113686711969995 
-0.0001125117838014341 
-0.0005565224903034747 
0.0003164971270959019 
8.081067901064039e-05 
-9.413372803558626e-05 
0.000736025699514167 
-0.0005331229169093794 
-0.0004871694998434217 
-0.0007967804136298662 
-0.000389515002916593 
0.0002953940773105444 
0.0003030289082186446 
0.0007731398670057553 
0.000345018466501819 
-0.0001164081383847908 
-0.0001398888809086286 
-0.0005863701066448391 
7.819461323304516e-05 
-0.0001366884389754735 
0.000161737893141407 
0.0002549067421806161 
0.0004811718404872629 
0.0001202003298390737 
-6.843135863241606e-05 
-0.00175162405244978 
0.0005155027757671112 
0.0003124195968141892 
-0.0001205089612811687 
0.0003918198940856327 
4.941787082472497e-05 
3.716276905629487e-05 
8.371305739091512e-05 
-0.0001999706749632153 
0.0003788093978572653 
0.000115150264992198 
-0.0001279133818013085 
-0.0004593316124134733 
-0.000786056788358402 
6.147864108578724e-05 
-1.501706638684833e-05 
6.827630223808156e-05 
0.0008227309908603741 
-0.0002020747012909108 
2.987348421973186e-06 
-0.000104167781129385 
-0.000714552057603112 
-0.001280781378685667 
-6.871148361860541e-05 
0.0009046404196217585 
0.001143222539441292 
0.0004547538421136607 
-0.0005232825773427756 
-7.015539735426572e-05 
-0.0005796112806606441 
0.0002053821849670332 
0.0001605026085124386 
0.000390833057615565 
0.0008684833565042629 
-0.0002079749619925502 
-0.0002522473536468949 
-0.0006940000895198717 
-0.0003458625215072409 
-0.000301898219008948 
-0.0007732298459496231 
-0.0001581339009490718 
0.0001015415609536712 
0.0002945028825448582 
0.0002092659811950563 
0.0008621041412882123 
0.0001866291197973041 
-0.0001275515763179433 
8.106290399028674e-05 
-0.0005349924491460323 
0.0009267136171319171 
0.0009192711847650778 
-0.0007578192535787544 
-0.0009343928971837705 
-0.0007575794948916526 
0.0001211541135283466 
0.0007066902849087796 
0.000288032132946536 
0.0001671530078709515 
-0.0003516145367185465 
-0.0008854661263766118 
0.0006893267065268094 
0.0001172000052964553 
-0.000463895658568222 
-1.065667935782414e-05 
0.0007384209417656773 
-0.000226258613064861 
-0.0006160484948872239 
-0.0001332339068819036 
0.0004630730242726013 
0.0003373802893602462 
-0.0001894582953624368 
-6.805515458978651e-05 
2.235080752566858e-05 
-0.0003650997059122081 
-0.0002327285876807552 
-0.0002887860746427303 
0.0006600455217674387 
0.0006582265917201382 
0.0001962005497079041 
-0.0001100512526357825 
6.880870872081153e-05 
0.000114850626469382 
-0.0003664215852398812 
-0.0004851182344695719 
-0.000138859774385068 
0.0004923255305209223 
-0.0007211201251888203 
-0.000111708515364633 
0.0006607386645906613 
0.0001319768581587589 
6.100596805169161e-05 
-0.0003363497607028677 
-0.0003153922434433493 
-0.0009518199798652701 
-0.0008565227455064618 
0.00018867862446083 
0.0004960639019742315 
-0.0002216318222281722 
0.0009230620434147026 
-9.619904545005087e-05 
0.0003556571169501661 
-0.0002593758195514369 
0.001139728427298109 
-0.0007380356518459104 
-0.0003812614440037979 
0.0001100637787334376 
-0.0005215928689520312 
0.000269373339121035 
0.0002124542126348397 
0.002909799787020456 
0.0009905168398922784 
-0.001072588295855636 
-0.001497692258096735 
-0.001614808952673911 
-0.001133031629789422 
-0.0002386026796248753 
0.00152885996005466 
0.001418374578065861 
0.0003288391373323185 
-0.0008286933374887923 
-0.0005475082545435026 
-0.001019225386712452 
-0.0002871823965803081 
0.0001068268982030351 
0.0007164108161759958 
0.0005313637527526206 
-0.0004832256236668087 
-0.0002115748255994888 
5.669754529966811e-05 
-0.0001099026057790935 
0.0006881281910333368 
-0.0002498111268077054 
-0.0003437855012002612 
-0.0005251048044411987 
-0.0002604518362977392 
0.0002388413888417438 
-5.127260716046164e-05 
0.0006848835205223736 
0.0003783322522943627 
-0.0003528502444554572 
-0.0002499934538824408 
0.0002895093783362685 
-0.0008423056696646573 
-0.0006443369163448152 
-0.0002339851477971655 
-0.0004648751122757177 
0.0005036133075008482 
0.0006170043724297123 
0.0006381106411050021 
-0.0002217737319894939 
-0.0001613186560100771 
-0.000646806390781438 
0.000408596384933003 
0.0002743072945747179 
0.0009114458781414489 
-0.0003418941488268921 
-0.0003411438154036706 
8.38101837340215e-05 
0.0001188246701819309 
-0.0001288972685816 
-0.0002797252346330604 
-0.0001744761106150203 
0.0007308950268023889 
-0.000169180388339226 
-0.0003091770445858924 
-0.0007249925992000801 
-3.322238906453726e-05 
-0.0001763594669904311 
-0.0002445222635477863 
-0.0001641427911625486 
0.001145193825587469 
0.0004679226485726812 
-0.0003972220198896336 
-7.254620673029526e-05 
0.0001272771475377895 
-1.502906686906736e-05 
-0.000640991659471404 
-0.0004064255355569205 
0.0007263267989755111 
0.0004242773685948969 
-0.0002670529346010095 
-0.0004269021925792793 
-0.0001542650872645169 
-0.0002856266800953913 
-0.0004191439669088432 
0.00122301977487701 
0.0006752728329741041 
-0.0005172435796738384 
-0.0002155517291444727 
-0.0005538119383820252 
-0.0001809456422978571 
0.0006447621128669713 
-0.0001392664079822493 
0.0004548311243158454 
-0.0001527149170530495 
0.0001492923432481214 
-0.0003541821775462929 
5.558606512460645e-05 
-5.004014843322425e-05 
0.0001508813629509103 
-0.001188271458625174 
0.001178602434732884 
-0.0001242887359171401 
9.433650990635585e-05 
-0.0002195356100149142 
-0.0004090372139780526 
-0.000495677995944387 
0.0001166092268898739 
-0.001315730710635103 
0.0008513165972915846 
0.000714667136913998 
0.0005321185951405128 
-0.000164869035935624 
-0.000834915862624279 
-5.286452007047983e-05 
-4.497093339260049e-05 
-0.0008370021685913444 
0.0009537206606279893 
0.0001215489922061916 
0.0004199515895793794 
0.0001355274461238982 
-0.001460104544904151 
-0.0006104758692203672 
0.0001284310206168597 
-0.0003397120275086391 
0.002258279017537307 
0.0006115810731756512 
-0.0004589097021708881 
-0.0001822635656405423 
-0.001519414191501369 
-0.0008150422578854802 
0.0003327262720168473 
-0.0008627286533134284 
0.00258912841370454 
0.001142970621480911 
-0.0002213802614263835 
-0.0008129395994015782 
-0.000879570236779502 
-9.425571333535401e-05 
-0.0006711385081091752 
-0.001026154820085611 
0.002516923891386659 
0.0008429443555310662 
-0.0007218946577379182 
-8.358818235171557e-05 
-0.0006306843173560159 
-0.0007145814217915965 
-8.650607494894741e-05 
-0.0003232437159371918 
0.002658576440998145 
4.85150992648045e-05 
-4.45279668904095e-06 
-0.001064595620285056 
-0.001231385748121507 
0.0004449008443776491 
0.0003281689794268567 
0.001067091648033694 
0.0004202612054092453 
-0.0005868919581146898 
-0.0003957348280717853 
-0.0002096664328267779 
-0.0003987246696381292 
-0.0006123700557951034 
0.0003532299540446639 
0.0006102801124402125 
0.0003372538315446441 
-0.000296868291124921 
8.381667052392212e-05 
-0.0001887869312522128 
-0.0009096646655391293 
-0.0001180456132901099 
-0.000354270872952652 
0.0001391733598003377 
0.0008294829289802985 
0.0002878640408828836 
0.0001631071003043662 
-0.0001520830903624389 
-0.0008087664041632977 
-0.0001172453239566701 
8.289974604325052e-07 
0.0005316576192874464 
0.001397091798763947 
5.277376211732636e-05 
-0.0008334631278956934 
-0.0003804986272105073 
-9.100858829909189e-05 
-0.0004753860769218437 
-0.0004740484474270822 
0.0002570500766808956 
0.001441791144105522 
0.0003282575309674829 
-0.0007808842034660306 
-0.000297943292246523 
-0.0001824825682847492 
-0.0007084496233910195 
0.0005473864321902249 
0.0004767619103908107 
0.0004040265812999918 
0.0005899039239025836 
-0.0008259414557703222 
-0.0004395797476077314 
0.0003149873592495494 
0.0009167072835373527 
-0.0003323464236804061 
-0.0003284210719911179 
-0.0003790393024952565 
-0.0006712614529662959 
-5.085269539261808e-05 
0.000377930283395846 
0.00235856399514984 
0.0005935037701241621 
-0.0005529830656466956 
-0.001305300742182148 
-0.001065466710807897 
-0.0006980472771848308 
-0.0005330334282712809 
0.001100144964650365 
0.0002236378117737399 
0.0004208510870258967 
0.0001927578747741293 
-0.0008570897839018592 
-0.001729307215408012 
0.0005290003822294266 
0.0009326621223216363 
0.0001184159071415887 
8.311428424030069e-05 
0.001234317850956553 
-0.0001448721847704192 
-0.0007866433603017583 
-0.001331049266984919 
0.0004267726591239206 
0.0004443007579564621 
-4.049012383393089e-05 
-0.0003334731545809837 
-0.0002943610547818899 
0.0009251134612111749 
-0.0003292446461818046 
-0.0004169456926890247 
0.0008597433663293754 
0.0002476231513569531 
-0.0007670023596155216 
-0.0002955076431580215 
-0.0004755319213735234 
-9.485907111873354e-05 
-0.0005230248726506271 
-1.481199513822964e-06 
0.0004069136513342861 
0.0007915087253999897 
4.46769279592563e-05 
1.542404461724555e-05 
-4.781796853032154e-05 
-0.0005381508056165753 
-0.0002451899827725693 
0.00127698957519509 
-0.0002822789883542976 
3.965211241393733e-05 
-0.0003465541529889809 
-0.0006318157836025076 
-0.0006522232690921583 
-0.00110845024697719 
-0.00067780990189836 
0.00206122419344798 
0.0008110474260770551 
0.0002864801223053776 
-0.0002096036517777978 
-0.0001392836056252693 
0.0001100833628238371 
-0.0002387911509254016 
0.0001324030586202506 
0.0001807031657035324 
6.628180443433129e-05 
0.0002709949855901739 
-0.0005268915639287212 
-0.0002333839734025305 
0.0004121244903248652 
0.0004130052776927561 
0.0006848157832465585 
1.655204708531774e-06 
-0.0004296642413475118 
-0.0005364529001292914 
-0.0004281971406223111 
0.0005237196624960587 
-0.0003254452618809262 
0.0001725268035011489 
-0.0006137154500567782 
0.0005821048926573314 
-2.375149251612356e-05 
-0.0001384570659821436 
-0.0003494648563305118 
-0.0003284634013975108 
-0.0005011813388990372 
-0.0003631399888491281 
0.0003469615802557558 
0.0001467595659210212 
0.0005609361574787683 
0.000301769300428334 
-0.0002771703102366425 
-0.0007521214996947399 
-0.000490832559641957 
-0.0001689250787505085 
-0.0006561223921982659 
0.00122532842014044 
0.0009608021785569322 
7.332748055275927e-05 
-0.0003293600212760996 
-0.0008786796263625421 
-8.897009262255791e-05 
-0.0004549281608508796 
-0.0006789270892729103 
0.001122641283592021 
0.0009865349221872854 
0.0002572682499912994 
-0.0003327616074674399 
-0.00118312566225072 
0.0001465942010093345 
1.421350239151914e-05 
-0.0002971678567036666 
0.0004371819933584164 
0.0004024668584513827 
0.0006097991522827471 
-0.0002910663614383558 
-0.0009043897676987659 
7.586744599561949e-05 
-0.0002092595221946764 
-9.374062124166441e-05 
0.00144461341282016 
0.0006931662251106938 
0.0003742855141864989 
-0.001543477130106264 
-0.001231898596247402 
-0.0004698380565516596 
0.0001092151330200569 
-0.0001726108458077959 
0.001263111253783103 
0.001000648826451489 
0.000220198161641467 
-0.0007921693605639838 
-0.001454160370573659 
-0.0009950169083301913 
-0.0003190984106978806 
-9.807739935263828e-05 
0.0009737250856495542 
0.001492796027246296 
0.0005899529604113205 
-0.0003638771465925063 
-0.0005395927635314568 
-0.0003132426049440191 
6.796014487603832e-05 
8.504743374788429e-05 
0.0002119372113175337 
0.0008840993487094365 
0.0005317163330213685 
-0.001065255079278945 
-0.001651936234664564 
0.000293721847101996 
0.0001800477058957685 
-7.225315940099115e-05 
0.0006542718093592602 
0.0002852307379641716 
5.964913483371927e-05 
0.0001931388815589806 
-0.0009547178232919575 
0.0002003215368110297 
0.001075801970006507 
-0.0004533535816848708 
5.366951021370473e-05 
-8.595627259918827e-05 
0.0001626397445782909 
-0.0001284095242172006 
-0.001930037981033312 
0.0005376281683554295 
0.001531434785533889 
0.0009172937021387969 
0.0002767957042834208 
-0.0002186283244534802 
0.0001327670734578103 
-0.001320769958300347 
-0.00181081956118598 
7.001565770763396e-05 
0.0007105468615786985 
0.001226245205972487 
0.0007596051579980165 
0.0008008950259130237 
-0.0005722816371397635 
-0.001348307506872331 
-0.0002359666537955402 
-0.0003401231116820335 
0.0002508946906070946 
0.0001014867238098649 
0.001058777452550918 
0.00058988270178031 
-0.0007344962051754278 
-0.0008239318906543341 
-0.0008675626390286749 
-0.0003766053526646439 
0.0007504697806382555 
0.0003781943782799995 
0.0005530381183981699 
0.000379875347963018 
-0.0002398147710499709 
-0.000750663316292511 
-0.0005207819060569859 
-0.0008865187804688185 
-0.0002713579601742375 
-0.0002546673425166288 
0.0008396400322407131 
-0.000284440980900375 
0.0007307174964063319 
0.0005373243122932399 
0.001695877934709023 
-0.0005876897311812635 
-0.001156420470111211 
-0.0005142740140941547 
-0.0005959304711744462 
-0.0005156077627431957 
0.0001512237318692597 
0.001380922369119397 
0.000626423732432012 
0.0008071149840906017 
4.488516513656036e-06 
-0.001528938809261786 
-0.001613018923182694 
0.000535104262363669 
0.0005874870551702868 
0.0004707893132020614 
2.510381062684474e-05 
0.001593369903525274 
0.001138357182443124 
4.97797168590301e-05 
-0.0006293029177683203 
-0.0002027230851406444 
-0.0006785465193516599 
-0.001446802445399947 
4.192433250124613e-05 
0.0004292517311633013 
0.0003214224746383958 
-0.0005237273395555502 
-0.0005245240526079036 
0.0008996440170635211 
-0.0003927161185419416 
-0.0003628941703361921 
0.000177314794592916 
-0.0004873967076513829 
-0.0006773726255509768 
-0.001908785456360891 
-0.0007793551375003818 
0.001586811747689146 
0.001369934771923641 
0.0005877871987224728 
-0.0003027492299182279 
0.0004791238869456104 
-0.000260844049516452 
-0.001162964934688132 
-0.0003077218081362858 
0.001582387139884846 
0.0004848258029675273 
-0.0006445257767720002 
-0.00120104457102864 
0.0001146617271386324 
-0.000218867448864859 
-2.481769783871723e-05 
0.0008763304910421817 
0.001272474479616204 
-6.221369613126508e-05 
-0.0008897053695252838 
-0.0003858216198907058 
-0.0004149631429246545 
0.0003069080752624929 
-0.0003817086376539918 
0.0006473361329633659 
0.00064551762074386 
0.0002267152428559682 
-0.0007621111146408494 
-0.0007819184019508748 
0.0001790095160166088 
0.0004954884766912979 
3.723289927563499e-05 
0.0001167665593644347 
-8.400195404094169e-05 
0.0003458403508132135 
-0.0004609063362804049 
-8.484228719123863e-05 
0.0002626813215636189 
0.0002274070615562307 
-0.0004326844554315228 
2.032677237316186e-05 
0.0004292768243324684 
-0.0001815558337131241 
-0.000361225241947153 
-0.0004838101161958919 
-0.0001839038794612116 
0.0005199908077724371 
-0.0001457902512338681 
6.348653361101746e-05 
0.0003062854524605807 
0.0005578151739725214 
-0.0007743184522666045 
-0.0007791034737049344 
-0.0004906490006308561 
-0.000131176825574601 
-0.0007940809945323792 
0.0003575008501769961 
0.001253341329919606 
0.0003455754679964946 
9.863459590966867e-05 
-0.0007420367734575308 
-0.0005389555144326575 
0.0003118978470921875 
-0.0004170831000555209 
0.0008890671764131474 
0.001012396217222268 
0.0004826769388242802 
-0.001126888505464439 
-0.001480244168560402 
-0.0005534772900771785 
1.534660570460209e-05 
-0.000443413433746128 
0.001663973218318013 
0.001063354194033798 
0.0005969399207885727 
-0.0009653508567817521 
-0.002403068107605966 
-0.0001471327122366265 
0.0001020309206048557 
-0.0004010780867603506 
0.001866095167642717 
0.001388806559062267 
0.0003470129905495739 
-0.0009024379985523314 
-0.001303435136330412 
0.0002087829480976241 
0.000515406707718628 
-0.0002424451072717805 
0.0003628865765320173 
0.0009109765586140099 
0.0003622085723283159 
-0.0009084997285463921 
-0.0007061003250729896 
-0.0001379275018827158 
-4.043534143727391e-05 
-0.0004591263200102934 
0.0006979234737005062 
0.0006427025657724247 
-0.0003862157147432462 
0.0002254281760923265 
-0.001185547236220046 
-0.0006301569779972911 
-0.0005381600891119581 
0.0009585531597686519 
0.000329404340273763 
0.001124898433274159 
0.0003993299251697698 
-0.0005294208311131964 
-0.001130540931737053 
0.0003618527474428498 
0.0006065283147554591 
0.001013333480224746 
0.0003743573093555954 
0.0003120000956960162 
-0.0002710446729937956 
-0.00144856830558139 
-0.001338184611912526 
0.0002305049625414897 
0.001127184394722615 
0.0006098990032903036 
0.0004821299152196633 
0.0003348460694548669 
-0.0006151444607186608 
-0.0009613389545159414 
-0.001296838559732926 
0.0009848679622873322 
0.001601121093054061 
-0.000457208869575872 
0.0008844231260301482 
0.0001564647550570272 
-0.0004181368536652922 
-0.00154161494950589 
-0.001668812073555207 
0.001035887397015508 
0.00199171284436318 
0.0002293766012552811 
0.0003752647550973734 
-7.011271181393739e-05 
-0.001136944057358742 
-0.0008655125067509701 
-0.0004422639726445626 
-0.000433204334674017 
0.0001589641581274805 
0.0002314484677093033 
0.0004808852099469629 
0.0003564831075764623 
-0.0005964961186663285 
0.0001713196422991074 
-0.0008440440133837798 
-0.0009454690129538379 
-0.0007439301046491104 
0.001000734508407755 
0.001040702125295165 
0.000614039960626911 
-1.05062384396093e-05 
-0.0003075935770662475 
-0.001215483878398227 
-0.0006013825059428712 
1.824604634154624e-05 
-1.707500388241431e-05 
2.304934879316653e-05 
0.0003083556767324822 
0.0008355635187206974 
0.0005281745172275721 
0.001505341170043447 
-0.000931489513795687 
-0.000762297227186506 
-0.0008264029008883513 
-0.001303928639532388 
-0.0002937340832950842 
0.0003967077854896998 
0.002073275310729728 
0.0007490271146066641 
0.001249094789146619 
0.0003623008027486358 
-0.001701909089080236 
-0.001921379788124736 
0.0007706033894276308 
0.0003176897364038837 
5.291252623847354e-05 
8.125459373091508e-05 
0.0008877029096425763 
0.0007358770204456656 
6.25630531353958e-05 
-0.001220546893392976 
0.0002580864611564291 
-0.0001772688352974471 
-0.0007604276734107836 
0.0005412471867636664 
0.0004489304955522918 
0.001032535710499128 
-0.001151373762484002 
-0.001356373142569467 
0.0006986020353525323 
-4.871330267361658e-05 
-0.0002927813864769835 
0.0001739210569899565 
0.000314424974821336 
0.0004935553480359688 
-0.001477498038680676 
-0.001750897472968729 
0.0003806553974125777 
0.001159764590367038 
0.0005781479779860734 
-0.0004430364183992827 
0.0005026776887410341 
0.0006721563140497209 
-0.001258338183115011 
-0.0003484147082107895 
0.0006977079309543237 
0.0003539446575310172 
-0.0003062345351547983 
-0.001001313602900017 
-0.000493466874003878 
0.0005385287890407176 
0.0009021748072091673 
0.001661418806929118 
6.373694000834827e-05 
-0.000809842436477575 
-0.001052842629529034 
-0.0006172414591267492 
0.0005323806265399259 
0.0002939125882014731 
0.001291339199977279 
0.0006899677953589432 
-0.0002999365219517284 
-0.0009861318464867951 
-0.0009770005504956703 
-0.0005768750256412162 
0.0003002980494589313 
0.0003681871381104205 
0.001109323061085394 
0.0006547465819021479 
-5.689312170262192e-05 
-0.0006464753006565823 
-0.001279990538859982 
-0.0005794586882184275 
-0.0001897056751648669 
0.0004405809538748256 
0.0003374812678052936 
0.0003775893714016816 
0.0004375037620073454 
-0.0002852539734025224 
-0.0006992158784013745 
-0.0008798669952119748 
0.0001696391337647045 
0.0001882459450157526 
-0.0008305174151827718 
-0.0003683720806378358 
0.001316042615086632 
0.0003842008250962496 
-3.626241165366274e-05 
-0.001084405019067039 
-0.0001598994647672311 
0.0006367624605934349 
-0.0001705794732863803 
0.0005327705043427389 
0.0008485353572930271 
-3.097247207144036e-05 
-0.0007619494534430927 
-0.0002953057596276122 
0.0004029475383883391 
-7.758366322958882e-05 
7.850754822775998e-05 
-0.0001910719942022372 
0.0003541462449072153 
0.0003364385599357685 
-0.0007203662570668838 
-0.001589062032418727 
-0.0002257808106221784 
-0.0004165921785834882 
-6.692308351413996e-05 
0.0004034968868357013 
0.0009853711825699766 
0.0007031335835276606 
0.0001011925644203312 
-0.002374627845017657 
0.0002476593687238917 
0.0001507257155446655 
0.0006182897727217525 
0.0007890492049309431 
0.0004874586020034486 
0.001039081846320058 
-0.001130759618079252 
-0.001071648047089577 
-0.0007716562926434187 
3.248202066037566e-05 
0.0004596862473411419 
0.00111105240629473 
0.001258203783164219 
-6.706398295494477e-05 
-0.001007993370735026 
-0.0008447929471083569 
-0.0007902011052324375 
-1.772214275460496e-05 
0.0002529238988167232 
0.0008779874087932882 
0.0009068942853818626 
-9.719381410392001e-05 
-0.0005469688030259171 
-0.001134582250450093 
-0.00114712928925341 
-0.0002394617685966254 
8.420761884012388e-05 
0.001254762945310377 
0.001231480498011762 
0.000620029952995059 
-0.0006044422828015042 
-0.001279325561785651 
0.0006822933176849734 
0.0003021140403736262 
0.0003292717860496785 
0.001019359601010835 
0.0009999949715147932 
-0.0005233065110861165 
-0.001753748661529682 
-0.0001243651335790237 
0.001338389329271631 
0.001790496145454701 
-0.0006872000068155006 
-0.0008343419309769693 
-0.0006765694372295749 
-0.0004180501551490995 
-0.0005222439997199135 
0.000246854048517651 
0.001774955248001024 
0.000953628192295882 
0.0001635127512045847 
-0.001209210728610546 
-0.0004555221493824203 
-0.0007882179153571494 
-0.00082270325154567 
3.450302678402058e-05 
0.00178010518112378 
0.0006046610363309052 
0.0001031442395341708 
-0.0004697043655848803 
-0.0003518182152756627 
-0.0007007095922103963 
-0.001122376793085599 
-0.001051826779822402 
0.0007187913682537696 
0.0001672989335628085 
0.0001262760699787614 
0.0004672254229036479 
0.000476444495866152 
-0.0004218047424179186 
-0.0005864353716379842 
-0.0001954171942769975 
-0.0005506590719915734 
0.0003864292324893364 
0.0003464582126449742 
0.00023508634134838 
0.0002045154026807389 
-0.0001918084167532318 
-0.0003628467076020937 
-0.0001492482600974806 
0.0005503524705730904 
-0.0004446056963652295 
-0.0005077455786676192 
-0.001095171039199019 
1.01251245851007e-05 
0.0006641077783978055 
0.0008132638498977736 
0.001988225172382671 
-0.0004541490222216813 
-0.0009969681340579787 
-0.00133981794583532 
-0.001457145676449955 
-0.0006739569189044915 
9.254817022926095e-05 
0.002743891994312658 
0.0004510881958970677 
0.00136503347003107 
0.0009018871418437237 
-0.0002966606703264752 
-0.0009673471518468889 
-0.0004065561865201704 
-0.0001867706933031367 
-0.0009999925123264615 
-0.0001170724680715895 
0.0006330981668870022 
0.0009290457540089144 
-0.0003971792378827052 
0.0002226209191628737 
1.599018889667642e-06 
-0.0006722800671977215 
-0.000708634024598226 
-0.0001833425667427245 
0.001296628735256651 
0.001345919957077144 
-0.0002898235925453706 
-0.001258347038982244 
-0.0004518253736387639 
-0.0001722846302389811 
-0.0004519801049759546 
0.0008035449515541943 
0.0002654973976098368 
0.0005748437063693055 
-0.0006055910783774288 
-0.001699619160784035 
-0.0002011108383183816 
0.0005011008085799608 
0.0002535714621661216 
5.042823090421883e-05 
0.0007111450720303776 
0.001464980219490511 
-0.0003768695246720656 
-0.002067475425738254 
-0.0002079219399663409 
0.0001353059388111003 
0.0001688226162261197 
-0.0004784321836996795 
-0.0003612800138116049 
0.000465737969089865 
0.0003815594977244637 
8.722842781269857e-05 
-0.0006011493883133416 
0.0004515539699692623 
-8.826883061755683e-05 
-0.0001399356918568634 
0.0005815491700940365 
0.0002856919915039562 
0.00171757497577494 
-0.0008215482021311342 
-0.0006685990245603522 
-0.0006200437769342957 
-0.0004558054619237131 
0.0001296417856793237 
0.0001988861258214942 
0.0005862418696072326 
0.001114934096359937 
-0.001045636456769576 
-0.0007829791991320818 
-0.0001130190935525171 
-0.0002144367268270108 
0.0002559198950197214 
-0.0003181300577885518 
0.0004170701971511129 
0.0001120387557594406 
-0.0006619159935082772 
-7.201766663912015e-05 
4.428806909013249e-05 
4.785753145667081e-05 
-0.0005374616352441075 
0.0002903217088094964 
0.0004200199854591897 
0.000104483601319039 
-0.0007030259935791973 
0.0004801374425671375 
0.0001003914102319375 
-0.0002679404107131323 
-0.001172776676972281 
-1.063258978037858e-05 
0.0006398280137883193 
0.0005254359198086347 
5.792068486880041e-05 
0.0007295847692697321 
-0.0005109969281238307 
-0.0004794561921240191 
-0.001071813558221018 
-0.0001688601921813834 
0.0007505425250261431 
0.0007152556525023015 
4.231020217981509e-05 
0.000445955909284191 
-0.0004619001883614466 
-0.0002690450186980487 
-0.001625509404459595 
0.0001017297486903386 
0.0003543192189799231 
0.000185760032308767 
0.0003761943955220669 
0.000682534736469858 
0.0003995507952198905 
-0.0006131560918670879 
-0.001453987713023847 
1.772317417281038e-05 
-8.961690769783073e-05 
-0.0004517370256185123 
0.0005116032054781523 
0.0008761357614040959 
0.0005054877778077289 
-7.471801347486101e-06 
-0.001228239895546142 
-0.0008259404352325732 
0.000673442239097104 
0.001360033120189162 
-0.0002220698596920925 
0.0005137680349221706 
0.0003976844121375293 
-0.0008035831548561426 
-0.0009440599329383645 
-0.0005244323379542256 
-0.0002303132285011973 
0.001240884140102361 
0.0007183878725370942 
0.0003191838472841747 
-0.0005907724156139888 
-0.0001581937356643755 
-0.0008863010068874372 
-8.18478297283029e-05 
0.0002942215161587881 
0.0002945487582302635 
0.0003038045306206317 
-5.367779025337846e-05 
0.0002150532158747952 
-0.0002146173788525364 
-0.001116289900371102 
9.431921353958699e-05 
0.000664836644197035 
0.000490118203556512 
0.0007489992783446713 
0.000442763795507233 
-0.0001918600687471505 
-0.001246278531772293 
-0.0004401312836459246 
0.0008978015660965092 
0.0004597354537001916 
0.0007991886636888677 
-0.0002391793262738715 
-0.0006751766778696987 
-0.0002689336961495486 
-0.0006367025888915261 
0.0006100949723147332 
0.001528546637560971 
0.0007444947482001009 
0.0002198970535790142 
-0.000436964615338043 
-0.001064388860274432 
-0.000975003553637194 
-0.0007997065265622497 
0.0001470481358765388 
0.001295238615382456 
0.001224085954633054 
0.0005916973670666173 
-0.0003319797221964165 
-0.0004474340698227918 
-0.001011634179994352 
-0.001640366190310721 
-0.0008131840571687902 
0.001193770498728031 
0.0002536969451596849 
-8.137295554404743e-05 
0.0001712433849817514 
0.0003215923053212745 
-0.0004389207838789334 
-0.0006068206059213226 
-0.0004195372416714344 
-0.0005260305155952753 
0.0001992680518995622 
-0.0001805380679182874 
0.0001101657439988426 
0.0004329815945095509 
0.0004315270703276757 
-0.0001651598589387734 
-6.423488683374036e-05 
-0.0001420740468678295 
-0.000269087372118105 
-0.0003509911517595401 
-0.0009581041168539434 
0.0001327920127386175 
0.0009199374847935841 
0.0005755696901590233 
0.001683457484532882 
-0.0004290702475334713 
-0.001300828852602211 
-0.001541134259122493 
-0.001113754980672432 
-0.0003726677343053572 
0.0006874369240071783 
0.002256696976906749 
4.61017964141399e-06 
0.001346531381761081 
0.001167799481183633 
-9.194270963305826e-05 
-0.0008792762537302439 
-0.000554462737034982 
-0.0003391145805597053 
-0.0008019333274149864 
-0.0004387523151349416 
-0.0005755595582684949 
0.0007695521030612556 
0.0002834877887664143 
0.0005271572977337755 
0.0001345814877553096 
-0.0004274827529423736 
-0.0004036884137915873 
-1.069938360296662e-05 
0.0008031218664080081 
0.001007423724895448 
0.0001634152043364827 
-0.0003928935193199117 
-0.0002923050038546042 
-0.0006283183689300435 
-0.0007748924891846801 
0.0001487986312688956 
0.0005490574266072634 
0.0009375272166996837 
-0.00123779073744866 
-0.000738759622261469 
0.000221247123265166 
0.0004134216318562411 
-0.0004194264840953611 
-0.0009268544748383496 
0.0006254918863437985 
0.001387380165366647 
-0.0004327110138880107 
0.0001988289488253581 
-9.8168572246228e-05 
-3.320678401551132e-05 
-0.0008454192412399384 
-0.001087663926334044 
0.0002325202514184583 
0.001073105962536857 
0.0008295530497547242 
-0.0007676679465641387 
-0.0007412977317057356 
-0.000297666549008212 
0.0006095476349197494 
0.0003752810892107344 
0.0003277293358027194 
0.0001357911162336638 
0.0009610321475111442 
-0.0005265249390650593 
-0.0009875088698386792 
-0.0002463880248774692 
-0.0001674109922841441 
-0.0007362433614038807 
0.0004060580327451719 
0.0003762655975630318 
0.001636307094846507 
0.0008431202418783719 
-0.001026517898810525 
-0.0006866575625428487 
-0.0009384325550826319 
-0.0002086324379598425 
0.0002131648838242358 
-0.0003063495014105229 
-0.0007434339398721944 
0.0003956788988704674 
0.0002580540636896355 
0.0002271580167420746 
5.941314695552433e-05 
-3.107029221161279e-05 
0.0005091603319105297 
0.0001404880950888288 
-3.692802359796101e-06 
0.0001257738650022074 
-0.0001638185671629049 
-0.0003755471375102162 
-0.0003481967827300751 
8.629580746097178e-05 
0.0003446682388218642 
0.0003687204639726113 
-8.975474104666718e-05 
-0.0001612471122017714 
-3.945208506912621e-05 
-0.0002231813315179182 
-0.0004592844647087351 
-0.0006893604408935959 
0.0001939550894881691 
0.0004865837902898179 
-0.0005398083202871852 
-2.021343152045754e-05 
0.0005506643748183881 
0.0001764749800407249 
-0.0002558037704355454 
-0.001651659514322292 
-2.580395767036792e-05 
0.0004673516715933112 
-0.0004244983509543119 
0.000307819899859826 
0.0006442264818451167 
0.0004651937265300299 
0.0001387849323499724 
-0.00074427268329576 
-0.0005368237709024245 
0.0005212455444160077 
-8.992315252147707e-05 
0.0008330590557641789 
0.0004331205662517657 
0.0001719760869829341 
-0.0007067553267689579 
-0.0008275524622733409 
-0.0009739684699348732 
-0.0003993898375322194 
0.0001805142326547146 
0.0003432212363711418 
0.001230587234726843 
0.0003555331372039918 
-9.602022583397995e-05 
-0.0001698809924088277 
-0.0006782813740925393 
0.0005129102321927091 
-0.0005870095704269204 
0.000821478452451292 
0.0004862433955590639 
-0.0003152924574458295 
-0.0001899868028354831 
-0.001034859471854178 
0.0001130058578267603 
0.00100250498397831 
-6.14131737760955e-05 
0.0007964442844181296 
0.000804563912763969 
-0.0008176184432079761 
-0.0009454719401627843 
-0.001065778219304161 
5.553530945205381e-05 
0.0006657555531547335 
-2.89970956941156e-05 
0.000365954063818888 
0.0008773922118998755 
0.0001999157850715552 
-0.001175650508534504 
-0.0002251580595430718 
0.0005400977323407806 
0.0008743913921175061 
0.0007991967538064012 
-0.0005968714827874636 
-0.0003845745653018707 
-0.0006957887775015086 
-0.0004394647199074366 
0.0003843707111245133 
0.0004000918095539561 
0.001208756686506326 
0.0005792302746904394 
-0.00111838074340418 
-0.0006797421396917092 
-0.00102093214862077 
0.0001513048862676653 
0.0002865499158525973 
0.001482715427426204 
0.0007510903149781175 
7.976527136582059e-05 
-0.001078532159161071 
-0.000304571976066622 
-0.0005593352207232514 
-0.000765005838183405 
-0.0006357733552470411 
0.0002077159324511342 
0.0009239670070856079 
0.0005177714244988344 
-0.0002255939970744611 
-0.0002361980885964088 
-0.0003674463962321824 
-0.0002554549155163496 
-0.001345148334655271 
0.0002273470526489248 
0.0009115486681641197 
0.0002118536638468994 
-0.0002684412162619297 
0.0002375966630222108 
0.0001846587704859548 
-0.0003719832243051299 
0.0001435112596149721 
-0.0005035274120833359 
-0.001057123564619222 
-0.0008639686307661652 
-0.001032968452616171 
0.001164826103160901 
0.00149489280643741 
0.0005234210976465748 
0.001841903847319542 
6.22544715818646e-05 
-0.001471845029840672 
-0.001899824490889617 
-0.001989282330658009 
-9.42369491006569e-05 
0.0004353830081844825 
0.002976001381808229 
-0.0001741549452917633 
-0.0003657056675353422 
0.0002481219342413242 
0.0008652882495681551 
-5.380006159300113e-05 
-0.0001173557489567416 
-7.881469942892764e-05 
-0.0004515052270401648 
-0.0004254469230352457 
-0.0004161937718040665 
-0.0002941522498003648 
0.001173433043264028 
0.0002356883510983269 
0.0003438037322339847 
-3.898411802155121e-05 
-0.0007060742299715718 
0.0006234780008550526 
0.0003219447646391982 
0.0004202406094521464 
0.0005881153267956376 
-0.0009706669661899523 
-0.0005474585112341163 
-0.0005483307258822517 
-1.524866447219368e-05 
-3.432028836417805e-06 
0.0003798160810675699 
0.001043491959711481 
0.0002733019303385079 
-0.0006205473527357736 
-0.0003169691250237846 
-0.0003770966390049933 
-0.0005064909915530451 
0.0001693420005692036 
0.0004906292267464853 
0.0003656761401957823 
-0.0002598487292252803 
-0.0004741546627233152 
4.975237503630974e-05 
-7.845065270484709e-05 
-0.000390871863930801 
0.0001278920161074075 
-0.0001378043985288155 
0.0001602168252100569 
0.0003413640659569906 
-0.0002839657843266664 
-0.000450835058899476 
-0.0001685050397686571 
0.0002794894408456954 
0.0001147292648417251 
5.713954594607751e-05 
0.0007173514986746515 
0.0002451039264290415 
-0.0001587962372928511 
-0.0007727948241185154 
-0.0004667846279206651 
0.0001317218403229251 
-0.000376061019749311 
0.0003982573215351671 
0.0006161260245213209 
3.128982361287002e-05 
-0.0001297444553580474 
-0.0002936312602975655 
-1.404681671115637e-05 
-0.0003447072930578779 
-1.766032431951945e-05 
5.56988752104396e-06 
-0.0003269375948595518 
-0.000284024940896392 
-0.0004539790982549021 
0.0002111972812045263 
0.0003810387430787697 
0.0003803586981633092 
0.0003137655605039002 
0.0005828633465363844 
-0.0002637805839170841 
0.0003213005219374501 
-0.00136518755470123 
-7.327553981417638e-05 
0.000250271436927468 
9.766065381970353e-05 
-0.0001482389491357903 
-5.424325021834373e-05 
0.0003484789388507541 
0.0003349806792426654 
-0.0004075149711071849 
0.0005005670084961449 
-0.0002093504728465483 
-0.0004947866170955735 
-0.0008371048218396742 
0.0003946104107659408 
0.0004360674883151925 
0.0006738899070658316 
0.0003421958694277461 
-8.285113624985985e-05 
-0.0002094074073885568 
-0.000830828339227191 
-0.0007002882226232661 
-0.0004498694412589622 
-9.045055637754187e-05 
-0.0007355761883004795 
-0.0001157022492473203 
0.001097897864403079 
0.001083148120718453 
-0.0002681518701489628 
0.0009467579506910521 
-0.0003138229857343955 
-0.0001068980394690071 
-0.0008219170047382909 
-0.0002073219895936096 
0.0001134157433987803 
-0.0003015452136099002 
0.000633850744607123 
0.0001272732213814811 
-0.0001103462570217915 
0.0003542329971855315 
-0.0005097070305237436 
0.0001134954589579043 
3.634252625819726e-05 
-3.582257099393742e-05 
-0.0001789576791586818 
0.0003176080104355492 
-0.0007872426133892538 
-0.0001549453868634216 
-0.0005323746980541917 
-0.0005772789332713885 
-6.280199432746999e-05 
0.0004189339299460836 
0.001311576256556196 
-0.0006188933946641725 
2.830612962261003e-05 
0.0001413225554513249 
0.0001607510944223532 
-0.0005653917907136408 
0.0001446524599910632 
0.0003330816863496848 
0.0001817069133052149 
-0.0006074368608857534 
0.0004295752034475382 
0.0007857001938201787 
0.0002475603269266557 
-7.11827429862248e-05 
-2.284391705704496e-05 
-0.000867142250691066 
9.275746388892129e-06 
0.0006813124511229385 
-0.0005646782760803559 
-0.0002836244948983721 
-0.0001629779469588865 
-0.0002830526315297834 
-0.000218400507780467 
8.550525704719068e-06 
0.0006981692807523168 
0.001970616377747891 
2.439376268342069e-05 
-2.457491526470368e-05 
0.0002831099678111146 
-0.001066730826344538 
-0.0007022161793703032 
-0.0006022870101872778 
-9.426023567106744e-05 
0.0004984386140001484 
0.0001522632393132733 
0.0009886234756472142 
0.0005986035023477753 
-0.0006314133798575626 
-0.0007745861401511806 
-0.001125656842743109 
0.0002113759497794779 
-9.387258202956526e-05 
-7.64438764097356e-05 
0.0001975368655571782 
0.0007645211817167429 
0.0002585722419820558 
-3.197132430975452e-05 
-0.0007775326623779541 
-0.0003066082924612754 
-0.0008721632729870277 
-7.388981150593132e-05 
2.779587834046798e-05 
0.001097953747818461 
0.0007146360333289525 
0.0003949739544186495 
-0.0003589866300193742 
-0.001047543538322972 
-0.000499578190094509 
-0.0006289376872018629 
-0.0007187922489224276 
0.0001772764823996718 
0.0007318822697826938 
0.0004370802799823899 
8.663768735576587e-05 
0.0002661862481656697 
0.0007335978809243774 
-0.0002966788178920443 
-0.0009799028058584754 
-0.0009403190285223036 
-0.0002958863562399431 
-0.0002657854735667587 
3.281478352539261e-05 
0.001872051038507396 
-0.0001796212335960518 
-7.943181043893147e-05 
-0.0001062642869445853 
0.0008577120523292247 
-0.0003511391852018434 
-0.0006023861900692669 
0.0001425500441709739 
6.700431640162151e-05 
-0.0002347442687720788 
1.566151963632053e-05 
-0.0002606982469629026 
0.00129266185453041 
0.0001414903526837398 
-0.0003425698686341401 
-5.730629234294976e-05 
-0.0004303226459259581 
0.00073359256793113 
0.0004537175176390886 
8.664100398282122e-05 
-0.000785887142115802 
-0.0006596853953130856 
-0.0002612045876353228 
-0.000280661825281723 
0.0003399480732494944 
-3.236560384742621e-05 
0.0003870202303686932 
0.000295834327404056 
0.0005355772891258437 
-0.0008374839454622019 
-0.0004807439859303553 
0.0002408417999755209 
-0.0002003599932910661 
2.246081954383432e-05 
-0.0001157888834218997 
0.0001793341330078831 
-0.0004462900722640798 
0.0004565608916065404 
-0.0002414334390011376 
-2.070816152476663e-06 
0.0001394200385303007 
0.0003925713127228437 
7.1015151999488e-05 
-0.000542704402962263 
-0.0002971676153782439 
6.114054563444999e-05 
-0.0002472505862215962 
0.0001742281361888708 
0.0003168160523400966 
3.236320979185708e-05 
-0.0001915961126279364 
-0.000457242609894742 
-0.001134442862470997 
0.0005225710345203575 
0.0002403083730157445 
-3.066365205461924e-05 
0.0008301000272544472 
-8.402331040338895e-05 
0.0001293401135510843 
1.21252267901189e-05 
-0.0009484011633554091 
0.0003909299139661524 
7.47704117743135e-05 
6.522967323279213e-05 
0.0003041130418218588 
0.0001394045186973918 
-0.000445456382493981 
-0.0005794849062722927 
1.674265244700181e-05 
-2.287982672039876e-05 
-1.375982475959216e-05 
0.0009448239175233947 
-0.0003160477594698692 
-0.0001017072745372928 
0.0002087103886675861 
2.20192691592531e-05 
9.978581531067202e-05 
-0.0003366047422754501 
0.0001878383935306657 
-1.422870681929015e-05 
-0.0001181833764250623 
0.0008706928359702218 
0.0002312288948368708 
0.0002088555067131727 
-0.0004901944491663391 
-0.001470085477397696 
-0.0001743205119224984 
0.0002279897381275749 
0.0003467076688078406 
-4.420256247900062e-05 
0.0003858403691824377 
2.016962778674126e-05 
-0.0009939932375115806 
-0.0003802775887823987 
-0.0001685573089629394 
0.0005991709517874327 
0.0005055046665696988 
-0.0005524144073977729 
-1.369783358146956e-05 
0.0001287929942448493 
0.0001140101017673551 
-0.0009116654222656132 
-0.0001239294665157734 
0.0006109768813140255 
0.0005891728334619345 
0.001683294808195407 
-3.811733103659041e-05 
-0.0002345250913587568 
-0.0004111369078964426 
-0.001409287209141703 
-0.0005261789228880999 
-0.0004066520946406346 
0.001259700443409651 
0.0007971805955367364 
5.445062515899575e-05 
-0.0007435600092625341 
-0.0008194869133867362 
-0.0006380365089067442 
-0.0002878891501693061 
0.0007535707674768913 
0.0006928372113780744 
0.0004222688073695251 
-0.0002414755325285961 
-0.0001157983330124148 
-0.0006494135927045124 
-0.00144328566131522 
-0.0001922871520980962 
0.0007885582740876115 
0.001250062540672787 
-4.959965873965387e-05 
-0.0004633156835854811 
-0.0001176163048973048 
-0.0001235460051041731 
-0.000461777632956026 
0.0002521879977514109 
0.0003337400397714233 
0.0006438455165167211 
-0.000765731082961021 
0.0001966233879956658 
0.0004596501654733882 
-0.0007272628102648927 
0.0001148780076502159 
0.0002598203991627838 
-0.0004275280931334081 
0.0008443611138997035 
0.0006992938967981118 
-0.0006267735078497121 
-0.0002092113375794409 
0.0001037440025084693 
-2.903038999400435e-05 
-0.0002257756318894512 
-0.000681409188582875 
0.0008446778820837519 
0.001548744443678044 
-0.0001217113547020232 
-0.000234642924254828 
-0.0006423560004074229 
-0.001427205745287611 
-0.001078418741333796 
-0.000345588739425342 
0.002155735917994011 
0.001169166545683204 
-6.078977906865909e-05 
-4.903656286237893e-05 
-0.0002731961420792276 
-0.0006252008839332092 
-0.0003278011850758867 
-0.0003193083308583283 
0.0002539238644576744 
0.0009651565431852802 
-0.0005371961907784217 
-0.0007208509965513734 
0.0003600796317344998 
0.0003632031920475737 
-0.0002957371568305306 
-0.0002825456353980366 
0.0001104901366090795 
-0.000127773600215648 
-0.0004595505693719463 
-0.0009115467679864011 
-0.0002478138279920588 
0.001056021292706038 
0.0007827055315967834 
-0.0001556392285881457 
-2.785839298347375e-05 
0.0001043809001209594 
-2.734876217259749e-05 
-0.0007087238841920209 
4.228465439924951e-06 
-9.898906829321692e-05 
0.0002057837223343422 
-6.551515887351158e-05 
0.0003326445326765296 
-8.39873410373312e-05 
-0.0002833559808854313 
-0.0008064315930118715 
-0.0005054632993846454 
-0.0001895514050914997 
0.0002916801345373915 
0.0002900166136522395 
0.001244408429003922 
0 
