solver_type L2R_L2LOSS_SVC_DUAL
nr_class 2
label 1 -1
nr_feature 2000
bias 0
w
0.0004046922145130791 
-0.0001637637948884225 
0.0003750203895542574 
-4.025765769662561e-05 
-0.0002296036711209282 
0.0001967534399082078 
-0.0003964092283935548 
-0.000100620579193372 
7.042008445409856e-06 
-0.0005370536866489973 
0.0003251555475648293 
-0.0001252570091327722 
1.556705274531469e-05 
0.0005098453230801989 
3.206320371960537e-05 
-0.0001815513270909413 
-0.0001744172183021551 
-0.0002019477767348839 
-0.0001680910945164522 
0.0003739350679963463 
-3.814800702119069e-05 
0.0001288242597397352 
0.0003049265443758928 
-0.0001792706628546561 
8.475600643849409e-05 
-0.0001001066394744594 
-0.0001675136651709024 
-7.159765567405766e-05 
0.0001771310446535832 
0.0003059796468756608 
0.0001328988669120176 
-0.0003157364918776914 
-0.0001620034660239895 
0.0002134221590569976 
-0.0005514045740619604 
0.0001567296742831601 
2.25594045181613e-05 
0.0002217826243670616 
0.000544005729427803 
-0.0003992804388845891 
0.0004759240875933137 
0.0003827226912743448 
-0.0001834932805914915 
-0.0004395167001665872 
-2.947831779910083e-05 
-0.0002501791408426622 
-9.246259513495001e-05 
0.0001822943683497739 
0.0005302632845308238 
-5.45028711135316e-05 
0.0002598583290861425 
-0.0006152060657326974 
-0.0004932590114783975 
0.000182184998627965 
0.0001210350823721319 
0.0001154373663902149 
-1.100574678896333e-05 
0.0002306733262779083 
7.900029134148849e-05 
-0.000377735288970762 
-0.0001136838463186522 
0.0001521282665700117 
-0.0001116684259555208 
0.0001981025365271303 
-6.683712361987017e-05 
-0.0001571595185104662 
0.0001601596920637015 
-7.710726096929151e-05 
-0.0004863910357395454 
0.0006114240378928826 
0.00018799172972532 
-0.0001262694081600926 
0.0002097362651612463 
0.0004325036378541891 
4.962231946148985e-05 
-7.590917868789141e-06 
-0.0003278921781365027 
3.792270769890926e-05 
-8.163053248284901e-05 
-0.0002668601890050592 
-0.0002275459842707353 
2.906968496324163e-05 
6.523669144501176e-05 
-0.0005879321953800393 
0.0003389092445679265 
0.0001558286187593372 
0.0003443598213673617 
-7.211476876946377e-05 
6.397925974338746e-05 
0.0005285836733568452 
0.0001460986116521647 
-0.0005670494885170851 
-0.0001845279834364886 
8.870370696885651e-05 
-0.0001506884140897275 
0.0001207117470046836 
0.0005396570782969437 
-5.558405381898035e-05 
0.000278418565650432 
-0.0003071462438160453 
-0.0003544124918396834 
-0.0002678799641677668 
-0.0002913032902558789 
0.0005040615126336277 
-0.0005554736190987126 
0.0002234755595419626 
0.0002964482518986312 
-1.241079420271059e-05 
-0.0002181684569999333 
-6.948512073810647e-05 
0.0002668188763805684 
0.0001146064159009524 
0.0001340766740058206 
-3.938908724088525e-06 
6.49981422966659e-05 
-7.44493151333319e-05 
-0.0003899068227403694 
0.000181348086866271 
-0.0003201663145173234 
0.0004538495706290037 
0.0001423961476817222 
-0.0001439589132736267 
0.0001154891739187673 
-0.0002722609036684231 
-0.0003724484690239814 
0.0001578521701557199 
-0.0001022849997420719 
0.0005210269066345406 
0.0003282662213758545 
0.000514934522630985 
1.679884589019157e-05 
-0.0006402098365864877 
9.14194094629508e-05 
-0.0003174736049209103 
-0.0001397093043316726 
0.0001917848591617248 
-0.0001136015355881607 
-0.0001368736495550519 
-0.0001676566404497992 
-0.0005441503579750714 
0.0004128137859179771 
0.0003886705415078723 
-6.807593374387034e-06 
0.0002134165621992543 
0.0003174611593427081 
-0.0002887993674889783 
-0.0002424544647135151 
-0.0008138169368547168 
0.0002180286399591281 
-0.0005707610376003689 
0.0002207708157999854 
0.001205382304238408 
0.001329744203700955 
-0.00069820623575708 
-0.0005250217235286073 
-0.0006926360011132524 
-0.0002843532857430842 
-0.0001382255770111703 
0.0001554548889703933 
0.0008990548431644981 
0.001372910471107654 
-0.0001477410381701326 
-0.0006162348854464227 
-0.0006703537340920433 
-0.0003846455393021084 
-6.044629705136865e-06 
-0.0007648031018395842 
0.001262723570130414 
0.0006631192864953383 
0.0001198871532136088 
-0.0006188700442480958 
-0.0007483209047639669 
-0.0002076867207257679 
0.0002465772371309149 
0.0001033800728070019 
0.0004877250327735972 
0.0007130093341775728 
-4.91728303016734e-05 
0.0001121810769616286 
-0.0005326963785555875 
-0.0005531447254107605 
0.0001374607242508197 
-0.0001897938665199248 
0.0004079677780805533 
7.482117623793314e-05 
0.0008606397141602626 
-0.0002600071856438575 
-0.0004712488839958844 
-0.0004887354192825439 
-0.0008011876631716201 
0.0004138802265391534 
0.000717649147839188 
0.001201227479027535 
0.0007809776930714755 
0.0001030638519338069 
-0.0003343482825649619 
-0.0006221106734475953 
-0.0005513205048928998 
-0.0006619958463414703 
0.0001303173958967608 
0.000905964512697831 
-0.0001425393244101622 
-0.0004470835344249562 
-0.0005017561341343913 
-0.0009307730351738222 
0.0001009284987054264 
0.0003601824960448969 
0.0007008876333778082 
0.0003594157560259028 
8.075197919127657e-06 
-0.0002122594490052093 
-0.0005698305933956651 
-6.642926702979766e-06 
0.0003804389121762658 
0.0003258238242510526 
-0.0002392096085858541 
2.848134644105239e-05 
-0.0001084610719045631 
-0.0001669981550747705 
2.286389860074677e-05 
-9.775866347557531e-05 
0.0001410379602488387 
0.0002528708324167291 
-2.622503456981788e-05 
-2.500665289304009e-05 
-0.000166502776235198 
-2.182486991262048e-05 
3.879394041953496e-05 
1.111455241072731e-05 
0.0001934620975793395 
0.0003424845181044587 
-0.0003267096967905571 
0.0003053344643210907 
0.0002000005959062395 
-0.0003867591732713798 
-0.000486755655822061 
0.0004354297137519425 
0.0003548657296217776 
-0.000287560486309908 
-8.874407551506393e-05 
0.0005130683443551479 
-0.0002367809097261222 
6.558564287910206e-05 
-0.0004397498731947875 
0.0002101405553601426 
0.0002536866031571595 
-0.0001775942601489619 
-0.0001425449899990456 
0.000320582480969537 
0.0005146161884246257 
-0.0001472156910802171 
-0.000790494473257199 
-0.0003342911848234093 
0.000455855402011417 
-9.311183725321687e-06 
3.606957416320503e-05 
-0.0002613373541717106 
-4.913552798162697e-05 
-7.049261097328588e-05 
-0.0006705198156876577 
0.0003191129127051403 
0.0002613196969783415 
0.0005567808320233636 
-3.991702020992754e-05 
-1.728394792664897e-05 
-0.0003462850438606326 
-0.0001306427658544511 
-0.0003845558462896022 
-9.867177037786886e-07 
0.0005111114042755235 
0.0005676532918213382 
-0.0001531992617791104 
0.0005059064009193213 
6.376763627730102e-05 
-0.0002343793326138949 
-0.0006011412990977765 
-5.406083766257099e-05 
0.0002912236314272534 
0.0004429126193986318 
-0.000368417705965616 
-0.0003781828118967285 
0.000144297551374243 
-2.445979679231974e-05 
-0.0009267685779789833 
0.0004368007702295486 
0.0006246961821505506 
0.0002060426547489663 
-3.661485915263954e-05 
-0.0006175793795741719 
0.0003020896742636531 
0.0002153635009177378 
-0.0001841925837934975 
8.426844622460993e-05 
0.0001051834368526089 
0.000493130402333509 
-0.0003524523845418035 
-0.0007538386285533911 
0.0001918352072138322 
0.0002498522286402269 
0.0006378427805185923 
0.0008700527123983015 
4.32424156071206e-05 
-0.000216570307949721 
-0.0009766052951923336 
-0.0002271713525751381 
-0.0003184333888600849 
5.754456278275036e-05 
7.088474992655776e-05 
0.0005940163959130796 
9.692191238774873e-05 
-0.0001951167672536651 
-3.283499963860386e-05 
-0.0001024853002717445 
-0.0001424766225418471 
0.0001493092579768282 
-9.31102935127484e-05 
0.0007426868340143037 
9.336028460570334e-05 
-0.0004745854463652594 
-0.0001268876012225969 
0.0002352117951435105 
0.0001977837895588074 
-0.0003093720959596913 
-0.0006246356709078081 
0.001080103193082844 
-0.0003910438033477791 
-0.0004223618247557609 
0.0002801257298685107 
-0.0003108054741419314 
6.259717490222218e-05 
-0.0004739118793940763 
-0.000962264158454942 
0.001439547704675992 
0.0009525291487523607 
-0.0004165641786518436 
-0.0002453172250051244 
-0.0005345703943426464 
-2.050202071361161e-05 
-0.0001165362964035013 
-0.0004740150338489064 
0.0007708109841252775 
0.0002058774279054544 
-0.0002120469605289645 
0.000426793406489537 
-5.046038518136978e-05 
-0.0002912271067534871 
-9.101366459141977e-05 
9.175934782516051e-05 
4.52387629336631e-07 
-0.0003331218611217367 
0.0002258451704205551 
0.0004935772244556015 
0.0006180928100138122 
-0.0003188296965604708 
-0.0004646323386359854 
4.421898445708038e-05 
-9.126449579279346e-05 
-0.0002747693147023505 
-1.139947834462394e-05 
0.0005443946422479729 
0.0009879456775671999 
-0.0001751636777067028 
-0.0002567957804335893 
2.173825889053067e-05 
0.0006000914898934048 
-0.0003335628152897307 
-0.0003642357252588372 
-0.000434206314979633 
0.0001465038588082715 
-0.0005058074178981316 
-6.775381305446157e-05 
0.0005202654631969813 
0.0004459192993313373 
0.0002810687897344685 
-0.0002162766589099253 
-0.0005581084085258999 
-0.0001266676242930478 
-0.0001829531533738463 
0.0001121149062346935 
9.097046781372379e-05 
-0.0001766862804527211 
-8.058783266991466e-05 
-2.640936427874179e-05 
0.0004360299937024975 
9.736231949885552e-05 
0.001041932801219387 
6.014974635069932e-05 
-0.0002128311505351266 
-0.0001785391477655614 
-0.0003482326666671883 
-0.0001659705372260403 
-0.0002480602521923828 
0.001668500128855343 
0.0004696285047094553 
-0.0001111429071386811 
-0.0007675103149829523 
-0.0008456378836680936 
-0.0007046333926569064 
-0.0002212299697910561 
0.0005578369473555484 
0.0006477147425196422 
0.0004209388552510665 
-6.257093658586073e-05 
-0.0007813149223902272 
-0.0004113935953418659 
0.0002769007960351328 
0.000301003110885763 
-0.0003454669376909987 
0.0006080834456594236 
0.0002878278718347121 
0.0005600515503476914 
-0.000792293576372601 
-0.0009524337863469336 
0.0004513404145221969 
2.488123973170587e-06 
-0.0001192529309350232 
-0.0003786888308643873 
0.0004616145735852652 
0.0003606059461228203 
-0.0006679684180657664 
-5.742842065818869e-05 
-5.577177312032423e-06 
-2.964413151558809e-05 
0.0003628975713905184 
-0.0002257763100567523 
0.0001435777832233351 
0.0002127407598295573 
-0.0009532368918959437 
-0.000798478062886523 
0.0005577021281313701 
0.0006692374167815415 
0.0004400442895560696 
-0.0002896041595936099 
-7.695638319200441e-05 
-0.0002817067065176217 
-0.000510870170428629 
0.0003912859571174422 
0.0007943534097288744 
0.0002181520673553462 
-0.0001988429017871563 
-4.441477637986431e-06 
-2.584409829322786e-05 
-0.0001342802206727814 
-0.0004383704646107571 
-0.000206812020822528 
0.0009309912885740989 
-0.0002292452082615464 
0.0001538133144073665 
-0.0001092674520188735 
0.0001396127966167086 
-0.0003729587817757568 
-0.0005420574367120061 
0.0003213519006382977 
0.0005818950211383831 
0.0001762747926015407 
-0.0001490397278056632 
-0.000125007139444718 
0.0002307787130541533 
-6.808752625248656e-05 
-5.154885119446372e-05 
-5.540016986895133e-05 
0.0003131439146545256 
0.0002250379303549772 
-0.000423105758620398 
-0.0003859748014879798 
-0.000475648271143162 
-1.026923987621369e-05 
-0.0002445572517858756 
0.001080294385850655 
0.0007046454660379992 
3.034384554379012e-05 
-0.0006530230204565733 
-0.0006648163937280828 
-0.0002216885592122259 
0.0004143018282078636 
-0.0004624207233604297 
-0.000495393517635581 
0.0008117245896872707 
0.0006393572257033913 
2.474666302043404e-05 
0.0002157322516447066 
0.0003053725379141366 
0.0001467903626161118 
-0.001408878330567199 
-0.0003070459552818016 
0.0005441773227426472 
0.0006929049697805477 
-0.0001432420461665148 
-7.899634735094351e-05 
-8.711223527109471e-05 
0.0001000407879894002 
-0.0004493391455749924 
0.0001981301932308634 
0.0005976548931093069 
0.0001257788049626998 
-0.0003603458384126012 
-0.0007703287587179577 
0.0004585005847149457 
5.472339481186196e-05 
-0.0004941697355895982 
0.0009418262839241219 
0.0004210360529787223 
0.0003803087571922562 
-0.0009460854666317098 
-0.0009909653040954365 
-0.000207332276802175 
-5.343671785561899e-05 
0.0006417764470265 
0.001785192125985898 
0.0002090638253008948 
-0.0002990718208060997 
-0.0010394151660713 
-0.001058588531051547 
-0.001281947385472296 
-0.0003259704736508326 
0.000194134453371135 
0.002869409452377181 
0.001015234805453197 
-0.0001290008498267935 
-0.001237460358517399 
-0.0009998012555758921 
-0.0008190104346526007 
-0.0001854160614957045 
0.0002351629504013315 
0.002762128346160047 
0.001078666464689128 
-0.0006524552160517968 
-0.001373463680791876 
-0.00096741117709622 
-6.541291585670898e-05 
-0.0003846662362066214 
8.533434309019795e-05 
0.002239245275545892 
6.475993094047843e-05 
-0.0002284889147732796 
-0.000697549192961112 
-0.0004861664440882432 
-0.0003607322986389624 
0.0002653955768293582 
0.001278992070358053 
0.0005838553968375155 
-0.0002967934905236431 
-0.0004684293368044956 
-0.000470310361286945 
-0.0006004409178589741 
8.467593196623616e-05 
0.0004145141669971086 
0.001023817624878286 
0.0004603070801012282 
-0.0003625686535079537 
-0.0003229070656652889 
-0.0006515870542280084 
-0.001025701869598184 
0.0001090701262460296 
-0.0003941561791960823 
0.0006898217000898576 
0.0009049253146372296 
0.0001463175156001968 
6.821435036182994e-06 
-0.0003912869301325933 
-0.0006697917831799569 
-0.0006137945366438454 
-0.0002538266402184733 
0.0005523169437846677 
0.001722885242033633 
0.0003586266878972138 
-0.000559764792835166 
-0.0004908400081554432 
-0.0005725211544870085 
-0.0002816858836195679 
-0.0001467701959986592 
0.0009477915743168775 
0.0009525945970052126 
0.000331503989973593 
-0.0006846832116037647 
-0.0005004186029040429 
-0.0006102999150757325 
0.0003957103210795435 
0.0004110992870241683 
0.0002150838614179548 
0.0005273021783706359 
4.756255821520766e-05 
-0.0003607301581621322 
-0.000579917020187005 
-1.188429003562896e-05 
0.0005583439872192096 
-0.0003052084922603889 
-6.653477131910517e-05 
-2.592773152213853e-05 
-8.152486417440795e-05 
-0.0002781986801728533 
0.0002567459549479563 
0.002426049073901705 
0.0003104601286872333 
-0.0006959901216138377 
-0.001016801162910013 
-0.001116543162589839 
-0.0006234956959274133 
-0.0003659240740122151 
0.00112805612714701 
0.0001738024891273031 
0.0002490230876753952 
1.391660054860164e-05 
-0.001476501317905845 
-0.0008735788500510133 
0.0006493958508644655 
0.001063673201621409 
0.0002460800508023256 
0.0002991985550134857 
0.001018077835576423 
0.0006540415954265159 
-0.0002235981965426151 
-0.001239309958252961 
0.0001554854238299808 
0.0003963305888497526 
-0.001014414731217971 
-0.0004404986274535199 
2.49663048053085e-05 
0.0007376433444987828 
-0.000671964199405759 
-0.0004265476876630455 
0.0008131949485017098 
0.0004348505842346137 
-0.000425833554835448 
-0.0004239540610895157 
-0.0003105247952403633 
0.0002980301380455651 
-0.001160290055524774 
-0.0003334122580191288 
0.0010989473192795 
0.0007639452743940147 
0.0001130695508373395 
-0.0002860132338598008 
-0.0001380466064531681 
0.0002716758770088438 
-0.0008235531110025186 
0.0003346261956591202 
0.0007120551512306949 
0.0002724312283171504 
-0.0002973643882176934 
-0.0005129692037107748 
0.0001649821741342031 
0.0005572700198981289 
-0.0006473613803711197 
0.0008933910629615242 
0.0002186674390016388 
-4.566525332893266e-05 
-0.0005825037459020304 
0.0005515226183300828 
0.0001182764874373358 
1.080966266781324e-05 
-0.0004150016786809048 
-0.0001718073642680784 
-0.000108632159295463 
0.000197321254512668 
-0.0001366777080208163 
-0.0004499357063763176 
0.0001562360064508737 
0.0001412123144550761 
0.0004832882780701108 
0.0004567618772053544 
-6.315403753241497e-05 
-0.0001834980740617465 
-0.0004950995455282939 
4.96049191822702e-05 
-0.0001504072729646378 
-0.0002284059225993695 
-0.0003445607647537568 
0.0004607110911803827 
0.0006135354078784745 
0.0001767308287106857 
-0.0005313971739514119 
-0.0002947054249369404 
-0.000192103785562373 
-0.0002624587667626118 
0.0001862662042461946 
-0.0002818743683205998 
0.0005644904996095864 
0.0005977229121282906 
-0.0002715261577189016 
-8.705725940527816e-05 
-0.0002643962218897248 
-1.951290097897188e-05 
-0.0002974955414107745 
0.0002180186484004262 
0.0008694207195727624 
0.000194775045866516 
-0.0005679413774723225 
-0.001312338745655868 
-0.000494600070165879 
6.054432676133021e-05 
0.0006624145758411957 
0.001375295210974745 
0.001044252265321347 
0.0001925462254940739 
-0.001482302675888325 
-0.001419923077335359 
0.000145137191631799 
0.0004845251345489432 
0.0004963445332915846 
0.0007736930274148933 
0.000739685053278155 
0.0001044461761797698 
-0.001278096926327167 
-0.0008261070432627683 
0.0001649553747563726 
-0.0001172113178498472 
-0.0001750121102271408 
0.001284912735178786 
0.001000067645700792 
0.0004210241024694496 
-0.001706818274083008 
-0.0007675156411567614 
-0.0007575496908464742 
-0.0001537462355626653 
-0.0005701978333846193 
0.001321621599095132 
0.001729131863561318 
0.0002722410285041836 
-0.001028173977527488 
-0.001265037950021966 
-0.0007053319345675377 
2.307434521509913e-05 
-0.0001223052419879832 
0.001168978263328214 
0.0005882648591651663 
0.0004402283901248364 
-8.205961857317157e-05 
-0.0003171082514303918 
-0.0001202414249794573 
-0.000341771921309845 
0.0008287852464772952 
0.0007873031991507846 
-0.0001376701351843533 
0.0002962439990644772 
-0.000949729599105862 
-0.001432914102523822 
-4.098279662618219e-05 
0.0004956248048454885 
0.000877178215675332 
0.0009395381123890036 
-0.0002710248310534165 
-0.0004354525035979523 
-8.615578642580174e-05 
-0.0005216873121301488 
0.0002580379793903227 
0.001156204755877314 
-3.695898888758805e-05 
0.0001471696628192601 
-0.0005696124123201429 
0.0003060147463162065 
-0.0006933573183826103 
-0.001194282496938361 
0.0004303511372266518 
0.001470476090179017 
0.000590623190526135 
0.0002965744549546723 
-0.000356033096627198 
0.0001319678024421106 
-0.001323865969080377 
-0.00122404905729397 
-0.0002314915228461813 
0.0005232012616589825 
0.0005184921044792267 
0.0009353505984135569 
0.0004533768793372885 
-0.0002085799203185181 
-0.0007204892307477774 
-0.0005522577496429227 
-9.677722769317859e-05 
2.304944084134965e-05 
0.0002419537642947127 
0.001330252164686771 
0.0004556344935378379 
-0.000488879878131922 
-0.0008671638952099852 
-0.0009664012586903447 
-0.0001796711372011418 
0.0003494441445061502 
0.0005539047461336633 
0.0007281841188926097 
0.0002147023200615191 
-0.0002517035903338626 
-0.0004026482306859604 
-0.0002623314437082864 
-8.483145601652681e-05 
0.0001311904410651347 
6.708864446692009e-05 
0.0003330089050381922 
9.946075374554962e-05 
0.0003720486255242284 
-0.0006098233574325718 
0.001672848194451169 
-3.152582023317628e-06 
-0.0008054245102986988 
-0.0003564386394943121 
-0.0008189349767539545 
-0.0008375229922312915 
0.0001316657128867913 
0.001062770906146261 
0.0006877663518113948 
0.0009476453834540889 
0.0002439016404895788 
-0.001490989477183214 
-0.00115829866149127 
0.0004611692036113515 
0.0001249792948681219 
0.0002296373771225882 
0.0001269687903706043 
0.001159006488540998 
0.001459584227961185 
0.0001486939456343138 
-0.0002273438699614925 
-0.000742457619839978 
-0.000603186562778062 
-0.001275454287244936 
0.0001736988280559869 
0.00048937927037065 
0.0003445778127250471 
-0.000736019453202841 
-0.0003351594326311926 
0.0001788715926770577 
0.0001773281662205992 
-0.0002468656715326596 
0.0002101139777992629 
-0.0002955769090059481 
-0.0003502946492790819 
-0.001664366692013875 
-0.0007085824866890535 
0.0009608207878574123 
0.001551186051121377 
0.0003425110328925473 
-0.0001637511809983779 
0.0002955938838152473 
0.0002954339185674345 
-0.001011552469314994 
0.000275043079309813 
0.00161122530096049 
0.0002925386193986367 
-0.001548720039055616 
-0.0006064969340819507 
-9.407507543190159e-05 
0.00050011236540496 
-0.0004769802848602802 
0.0004490518415492791 
0.0008695017325779776 
1.780665924185655e-05 
-0.0006131091917173009 
0.0002604977805303433 
-9.314150838964869e-05 
5.563690201472328e-05 
-0.0003088204407123775 
0.001037832507240476 
0.0001284050055392036 
-0.0003242523381953739 
-0.0007103467953447173 
1.452480605283534e-05 
0.0002282638860556261 
0.000147317102386423 
4.721425797403084e-05 
0.0008952260286576976 
-0.0003426438064311645 
-0.0001228495022166198 
-0.0008212416597961919 
-0.0001614129164468297 
-0.0001627817752549435 
0.000160835752873636 
0.0003585661121262147 
0.0003719946919489033 
0.00027992015400511 
-0.0004106494719452324 
-0.0003906614346242153 
-0.000258739461182607 
-0.0004840851826242397 
9.711809580402896e-05 
0.0001502538366864056 
0.000535240541330134 
-0.000103313100639026 
0.0004696784688311502 
-0.0003603420855232041 
-0.0006171027375100215 
-0.0003106282386220936 
-7.974212539460846e-06 
-0.000113702034074762 
0.0007766263097055836 
0.0003245399702860178 
0.0003170116031369197 
-0.0003229595476995451 
-0.0012967673539697 
-0.0002236034381622214 
-0.0002617711672815195 
3.199470710099145e-05 
0.001322035183322255 
0.0009970006381670089 
0.000343404184698042 
-0.0008664816411922114 
-0.001111131883244801 
-0.0002157854956133145 
0.0002771165143862909 
0.0006331240990234686 
0.000792204238689134 
0.0005541334580630337 
0.0002844365395333472 
-0.001168286358154527 
-0.00182413606602049 
6.530984573227693e-05 
-0.0001822495153846647 
0.0002331927095008408 
0.001150836975707414 
0.001197616727879663 
0.0006259227474834019 
-0.001220682312215804 
-0.0006123246503214724 
-0.0001734238169444841 
-8.112280608139643e-05 
-0.0002982346379818805 
0.0005352703333452058 
0.001118200493304628 
0.0004253308887474352 
-0.0008678846913854163 
-0.0003007122424190625 
-0.0006840819134154284 
-0.0003065999217243547 
-0.0001901173687027037 
0.0006249468864015555 
0.0009640033584927652 
8.504509878797331e-05 
-0.0001466727847381128 
-0.001205222213582495 
-0.0004437893468803447 
5.847761018346673e-05 
0.001007149523874628 
0.001386618848508757 
0.0006846824791971384 
-0.0001252670435422879 
-0.00131683874507622 
-0.0006631987007091261 
0.0002509660072341987 
0.0006887238741829018 
0.0007584609895191571 
0.0006927879625545727 
0.0003897349299714224 
-0.000735013839033962 
-0.001336650111036531 
-0.0008962362211764203 
0.0007931131236160373 
0.00121122128303605 
0.0009796989837768703 
0.0001403940200517268 
0.0001216835113221509 
-0.0003319164498983273 
-0.001972147138045445 
-0.001107045248800082 
0.001310524358082046 
0.00145868582542135 
0.0006133584755618122 
-0.0004213029776653626 
-4.293984620219882e-05 
-0.0002864454712811052 
-0.001479024002433842 
-0.0008515041789296016 
0.0001194709654865232 
0.0009444634557106683 
0.0007984346919293022 
0.000267526319393812 
-0.0003586257423481022 
-0.0005920117807844117 
-0.0002819426177755426 
-0.001354105476782343 
-0.0008129463188911645 
0.000328739976066045 
0.001452110320772453 
0.0009817757510292213 
0.0002907789400978441 
-0.0005701035108519279 
-0.0002704385687574793 
-0.001208950681661618 
-0.00029390693333028 
-5.008703221343574e-05 
0.0007055332626039664 
0.001019044432283234 
-1.839122965952093e-05 
7.679029489554707e-05 
-0.0001842210002352472 
-6.175269522950858e-05 
-0.0004429123228193875 
-0.0001955895948967833 
-1.657341751024479e-05 
0.0006544875468513206 
-0.0004543584012175896 
0.0002836850782328793 
0.0002788249192719617 
0.001551108232708248 
-0.0003381433273577189 
-0.0008779838332019941 
-0.0006861893676313764 
-0.0008101198130203151 
-0.0003442652027217824 
6.354459450702876e-05 
0.001487859829400548 
0.0005429554196139452 
0.000890663865227749 
0.0002810951634097321 
-0.00140839888253988 
-0.001453780900900297 
0.0005160756507612142 
0.0008297299140883944 
-0.000152529116978233 
-0.0003350109156960082 
0.0003397497410508058 
0.0007378671838643254 
0.000759387031217913 
-0.0007653913558268963 
-4.388887432903913e-05 
6.402682713781008e-05 
-0.000710928524736292 
0.0002690699888804889 
0.0001754966723393712 
0.0006947379573102348 
-0.0003854648434973032 
-0.0006544888255149407 
0.0004367944610794785 
-0.0002220839891368129 
-0.0002682503087778653 
2.891516231008581e-06 
0.0006303890848191263 
0.0005954934115525401 
-0.001220921503639521 
-0.00151024405126746 
0.001017725799832504 
0.0008179584044677963 
-0.0002874815493133513 
-0.000925801471396653 
0.000148992240870991 
0.001146655134948585 
-0.0004522977467671592 
-0.0005625183762194252 
0.001253119849081593 
0.000517033045182116 
-0.001079371563017419 
-0.0009410688366570016 
-0.0004953259480993308 
0.0008855386116254353 
0.0003498394178815994 
0.001140944325573576 
6.557974363416734e-05 
-9.20475129317256e-06 
-0.0009504914499826497 
-4.930669168805394e-05 
0.0003745748014477275 
0.0003152506487197048 
0.0004901852269219633 
-0.000339687263816201 
-9.543132925046472e-05 
-0.0006285126499969731 
-2.126162965505357e-05 
-6.02512697051028e-05 
0.0003325760597719815 
0.0004172508485687979 
0.0008106296608700888 
-0.0003351579014752755 
-0.0004138869744964099 
-0.000298794208662594 
-0.0004065551021888362 
-0.0005440537198071609 
0.0002209003307220321 
0.0006548121709104499 
0.0003682106127616742 
0.0002639319770749666 
-0.000336580717350442 
-0.0002173872584276376 
-0.0003640222832012474 
-0.0003239784732474403 
4.880087451778576e-05 
8.171551023658241e-05 
-0.0006151592357560426 
0.0002863945735235555 
0.0003598320701798289 
0.0005150284763450241 
-0.0003068226831166549 
-0.0006980286717451576 
-0.0001929554637388709 
-0.0001267189396973017 
0.0001026830207232228 
0.0006075419114112008 
0.0006869676491815357 
4.398001618828951e-05 
-0.0003776584096402938 
-0.000917151685449373 
0.0002724952605509806 
-0.0002621206247337068 
1.54864053994259e-05 
0.0006153802915024193 
0.0004298860448057281 
0.0002042134430598351 
-0.0003123780224526764 
-0.001258201191416055 
-1.338626703133581e-06 
0.0002310330517937789 
0.0003108975805697148 
0.0003649221742603449 
0.0009089951440837731 
0.0007314240362896931 
-0.001241921056195478 
-0.002188603217219814 
5.00185601574368e-05 
0.0006827897690950023 
0.0005095960111421411 
0.0004051997814941764 
0.0007100178119581464 
0.0004239920560193557 
-0.0005471996599637904 
-0.0009933843501213134 
-0.0002573259228184016 
6.424298607466063e-05 
0.0003959315796186206 
0.0003879574140141552 
0.0008458947117176768 
0.0007380219186433106 
-0.00113552722444609 
-0.0009284104173906067 
-0.0008981927507400018 
-0.0001098052440294735 
0.0007438109939447901 
0.001067622631489843 
0.0009528467025696534 
0.0001705638850958112 
-0.0009526246882573719 
-0.0009883869262502045 
-0.0007664841002627814 
0.0002569653332191285 
0.0008013954658962955 
0.0009159997221549846 
0.001045749003860256 
0.0004450993420798087 
-0.001664526728014868 
-0.0004960488767895875 
0.0002153560444821979 
0.0002758723517895214 
0.001066230089217623 
0.0003908298094578977 
0.0005765084384224521 
-0.0003630352859081554 
-0.001619901457989311 
-0.0004301456312800446 
0.000895192224157928 
0.001204914879799076 
0.0006796094833017706 
-0.0002552846860225112 
-0.0002241557182269323 
-0.0003378199268194078 
-0.001486499512227233 
-0.0008474059957600874 
0.001250918605063472 
0.001057674136322502 
0.0008744975378309821 
-1.366195315404533e-05 
-0.0003832743745895205 
-0.001126130665111513 
-0.0007668061779191751 
-0.0002128662023626448 
0.0008977002691393059 
0.0004965316358548598 
0.0004667029549974054 
0.0003992489093382315 
-0.0004406475332232248 
-0.0006716617609558769 
-0.0008891971601054121 
-0.0008562137592071247 
6.230867228947429e-05 
0.0002961262481678277 
0.000496698124715483 
0.000502392065206545 
0.0002375800164191884 
0.0001194603674712458 
-0.000812540622379997 
0.0002158955521224603 
-0.0001869750277942892 
0.0001921117062758071 
7.505674536773643e-05 
0.0006181378606591692 
-0.000239515261459865 
-0.0004598490127148979 
-0.0001690514497734804 
0.0002469434653602146 
0.0001106149874109508 
1.039225770111161e-05 
0.0001111602525354794 
-0.0003977297653641584 
-0.0005486982011133979 
0.0001676615502306526 
0.0003454665659217842 
0.001436038742480319 
-0.0005180165223043961 
-0.0008074983575090215 
-0.001054297259307529 
-0.0004871427065142275 
-0.0002299656822203376 
0.0001719017921312866 
0.001534791105926534 
0.0001337349993680101 
0.0003187480853802804 
0.0006890837757545868 
-0.0001420091467893724 
-0.0008625294436716338 
9.592415551351266e-05 
0.0001161658593083772 
-0.0003033071721811221 
0.0001034153598306514 
-7.007800618337741e-05 
0.0007681473999681398 
-0.0001102929833691225 
-0.0005279539880340474 
0.0003581692911935247 
-0.0002129523648358506 
-0.0002626435958872716 
0.000424107243145452 
0.0006835219990697889 
0.0005824133204176503 
-0.0006267407345398188 
-0.001191171600025753 
-0.0001818248131600085 
-9.7103218780717e-06 
0.0003652160196534128 
0.0005434234528262088 
0.001060626844631132 
0.0003696024668514378 
-0.0008262041331257722 
-0.001267713762059076 
6.645910866716035e-06 
0.0004456013748230176 
-0.0002861710421310285 
-0.0001528572003719798 
0.0008500051066678121 
0.001138442010500195 
-0.0007053755861835747 
-0.0006264215227488104 
-0.0001682486361604641 
-0.0001669683878690365 
-0.0001227646711515 
-0.0002789979317258268 
-3.158982493488848e-05 
0.0001165251635426434 
0.0001038344762928798 
0.0002081237740885535 
-0.0001911493251327316 
4.14447346728581e-05 
7.762004587915032e-05 
-0.0003336079250436632 
0.0002120417022195113 
0.0001247056711626849 
0.000792476383415398 
0.0001697937707977754 
-0.0004837483653295546 
-0.0001913729974698599 
-0.0002444771270696456 
-4.59043822989009e-05 
7.041171953591399e-05 
0.0003379778835340136 
0.0009962553423644384 
8.974239126875361e-05 
-0.0005493589007123279 
-0.0004190918762504922 
-0.0004342210647587486 
-1.535792345975321e-05 
-0.0004761184510785904 
-2.123655863980275e-05 
0.0004805601700495595 
0.0003243915578549599 
-0.0002900592767450007 
0.0001398009940312675 
-9.616939932999677e-05 
-0.0005084088326733309 
-0.0001561910730409902 
0.0001387838335252047 
5.190089125153576e-05 
-0.0002705318986510025 
0.0001823029007956663 
0.0001332623641089755 
0.0004746929273665742 
-0.0006932058532369878 
-4.886400303037387e-06 
0.000330612958288713 
0.0003161681067439686 
-0.0002071153487701257 
0.0006635985690830625 
3.483640957802425e-05 
-0.0003941973287009775 
2.854714976886887e-05 
0.0002123193999207924 
0.0005113546468280472 
0.0002484414309436058 
-0.0007545134225546859 
0.0003618134529025267 
-0.0002085065424003097 
-0.0003536450027262141 
-0.0005816675951499694 
0.0003714631855993671 
0.0004718470594583046 
-0.0001894613311046033 
-8.060578005439448e-05 
0.0003436739237120343 
0.0001289156634718086 
-0.0004183540132499134 
-0.001775680611722373 
-3.433180189103984e-05 
0.0002426472362104519 
0.000637445937369127 
0.0003665913403456178 
0.0008076028288156574 
0.0006007216936756316 
-0.0007991855101204257 
-0.001601026110379291 
5.363910126731171e-05 
0.0003439667462091259 
0.001035774542319025 
-4.834373092883212e-05 
0.0005931144339659066 
0.0004606342020632626 
-0.0007919480718338699 
-0.0007167638254166547 
-0.0006522612912611872 
-0.0007756599732838242 
0.001410562611337239 
0.0009531123908204625 
0.0006691166670663501 
-0.0003953579548961029 
-0.0004469375116836483 
-0.0008361340314563278 
-0.0002685050626081298 
-0.0001244387665704556 
0.001159352322296053 
0.0008279503362291797 
0.0005280299577148172 
6.683261604539657e-05 
-0.001307276258967888 
-0.0007831782112630897 
5.287943344805007e-05 
0.0001638382079585007 
0.001329655838559044 
0.0007011123403286101 
0.0001484891373025701 
-0.0004326145483241055 
-0.001134371085326929 
-0.0003572849124244955 
-0.000138282796866426 
0.000484599126675978 
0.001451578884510748 
0.0001105570593561182 
-2.809160052869932e-06 
-7.139621786926605e-05 
-0.00143115087064716 
0.0001524327310411673 
0.001215304299264741 
0.00060843596269633 
0.0008380640275378284 
-4.874769178668876e-05 
-0.001093002344090004 
-0.001010136165277398 
-0.0006165397067033552 
2.224965973643831e-05 
0.0006812381732509624 
0.0006731100325547116 
0.0008994606191235021 
0.0001355695006636652 
-0.0003401856695333205 
-0.001070394122600803 
-0.0009552370805125036 
-0.001005684345049777 
0.001039004906638267 
0.000169705140927239 
0.0003896203340960295 
0.0004598059259583259 
5.595346617905991e-05 
1.153207375183272e-05 
-0.001074126389818337 
-0.0006071021411906927 
9.011661144371397e-05 
-1.830576595685711e-05 
3.069305737254928e-05 
0.0004401174736957991 
2.53533448748144e-05 
0.0003698627170847121 
-0.0002849241846414026 
5.644021827806336e-05 
-0.0003235128347441649 
-0.0006215128834197819 
-0.000475245556333015 
-8.730731269156354e-05 
0.0002462746352510013 
0.0008272498325822596 
0.0004234250137598388 
0.0015129347798166 
0.0001038556456812857 
-0.000854555450927347 
-0.001303413375841939 
-0.0005388800715583617 
-0.0006809024332669073 
0.0005262250552352422 
0.001280546963544073 
0.0002252456586863082 
0.0008830079059403359 
0.0006485629857970537 
-0.0004702330444007943 
-0.0007210384803257341 
4.158397175931147e-05 
-0.0001412204573733473 
-0.0004200974274004949 
-0.0005246140357139441 
-0.0006068636417442372 
0.0008103206936951792 
6.699695221682891e-05 
0.0002029859449004169 
9.448047060246337e-05 
0.0001856253970477641 
-0.0001831206683218353 
6.538385270600446e-05 
0.0002963265485349148 
0.0006287704697929708 
-0.0001415713721096624 
-0.001099739030989876 
0.0003143990326217189 
-0.0002259628324100093 
0.0002082044445365884 
-6.811316687064362e-05 
0.0005974846043699165 
0.0005569279117691367 
-0.0005895278845204831 
-0.001068239057673732 
-0.0001456259751707789 
0.0006290949058176545 
0.0001338097749615356 
-0.000434649930299182 
0.0006537547221189961 
0.001124659656347955 
-0.0003127695201163857 
-0.0002380345817995336 
-0.0001854743011198601 
1.574718856241898e-05 
-0.00057742212101177 
-0.0004173692901465007 
0.0001978629912246148 
0.0003670754992982123 
0.0009332502313086927 
-0.0006973328682633118 
-0.0008441341818236694 
-4.207055051594446e-05 
0.0005485292816005483 
-0.000342317943796199 
0.0001726140366885672 
0.0004279982324109065 
0.0008145218641506705 
-0.0002224327054320453 
-0.0005096726887220314 
-0.0001702447287446154 
-0.0001246549538726016 
-0.0005478800883838912 
0.0002008864208290968 
0.0001774283164523037 
0.0009191202344470305 
-4.033967724947616e-06 
-0.000268817739703239 
-0.0002113134384437027 
-0.0002195786247900151 
-0.0002476953178855477 
0.000553902486191771 
0.000126864702192038 
-1.066089043025712e-05 
-0.0005131046201546472 
-4.048607402495044e-05 
0.0005309610806269977 
-0.0003539702538327675 
-0.000380148039301687 
0.000109417684352222 
0.0003994269390507295 
0.0005656960701159296 
-7.074251788130737e-05 
0.0003865074673647887 
4.500131385977201e-05 
-0.001009347804877811 
-0.0004324402776027164 
0.000272042886492226 
0.0005051264601742616 
0.0007979132727900655 
-0.0001027328109552253 
-0.0003457627996945063 
-0.0001420262166418033 
-0.0005063094018796533 
4.65529160607797e-05 
0.0005318234350882248 
0.0005677486395931594 
0.0002533620804345412 
-0.0005294304984101427 
-0.0001205048761480823 
-0.0001025220064974416 
-0.000601218577438396 
-0.0008131129980958355 
0.0001596280506482325 
0.0005331976477497128 
5.002998653024218e-05 
-4.161800971210959e-05 
0.0003605249777000466 
7.954104037324797e-05 
-0.0002823795825108982 
-0.001040517897005077 
-0.0001528271150467265 
-0.0003765791265323862 
0.0005588771490494342 
0.001099453725087317 
0.0004231083980408028 
0.0002771545090553684 
-0.000742858529966099 
-0.0008195333650645782 
-0.000532238316051443 
-0.0002037850338292842 
0.0002606000292250759 
0.0008728681111007127 
0.0003758266588736643 
0.0003110098659041788 
-0.000218936837475683 
-0.0004255479658921865 
-2.125880028511768e-05 
0.0003448707908048011 
-0.0005057608626863064 
0.0005654626403908218 
0.0002811923588274991 
-0.0003985909138291945 
0.0002054438653523271 
-0.0007908998893464226 
-0.0004324406143784775 
8.851872731155345e-05 
0.0006112533176576109 
0.0005994634856043769 
0.0005772674375589835 
-0.0001828446672133493 
-0.0004245066845116434 
-0.0005605994464349487 
-0.0003059551852144212 
0.0002729823568682117 
0.0001392763056554978 
0.0005081002007068342 
0.0002452666445382355 
3.936051047269391e-06 
-0.0002571958144840413 
-0.000331194844542505 
0.0001384264481421035 
-3.634460744522498e-05 
0.0006336830824463736 
0.0004744693430814481 
-1.153556191687423e-05 
-1.524414331567568e-05 
-0.0008064486037669924 
-0.0001385153767286855 
0.0005969232264071971 
0.0001545651914885353 
-0.0001239556267272205 
-0.0002580465601990675 
-0.0002637145318472703 
-0.0006499773856519704 
0.0007285321759411233 
0.0001333933651680425 
0.001007702392690495 
0.0007708419658693593 
0.001071756382632148 
-9.881467446853325e-05 
-0.001319029408710124 
-0.0007235874708352816 
-0.0007964514396634595 
-0.001024797252883149 
0.0004949358987569966 
0.0003034148976158904 
0.001157334988425892 
0.0004273995868486499 
-0.0002391314069481204 
4.097089024773246e-05 
-0.001114316489381244 
-0.0009514295300613174 
-6.651361699413722e-05 
0.0004653430401741393 
0.000773768963526367 
0.0004142760105563775 
0.0004631391155431189 
1.242654695062223e-05 
-0.001065199417012541 
-0.0002365370399488989 
-0.0002179009761841875 
-0.0005836654355437331 
-0.0003536104503730756 
0.0001718221624373994 
0.0002685368708389045 
0.001244724831992477 
-0.0002475588505362364 
0.001283726009758494 
-0.000252915117594199 
-0.0005890134446093306 
-0.001011766565069714 
-0.0008708737636861242 
-0.0005593061858865562 
0.000232068766120363 
0.001813891413649707 
-0.0002528249748873899 
0.0003733087129692359 
7.125941890225975e-05 
0.0008340858589995119 
0.001028232834244857 
-0.0004026428405567015 
-0.0005495755089537083 
-0.001056032388035413 
-0.0003040833724925321 
-0.0003009254502901963 
-0.0004429622200584843 
0.001282368372261368 
0.000887280576423536 
4.243555562024913e-05 
-0.0003317146334951388 
-0.000786587715286152 
0.0001502717954485556 
0.0002782359174750794 
1.463008786440718e-06 
0.0006815548029966623 
0.0001329087625437125 
-0.0008104743241408973 
-0.0002247798774970347 
-0.0001633689729298831 
-4.11779579596517e-05 
0.0001989828609334877 
0.0006109624868231901 
0.0003292355307439276 
0.0002600288745469467 
-0.0004892300634110488 
-0.0004669975827732296 
-0.0003559930362209827 
0.0003023429624932174 
-3.164738022750887e-05 
0.0006184100644289828 
9.84536226776607e-05 
-0.0002230821633228645 
-0.0004262017461845488 
-0.0002509825091625041 
-4.148173801979573e-05 
0.0002929015575587996 
-1.206537957356644e-05 
0.0006421223854382385 
0.000197703214873201 
-0.0004823389514454206 
-0.0005701212025544904 
-0.0005229198008469057 
0.0005005292892327654 
-0.0001721896832755834 
-1.653835828814523e-05 
0.0004311207045768621 
0.0006731123677861482 
0.0003281196151047807 
-0.0008521401191231362 
-9.907162784246038e-05 
-0.000246601786255832 
-0.0006057943753150746 
-0.000109451817823719 
0.0003227148802240381 
0.0005250217116771724 
0.0003117690983529389 
-0.0006161034873921055 
2.838406488090616e-05 
0.0001892710380784842 
-0.0004208525654598924 
0.0001138487494825273 
-0.0002599621396102516 
-0.0005043780014841506 
0.0004537247604215788 
-6.152365991370021e-05 
0.0005858050395207141 
0.0001391489297258176 
4.939287495300542e-05 
6.305494337658864e-05 
7.367880444988894e-05 
0.0006342436333497248 
-0.001075249303965889 
0.0003188509393414752 
1.580105978409538e-06 
-1.974088480055789e-05 
-0.0003891634828231455 
0.000188030630642301 
0.000261753906995115 
0.0006392426360257992 
-0.0008331398610274319 
0.0003570580307210209 
0.0001277115788257446 
-0.0003056823266767655 
-0.0001340044454098101 
6.056213908089432e-06 
-2.536181148298185e-05 
0.0006168217740131198 
-0.0003186330010418104 
0.0004036676195629884 
0.0001700407678362744 
-0.0006727760047032349 
0.0001010998179029453 
0.000187153551162847 
-0.0003213323562715583 
0.0003664275546605771 
-0.0001770336535975884 
0.0004737575517462292 
0.000356931569955307 
-0.0009411929228761132 
0.0004093838169520459 
-0.0004338796024277048 
-0.0005156271471099697 
-0.0001243538174472439 
0.000622526114762223 
-0.0001602802024987269 
3.1270106750338e-06 
0.000244914939776973 
-0.0002991677333333699 
3.651877454363557e-05 
-0.0003515482001636764 
-0.0004483140029721746 
0.0005081409981349904 
0.0004420369789790151 
0.0001965686425575124 
-3.84243450632817e-05 
0.0003048811354575417 
-0.0002073499603389317 
-0.0003269720274214333 
-0.001163181424064644 
0.0002378601554105799 
0.0002662339534888635 
0.0003194361904560778 
0.0006149030896945813 
-0.0002534301650166248 
0.0003718926561211648 
0.000224902064589269 
-5.276151123702527e-05 
0.0001188926374791666 
0.000368907545128625 
-0.000235516445690643 
-0.0004970756686912906 
-3.589927720712158e-06 
0.0001282167736636658 
0.0002607521330904808 
0.0002544596689856384 
-0.0004922854523952402 
0.0002478765657469252 
-0.0002779839635013072 
-7.163468518681023e-05 
0.0003258761947917551 
0.0001053944918157096 
-0.0001626433143777987 
-0.0001079571538918642 
-0.0001708012670131409 
-0.0002515094612920072 
-0.0001497084560748223 
0.0004571600787247998 
0.001043725412182956 
0.000133204136294753 
9.059076875277742e-05 
0.0001998173962209482 
-0.001276478273836391 
-0.0006866736381444575 
-0.0003088735370645919 
0.0008504988482766441 
0.0002782920416662623 
0.0004560724419614841 
0.0006148480923674559 
0.000998898658210283 
-0.0004232341626700613 
-0.0008106719849771528 
-0.001066260874082121 
-2.133099793527884e-06 
-0.0003899704394228272 
-0.000490966360939624 
0.0003779770927538126 
0.0008106207580773355 
0.0003238002556070329 
0.0003881619819763088 
-0.0001265953829856335 
-0.000847216792383767 
-0.0006774080619563772 
-0.0001341405161041113 
0.0001427126640927345 
0.001439188811721409 
0.0003140273441903267 
0.0004215796124241636 
-0.0003718047058741711 
-0.00108834403581134 
-0.0003093916548902649 
-7.59152640787243e-05 
-0.0002240362941254287 
0.0002611953211377256 
9.703014408908405e-05 
0.0003551146609480245 
0.0002796067235600731 
-0.000337792523957843 
0.0008489509299030367 
-8.185841832054723e-05 
-0.0006897105566596136 
-0.0006188129624856126 
-0.0005724488747529723 
-0.0004312198218079408 
0.0002768968571298589 
0.001314013959676425 
0.0003673206206424475 
6.879832114454573e-05 
-0.0001336909047804125 
0.0003021835335908051 
-0.0001793334954884909 
7.995298368354308e-05 
-0.0001175251876302911 
-0.00034189475847951 
7.556081033895959e-05 
-0.0003910344765590694 
-0.0003591378370873779 
0.00068537409033019 
-0.0003872948028588175 
0.0004726711235582618 
-0.000122521766358102 
7.219397131859587e-05 
0.0004142776217322298 
2.754752978475474e-05 
0.0001476895841699897 
-0.0004129040106990727 
-0.000517978344053575 
-4.874191291753984e-05 
-0.0001975032891708187 
0.0006334239338366757 
4.811024351658064e-05 
0.0002878908854098393 
0.0004254287304426995 
-6.416203882866714e-05 
-0.0003167518544748724 
-0.0003062624917221751 
-6.194997865994781e-05 
3.350761699918839e-05 
0.0004687147283109764 
0.0001727502983118675 
0.0003294222314078419 
0.0002782695329058051 
-0.0004422802901155196 
1.57301962783618e-05 
-0.0006087430246027852 
-0.0001680525598139037 
0.0004395164586182951 
0.0002812532141280443 
-8.392443937854931e-05 
0.0002065311228516698 
0.0002427107911139305 
-0.0006093362523241692 
-0.0003622004247154404 
-6.873935761113484e-05 
6.540076357013222e-05 
-0.0004064404819390051 
-0.0003473893755566944 
1.098485155605258e-05 
-0.0004525485528143517 
0.0004950789243611829 
-2.843816089190908e-05 
0.0007091631443972385 
-4.181102528168942e-05 
7.827270948230616e-06 
7.80583276149608e-05 
-0.0003488398353166059 
-0.0004639573468645531 
0.000344790934764075 
7.73016507820215e-05 
0.0003924411360362051 
-9.352827236504144e-05 
-0.0001196862125192111 
-0.0001120260098727494 
0.0001147617981831945 
-0.0005437593133426075 
-7.789597685199521e-06 
0.0005474736912424879 
0.000260365029041763 
3.749904383782777e-05 
0.00014253699482853 
0.0003796315924029704 
0.0001095840339239288 
-0.0006086729081542298 
0.0001288293955618578 
4.207033828329312e-05 
-0.0001856673780015411 
0.0006659086788967107 
8.124795120474029e-05 
0.0001674664196811639 
0.0003158339123523254 
-0.001607822248392166 
-4.97510073786429e-05 
0.0005123876783076443 
-3.946027198911776e-05 
-0.0002267408343155765 
0.0002244547704127061 
0.0002659919162987467 
7.664934263327604e-05 
-9.427651978722112e-06 
4.807005795358054e-05 
0.0001885713244433916 
-0.0005217578127647643 
0.0004595165305211443 
0.0003244392003282136 
0.0001718435217849927 
-0.0005482910338873076 
-0.0007424835435926577 
-7.895786163431871e-06 
0.0007143208788539738 
-0.0003256386551622994 
0.001184601566392051 
0.0001779043809384281 
-1.849623267898768e-05 
-0.0004712912724161922 
-0.001195132850946681 
-0.0002925284014010106 
-0.000111350352964839 
0.0007721042757598783 
9.051181838661033e-05 
0.000294496453485875 
-8.99215719908787e-05 
-0.0003547552832820109 
-0.0004750147367715232 
8.703850384981636e-06 
0.0001952298684571312 
0.0003765607140124576 
0.0005133816327526194 
-0.0001657904852333565 
-0.0001764541129194656 
-0.0004624856043013877 
-0.001148879660726419 
-8.551520508318037e-05 
0.0004370281435011302 
0.001134526404692712 
0.0001021185841766352 
-0.0001933470843844158 
-0.0001050446413410031 
-0.0001890611262183613 
-0.0005079346602316487 
0.0005121446718417781 
-4.640234464552734e-06 
0.0004315756033042068 
-0.0002641299915315775 
0.0003096521887736079 
0.0004512422339396318 
-0.0006202933388813565 
-0.0008472964920668192 
0.0002162375419862276 
-9.199302453110864e-05 
0.0008923919949940274 
0.0004170598206772027 
-6.455597227821945e-05 
-0.0001792595234892573 
0.0001837828067410201 
-0.0003544171466140498 
-0.0002808634015499095 
-0.0002504110082122034 
0.0005744755374080517 
0.0008378776938335325 
-0.0003345958246225574 
0.0001834726809280108 
4.96528583118573e-05 
-0.0006179072263998281 
-0.0005582596890372101 
-0.0003851695386090413 
0.0008707401582778727 
0.0006623252213846624 
-0.0004818799328278425 
0.0001380481204905812 
0.0003605438592640582 
-0.0005478074604894226 
-0.0004111766814141062 
-0.0003534513420846917 
0.0006792093283593952 
0.0001989676077134752 
-0.0005032881487074942 
0.0001803869978991291 
0.0008957833850260795 
-7.173824528315939e-05 
-0.0003338175367561036 
0.0002192432019996515 
-0.000539726149208945 
-0.0003831958297830932 
-7.379721112547799e-05 
-0.0001647097432593313 
0.000117847472629853 
0.0005815592952833688 
5.667548367057827e-05 
-0.0005822853522199209 
0.0004937169974866556 
-2.022724236661769e-05 
-3.181811630153903e-06 
0.0001286966376374661 
0.000370020758256933 
-0.0001808835176289789 
0.0003876531812792742 
-0.000204435813745739 
-0.0004318310791195428 
2.048044022115419e-05 
-0.0002946551521743539 
-0.000515087001983383 
-0.000329774459286616 
-0.0003502707007540571 
2.42859714859204e-05 
0.0002537142520453866 
0.001237117763128605 
0 
