solver_type L2R_L2LOSS_SVC_DUAL
nr_class 2
label 1 -1
nr_feature 2000
bias 0
w
0.0003297945330529962 
-6.375269720587757e-05 
0.0003990338892836716 
4.821467978149367e-05 
-0.0001386488500931073 
0.0002002272582623123 
-0.0004624106253427409 
-0.0002427259554466244 
5.035792282734544e-05 
-0.0006396341497557779 
0.0002870270454466514 
7.219671683638847e-06 
0.000144629281053231 
0.0004235230160845793 
7.243940842465576e-06 
-0.0002106344958900052 
-8.365436434030929e-05 
-7.819239157270571e-05 
-0.0001922886017170893 
0.0003731950486034085 
-0.0002155392629924839 
0.0001514293297253741 
0.0002246911773779226 
-0.0001099087027919969 
-4.298325634928801e-05 
-9.454629728086907e-05 
-0.0002632386269396665 
-5.265516255930075e-05 
0.0002167774794004608 
0.0002938913546480157 
0.0001846618339520179 
-0.0001721750925792477 
-8.928111108249609e-05 
0.0001712968002792125 
-0.0004347113183095428 
2.708497488843025e-05 
3.62403794834073e-05 
0.0002526257344082162 
0.0005558688644598431 
-0.0004493920918349544 
0.0005213456090204917 
0.0004361095554621721 
-0.0002767792656632893 
-0.000523081927706071 
-6.73284973674202e-05 
-0.0001985162146042714 
-8.33477427853615e-06 
0.0001863177474290253 
0.0007376758198429262 
5.102484894137715e-05 
0.0003084765200485411 
-0.0008633592394306604 
-0.0005987382596361288 
0.0001456641159560005 
0.0001639068606284084 
0.0001250815659416638 
0.0002746433019729831 
0.0001810380276155279 
-0.0001376806446622983 
-0.0004070105452302175 
-4.323806919884294e-05 
0.000146947824681478 
-0.0001239957242937733 
0.000179028061407267 
-0.000119883215852085 
-5.353580737225705e-05 
0.0002855522275788632 
-0.0002611505921824947 
-0.0002170484806279513 
0.0006509596805518754 
7.268842635033306e-05 
-0.0002878500061541667 
0.0001954948223082137 
0.0005199560765534798 
0.0001971744063885243 
-0.0001531986355551194 
-0.0002431116565886308 
3.080873034947775e-05 
-0.0001550346256272423 
-0.0003223568855365811 
-0.0003327882325150778 
7.092744539494671e-05 
6.572796625308742e-05 
-0.0005242189440812903 
0.0002616431540362631 
0.0002083474481801301 
0.000294598042451722 
2.549535257233747e-05 
8.597908000144413e-05 
0.0005143329314889342 
0.0002961016128582948 
-0.000621543634969016 
-5.471094351580595e-05 
-2.619285561396773e-05 
-0.0001804445645083935 
5.621060655063661e-05 
0.0001821214295626276 
-1.485419974478755e-05 
0.0003323478354905402 
-0.0002791838749275734 
-0.0003048661638565426 
-0.0001049283435524014 
-0.0001891995633577528 
0.0004482951126780108 
-0.0005826042678118911 
0.0002657092529231409 
0.0002810085811448556 
6.388159204933749e-05 
-0.0001986787023424241 
-4.973581403991632e-05 
0.0003322525340694237 
-4.210094370041475e-05 
-4.353025377246495e-05 
0.0001639368226113798 
0.0001509114754829781 
8.029282919411139e-06 
-0.0003671421847702502 
0.0001938715785440338 
-0.0003209381141643859 
0.0002845936254414204 
0.0001160974227287101 
-7.313192610143564e-05 
0.0001352119949121312 
-0.0003154777327805297 
-0.0004016256586979077 
3.69522928857091e-05 
-0.0001168787975189463 
0.0006885846368643903 
0.0002808232923770693 
0.000499059441972293 
0.0001076168132229405 
-0.0005934689979003948 
1.88295165084194e-05 
-0.0003522595844966973 
-0.0001685437638989621 
0.0002776755145074585 
8.510629843332724e-05 
-0.0001703797315476984 
-0.0002870344223504962 
-0.00063818731736517 
0.0002743382628341929 
0.0004193943456578056 
-1.673756311696982e-05 
0.0004032323597471437 
0.0003741497658974007 
-0.0004490310495473309 
-0.0003150502625063997 
-0.0008741642723285505 
0.0002039190735890724 
-0.0004830748555678315 
0.0002507855766071181 
0.001362198256148644 
0.001337983998659561 
-0.0006046569676627721 
-0.0004311006521016423 
-0.0006544665248220748 
-0.000354145553820666 
-0.0001381202814664529 
7.8650184155449e-05 
0.0008355880293507217 
0.001128248454067166 
-0.0002000301026651718 
-0.0004296064275154942 
-0.0004595128505241514 
-0.0003201131263810068 
-0.0001086443426051631 
-0.0007902536567559774 
0.001249644284671913 
0.0006476822977601677 
2.992326299847532e-05 
-0.0007008022174121649 
-0.0006084365862768278 
-0.0001759279967755137 
0.0002018571191198695 
0.0001224985049518494 
0.0005529378479262665 
0.0008211421719357501 
-0.000204809405349805 
3.08158372310269e-05 
-0.0005782388530940149 
-0.0004314844047099184 
0.0001880275837480965 
-0.0003170449985211719 
0.0005613243010521665 
1.35716016991474e-05 
0.0007668537783490425 
-0.0002167102971424206 
-0.0004154771766638607 
-0.0005144852390106724 
-0.0006947206241197014 
0.0004554899736439071 
0.000675210215536697 
0.001137814838837461 
0.0007216464838452662 
0.0001259513388743946 
-0.0003645777912613038 
-0.0006044898155235688 
-0.0005577093448054683 
-0.0004980416732928362 
0.0001091381956181855 
0.0008474164853499804 
-0.000231963255498413 
-0.0005178135450295135 
-0.0004186343263771828 
-0.0007070925778504808 
0.0001754758767919609 
0.0003244208499783086 
0.0005979227249274582 
0.0002776080982443415 
9.665711296600736e-05 
-0.0001198711578192284 
-0.0004186666037943736 
0.0001958315931080221 
0.0003258096839386611 
0.0001323755151101074 
-0.0004200120094614112 
5.143536304949877e-05 
-0.0002495299982632063 
-0.0001281317660521397 
-6.642459709521629e-05 
-0.0001600828950179501 
0.0003124902055097502 
0.0003939106296372776 
-8.393470947589116e-05 
-0.0001302450181033023 
-0.0001549254796534264 
-5.69958343134473e-05 
0.0001004437236832059 
6.361939390403275e-05 
0.0002274846199466409 
0.0003833796016000658 
-0.0003630287747716485 
0.0002952789863322551 
0.0002444891242829153 
-0.0003160134486461599 
-0.0005018494850795324 
0.0002352377333507466 
0.0004624772034458576 
-0.0001656357538650493 
-0.0001842521275289118 
0.0005420653797718184 
-9.815797411373636e-05 
8.378007324124552e-05 
-0.0003673485564873408 
-0.0001480753719887778 
0.0002311586913982319 
-4.163565851548576e-05 
-0.0001320543510138437 
0.0003862362887964802 
0.0005484116634115717 
-0.0001757678674800133 
-0.0006682353898922978 
-0.0004968297673724263 
0.0004685045361575272 
-9.348807431782562e-06 
1.676157610305597e-05 
-0.0001875634165985142 
3.064977354227205e-05 
1.514939340363064e-05 
-0.000735844045972798 
0.0003199854571656261 
0.000173393713492062 
0.0005106016511759913 
-5.66402939161435e-05 
2.265218323733953e-05 
-0.0003131443728352496 
-5.911189447759749e-05 
-0.0004075962900641955 
8.203759692276496e-05 
0.0003898459102089521 
0.0005085227334164139 
-0.000153473634116297 
0.0007152790931867845 
6.331764530030342e-05 
-0.0002850260122524871 
-0.0005777285482214547 
4.384423448029351e-06 
0.00016537994292406 
0.0004536569715299978 
-0.0004695312836231089 
-0.0003654619432290581 
0.0002288557778885258 
-6.669402556895586e-06 
-0.0007730118992351879 
0.0004841194323739805 
0.0005330630149058736 
0.0001129700009061124 
-0.0001441327487612317 
-0.0005667363003925768 
0.0004391962336891871 
0.0001810702479928761 
1.067534055717597e-05 
0.0001006951378928571 
-3.848185459064214e-05 
0.0004844130424038452 
-0.0005410996152606095 
-0.0009762788568214077 
0.0002628732211614338 
0.0003172207257971028 
0.0006903351089044003 
0.0008096357506740468 
3.352609094311116e-05 
-0.0001378019693227641 
-0.0009297778390438005 
-0.0001499484216169954 
-0.0002125843877995403 
6.047156612708234e-05 
0.0002500323886143305 
0.0004602502950055775 
2.3298867520447e-05 
-0.0002380635078097654 
-0.0001237245677490182 
-0.0002932049129987091 
-0.000176231300295366 
0.0002060869410751201 
8.326548029916884e-05 
0.0006916436648026135 
6.473942961401807e-05 
-0.000383896317582286 
-0.0001226707526224435 
7.045909732250959e-05 
0.0001687054063970236 
-0.000195853483576615 
-0.0006768120003524789 
0.001082340686149485 
-0.0003445206976005569 
-0.0003840479012813794 
0.0003494611252341387 
-0.0004828911681061371 
-0.0001147678364316928 
-0.0002921421819372256 
-0.0008114842537708144 
0.001391185644649849 
0.001097351949954032 
-0.0005218080236427926 
-0.0001957118984231159 
-0.0004612677120917008 
-0.0002751125778227716 
3.981641221836333e-05 
-0.0004014424776035409 
0.0008302306886568115 
0.0001814124139402194 
-0.0001938069254843875 
0.0003499024104791197 
-6.708291221463588e-05 
-0.0003738957150929553 
-5.68042396102363e-06 
8.930437410086546e-05 
6.292559186921466e-06 
-0.0003774359289789899 
7.066223693632205e-05 
0.0007275680423156147 
0.0005574262680845956 
-0.0003665453600236257 
-0.000431688539682904 
4.467937407945464e-05 
-7.027029842605947e-05 
-0.0003255420620630249 
-2.031099169265418e-05 
0.0006819838420163479 
0.0007417609184809902 
-0.0002723140729677166 
-0.0001173764489933054 
5.385012865847312e-05 
0.0006112690304260563 
-0.0002559024606611178 
-0.0002726797555331302 
-0.0004188751071181264 
0.0001279573688136028 
-0.0005274038132124549 
1.230525060682586e-05 
0.0005751742922408386 
0.000350236657031724 
0.0002632499803752695 
-0.0002507764408994073 
-0.0004810110626642734 
-1.318854856803375e-05 
-0.0003398124626333057 
3.285977068623907e-05 
3.144374410083418e-05 
-4.686357768203996e-05 
-0.0001778948113657059 
-1.802817783415193e-05 
0.0006012162955882832 
0.0001186808468806164 
0.001054338143039491 
-6.025115926622571e-06 
-0.0001457385616499555 
-0.0002288938414260957 
-0.0003992810207667913 
-0.0001265155114205059 
-0.000196832706438016 
0.001631930779670086 
0.0004637757460175774 
-0.0002712444641355766 
-0.0006754254074558094 
-0.0008247547437603965 
-0.0007299194459446275 
-0.000270603437201708 
0.0007459732051025755 
0.0005967334607386391 
0.0004666801642196179 
-8.406847486909791e-05 
-0.0008092868095835835 
-0.0003706910257580447 
0.0001627422619918375 
0.0002824024625774922 
-0.0001747798070247316 
0.0004812277038993179 
0.0002670860044561412 
0.0005072130212689504 
-0.0007294825430708813 
-0.0008391808672792237 
0.0005271476955108421 
4.99578992374769e-05 
-0.0001942366817304967 
-0.0004759305649262176 
0.0003942155624183998 
0.0003083699090615343 
-0.0005578190611604333 
8.923132582421322e-05 
-2.309898795968594e-05 
-1.091566544820221e-06 
0.0003358556155791313 
-0.0001253945938437479 
2.402022348664972e-05 
0.0001584132222945624 
-0.001089137974453677 
-0.0005701457617630631 
0.0005292673042487925 
0.0007576109401499651 
0.0003850988721726386 
-0.0004057629657612139 
-4.136105397268488e-05 
-0.0001949852472723097 
-0.0004583445026987062 
0.0003075531447595339 
0.0007685266124593339 
0.0002401654969472462 
-0.0001460592521690719 
0.0001588003051080717 
5.042009979201972e-05 
-0.0001188622637296019 
-0.0007134628549935807 
-0.0003085287929957995 
0.0008461238158108185 
-0.0001941569046427588 
0.000349398827942965 
6.061056747243333e-05 
0.0001655789139853836 
-0.0002792607799239834 
-0.0007385544224849606 
0.0001995059519607 
0.0005167261287190712 
0.0002516237890465054 
-0.0001064979164830215 
0.0001213632118067106 
0.0002830296025499661 
7.3994461635836e-06 
-0.0002143851211025767 
-9.587333860455398e-05 
0.0002861674140692708 
8.3271107831207e-05 
-0.0004012400904214898 
-0.00039984670556939 
-0.0003670795388564119 
8.553670976617817e-05 
-0.000338735226470081 
0.001039246998550442 
0.000777420343221568 
5.577045132934944e-06 
-0.0007323873934831329 
-0.0005067847729394409 
-0.0001680958711016964 
0.0004080408668549322 
-0.0005925405765931816 
-0.0005139820758318446 
0.000810292510876131 
0.0006150007437719941 
1.780140725523075e-05 
0.0003343367676208095 
0.0002375680925603198 
0.0001584042410078987 
-0.001324771213081484 
-0.0002033625122418135 
0.000619148418675778 
0.0006296011093988743 
-0.0003811926716482726 
5.724378620630282e-06 
0.0001426704916720117 
0.000304957110348754 
-0.0003528086998950864 
0.0001102938548827583 
0.0002832011398382985 
3.65450832030076e-05 
-0.0004608511263782535 
-0.0009013669854672107 
0.000493729703602053 
0.0001233826641544855 
-0.0004073003044324362 
0.0008523884155365243 
0.000425234320105495 
0.0003800988396985848 
-0.0008964344209053748 
-0.001057392051024605 
-0.0003210214649835979 
-0.0001485306014428691 
0.0006868673821699219 
0.001761737346735242 
0.000316234225080091 
-0.0001554740561524182 
-0.001012688548089652 
-0.001061679892339354 
-0.001295141980906018 
-0.0003600567230067692 
0.000147457373432437 
0.002812883965525175 
0.0008389691095531333 
-3.91269011562447e-05 
-0.0009735727188102503 
-0.001021080203430789 
-0.0009322538852883855 
-0.0002687356670057943 
0.0003128509160680703 
0.002807006686900349 
0.001104111193593166 
-0.0006677799450368465 
-0.001264386863507668 
-0.001147885632591424 
-6.726554928717934e-05 
-0.0001748166018350987 
0.0001011414632432859 
0.002436513649674898 
-1.011070373166152e-05 
-0.0003326360989953678 
-0.0007352082941853412 
-0.0003962234383338604 
-0.0002019575479450479 
0.0002449764690063022 
0.001205517115226071 
0.0006743590661243514 
-0.0003711338490591533 
-0.0006993810725430879 
-0.000386424510183455 
-0.0007189860987343306 
0.0001628793404585324 
0.0005571768231853477 
0.001058178632896718 
0.000488999907736402 
-0.0004592101910833978 
-0.0003868302229152716 
-0.0006324759592518556 
-0.0008828706412591568 
-1.830083818800841e-06 
-0.0002741248474083206 
0.0005505022049330469 
0.0007836261149466298 
0.000146948724394083 
8.680057020899822e-05 
-0.0003393198097043519 
-0.0005589520285831882 
-0.0005675445556185313 
-0.000116716631402756 
0.000638200722886462 
0.00173989510028949 
0.0003011147934891211 
-0.0005950582333911267 
-0.0007712069353773649 
-0.0002202639574414026 
-0.0003287685097875689 
-0.0001274810981828743 
0.0008857668506496048 
0.0008364676959183253 
0.0002486552675260507 
-0.0007163158460364237 
-0.0005083281703535799 
-0.0006181072464723973 
0.0003878406743215016 
0.0004472435092987855 
0.0001733397932486109 
0.0004695457231175997 
8.380781982120176e-05 
-0.0004530672311857208 
-0.0004208708098574636 
-4.89181673714093e-05 
0.0004624493853273965 
-0.0003868954690501812 
-0.000112088782959728 
-2.099926813760539e-05 
-2.984675146611619e-05 
-0.0001606421304917301 
0.000366673416441497 
0.002428687012426941 
0.0002203436656335746 
-0.0006904421795044504 
-0.001057395203935671 
-0.001052697586878593 
-0.0005495044513308112 
-0.000458705672264593 
0.001229446648145763 
0.0002796659703517903 
0.0002900182980023109 
8.538515323094149e-06 
-0.001565950971574942 
-0.001034600881509183 
0.0006152398679623442 
0.001092839258827033 
0.0003839821749096592 
0.0003501689741989876 
0.0009339810051005238 
0.0006692501771525843 
-0.0002261762182829562 
-0.001265200687224707 
0.0002591477512088531 
0.0003983852624088089 
-0.001049824032269959 
-0.0004795565547887999 
9.517189897636849e-05 
0.0007111460311177865 
-0.0009663754768708911 
-0.0003247454653806927 
0.0009275112442922111 
0.0005651965907670775 
-0.0004586160358209507 
-0.0004747903439649993 
-0.000262251342426618 
0.0003259411802623036 
-0.001015675901400032 
-0.00052762808925648 
0.001078877226370976 
0.0008102017920302002 
0.0001350577106768025 
-0.0003407728661953917 
-0.0001546476416896292 
0.0001981582252504855 
-0.0006251610999566488 
0.0002248572670080658 
0.0008400250708247357 
0.0002528527974895387 
-0.0003255795204390311 
-0.0005288380675694517 
0.0001252222923896433 
0.0005341574104849939 
-0.0005157471489763252 
0.0007469246517353448 
0.0002820948568733021 
-3.765289002028481e-05 
-0.0005364288726250956 
0.0003381481189173099 
2.126994234396657e-05 
0.0001719807563459782 
-0.0002622351836349974 
-0.0001800531262592311 
-2.390047337803781e-06 
0.0001500309372720501 
-0.0001670191653551526 
-0.0003526078581715572 
0.0001303684775531044 
0.000133182470033655 
0.0006970270911730984 
0.0002313521401912664 
-0.0001266014513120366 
-0.0001802256068508692 
-0.0004627630303245427 
6.910133214509917e-05 
-0.000131259580514649 
-0.0001842992337530381 
-0.0001740042389398722 
0.000360152467792392 
0.0005629106409769177 
0.0002419013997715397 
-0.000674770555186269 
-0.0001918199792267483 
2.408352740675155e-05 
-0.0001736808772935335 
0.0002480914892367748 
-0.0006127184469498465 
0.0005668558433246912 
0.0006218155630097026 
-0.0004128948872156708 
1.444103634836669e-05 
-0.0002288708807529823 
7.873999947977538e-05 
-0.0002960341146691468 
0.000163485076477043 
0.0006662021654159978 
0.0001332929927131286 
-0.0004615240427200602 
-0.00128065431961303 
-0.0004339229064714578 
-1.764585852975035e-05 
0.0008498164410999504 
0.001162029232397191 
0.001091712983246226 
0.000226347402587913 
-0.001527950742424939 
-0.001406086510317811 
0.0002046411838431923 
0.0005790752127257465 
0.0004376971521881112 
0.0008127289891015113 
0.0007299963701415909 
0.0001066782889691551 
-0.001394998454359375 
-0.001030817427678168 
0.0002452137357700766 
-2.780131255753661e-05 
-0.0001011984069201321 
0.001312870123204655 
0.00104006639083736 
0.0005155647977267112 
-0.001884165668090855 
-0.0005373329663827196 
-0.0007194005269471818 
-0.000199828165863276 
-0.0005741881514297346 
0.001280516025235667 
0.001770620732724378 
0.0001838433458944143 
-0.001134498060939435 
-0.001193250675580586 
-0.0006983352594462973 
-0.000121933849113009 
-0.0002878120567182086 
0.001256250697232313 
0.0008410417434080588 
0.0004903570331481854 
-0.0002165854006383435 
-0.0006387006722996131 
-0.0001330473714192957 
-0.0003733245575094882 
0.0006262339181636233 
0.0008308528328596657 
0.0001925358401721424 
0.0003505936569242882 
-0.0007854114145992118 
-0.00143145632518485 
-3.981817232589209e-05 
0.0005363100092288137 
0.0006722489768775557 
0.0009726015354507154 
-0.0001972725729779825 
-0.0002577632555057178 
-0.0001851179632705082 
-0.0005904648459663924 
0.000285171193282529 
0.00116562462568172 
9.665648362784502e-05 
0.0001363459359524505 
-0.0005394489519325978 
0.0002403995379150221 
-0.0007245517462684533 
-0.001087671454392489 
0.0004646822808529554 
0.001349901118403521 
0.0005025705265742904 
0.0003437795915707229 
-0.0004488783540669197 
0.0001767413305560735 
-0.001231392807206032 
-0.001204045371292149 
-0.0002843264173485353 
0.0006547124881344576 
0.0006337105744374971 
0.00104398839142046 
0.0004699144895615328 
-0.0002958072508585542 
-0.0009484146717626018 
-0.0004686856022739216 
-2.772258125907954e-05 
7.652063199456001e-06 
0.0001543782881457499 
0.001144556713475864 
0.0003761504401962011 
-0.0005418472642455621 
-0.0005747498249466021 
-0.001015037080913239 
-0.0003001540928993542 
0.0004113581388113417 
0.0005328195095391711 
0.0007381754541738642 
0.0001698939587680069 
-0.0002607816508797069 
-0.000206542004307994 
-0.0002737620904758851 
-8.401615822147115e-06 
0.0002039852855517668 
-1.351166886676617e-05 
0.0003365914443442017 
5.527620114198053e-05 
0.000279884382480308 
-0.0005103297060613433 
0.001877717228949966 
-1.015359812414555e-05 
-0.000827819473407246 
-0.0003923454489612473 
-0.001071006794126581 
-0.0008893251264599082 
8.81005574055549e-05 
0.001294564887015746 
0.000770982839259609 
0.0009137984980856834 
0.0001977747994420617 
-0.001453997807973217 
-0.001272417287158303 
0.0003461703756887258 
8.569055591295896e-05 
0.0004817302590345995 
9.710666479788799e-05 
0.00113999268890668 
0.001446268371679721 
0.0002311140921691828 
-0.0002345391377115871 
-0.0006892974755707184 
-0.0006583716357255266 
-0.001262541336253492 
0.0001045402749592914 
0.0004770612806520604 
0.0004060115630530504 
-0.000629163649028891 
-0.0004204796010563404 
0.0002544384521174693 
0.0001707415728636545 
-0.0002934176612681647 
0.0003229585356890646 
-0.0002847979356134516 
-0.0003353144116101245 
-0.001826213437283696 
-0.0008171635734640069 
0.0009030422012715408 
0.001705536064531177 
0.0004016847887716184 
-0.0001631493082441295 
0.0003535431245840463 
0.0005177778156054558 
-0.001059269806657458 
0.0001545029069573329 
0.001632934066192633 
0.0002072887090650822 
-0.001573895275210851 
-0.0005901007285334538 
-2.112610588503711e-05 
0.0003966950950648134 
-0.0003609728431503982 
0.0002518885504985043 
0.000807123376694927 
0.0001017926530941179 
-0.0005155677654913453 
6.989360898562373e-05 
-7.980681954001341e-05 
0.0001865440525344122 
-0.0002065378809675655 
0.001102015462494594 
6.378060215529409e-05 
-0.000321961045728631 
-0.0007441957476415957 
8.721073752855053e-05 
0.0002624404346209732 
0.000179510460819446 
-3.674786288847331e-05 
0.0008567443347845921 
-0.0003737489531059435 
-0.0002004558070724682 
-0.0007052211123945531 
-7.989671759077366e-05 
-5.288073309368284e-05 
0.0001826031563429131 
0.0003472200428889702 
0.0003108176024436162 
0.0003531619554092324 
-0.0004954914446978389 
-0.0004958016294103111 
-0.000231346881818805 
-0.0001864167769687532 
0.0001587087631336313 
0.0001461267775028485 
0.0004006709482019455 
-0.0003033245800212022 
0.0004610906597041514 
-0.0003757766774416955 
-0.0006763241391496837 
-0.0002703105462384325 
-4.688386598342409e-05 
-0.0001309426736858014 
0.0007857421397823497 
0.0004447766930236422 
0.0002869767309163968 
-0.0003233021063729233 
-0.001228467581922603 
-0.0002371110778046079 
-0.0002212336600256999 
5.955556867072338e-05 
0.001272123845474829 
0.001012764857591834 
0.0003172574694421533 
-0.0009051571891345351 
-0.0008100363142032324 
-0.0002681225226659428 
0.0002374216995973466 
0.0004827875457129658 
0.0006853777128406017 
0.0003955323741019359 
0.0002893856940313253 
-0.000942613957122879 
-0.001835219531160393 
0.0001549231142882963 
-4.587491052556e-05 
0.0004009850488322247 
0.00106630758478772 
0.001168834669335596 
0.0005792754984026295 
-0.001419499241668401 
-0.0006531632057692423 
3.424442937308459e-05 
4.658363871896396e-05 
-0.0002102811073170764 
0.0005093545587690533 
0.0009980088572229477 
0.0003499711546917032 
-0.001004986093397316 
-0.0004283847112406106 
-0.0003696836834783736 
-0.0004316810198943769 
-0.0001351797472549344 
0.000792459336243715 
0.0009449610909432886 
-1.605431848933678e-05 
-0.0002867047145372434 
-0.00128793016454592 
-0.000375585405797318 
9.887872322855644e-05 
0.0009980546330198743 
0.001422107290687948 
0.0007977096868039095 
-0.0001659317499589295 
-0.001417570781146012 
-0.0007793885100546182 
0.0001880265168868203 
0.0007377918086010645 
0.000775700582390549 
0.0006502421101560739 
0.0004733162861963261 
-0.0006655897563998468 
-0.001310366805484233 
-0.0007923913832049924 
0.000846390030969129 
0.001269470578838195 
0.0009461709284972694 
2.978373624274308e-05 
-3.514717073111126e-05 
-0.0003639373122236687 
-0.001830607176095435 
-0.001260238155078224 
0.001180289919054444 
0.001470914570773828 
0.0006264216744076929 
-0.0002559822475272673 
0.0001417238085653122 
-0.0003183671691318268 
-0.001515030168771837 
-0.0007531945153514194 
0.0002323805230517696 
0.0009076728429588611 
0.0006904843363608373 
0.0003118401830535802 
-0.0002297805421623514 
-0.0007211726792793295 
-0.0003684979163398319 
-0.001346761468474421 
-0.0007131073999162188 
0.0001890144048160567 
0.001291457494132381 
0.0009601481928961975 
0.0003328772897875519 
-0.0003642023606967479 
-0.0002796939202526799 
-0.0009996377920485574 
-0.0004036480679079209 
-6.005435364895873e-05 
0.0006596898619297747 
0.001004656050131229 
-3.198759327777661e-05 
3.214609247985804e-05 
-0.000131431965365524 
-3.782555293580852e-05 
-0.0003888972381207524 
-0.0001773054880809949 
-5.429208411914445e-05 
0.0006092757433275571 
-0.0003930911970136374 
0.0002764897645762723 
0.0002353782846586267 
0.001493935812823485 
-0.0003456237571085883 
-0.0008381156550252595 
-0.0005426593787130379 
-0.0009239368485288748 
-0.0002891380713322561 
8.232026486589064e-06 
0.001507038103690064 
0.000673597796447903 
0.0008213246902108887 
0.0002002692441312883 
-0.001482008831828154 
-0.001423028293848499 
0.0004326562786461495 
0.0008541588678581979 
-7.237519325664394e-06 
-0.0002150558451141228 
0.0004465222314970689 
0.0007059165908967708 
0.0007370457879084781 
-0.000827215275944539 
-0.0001380940521503218 
0.0001102176577221605 
-0.0007496048625233678 
0.0001666425844493998 
0.0002572618865344359 
0.0005254224686321002 
-0.0003053763879869761 
-0.0006204377774457343 
0.0005025686974752987 
-0.000304855576575703 
-0.0001514936627907035 
-2.652547846460898e-05 
0.0006484073295048443 
0.0006287135134723848 
-0.001161241715002523 
-0.001573489008913581 
0.0009334514576974372 
0.0008051529319298559 
-0.0001847367979316979 
-0.000898823548782649 
0.0001883413435083887 
0.001164444897259174 
-0.0003255067494529845 
-0.0004955622625008166 
0.001094037276234507 
0.0004407576427815961 
-0.001097956366755116 
-0.0006465036747461143 
-0.0004478997118950641 
0.0008746341430684944 
0.0002859947913576442 
0.001056381504498065 
-0.0001667369302354279 
-0.000118247339679768 
-0.0007678905500757031 
1.174450144123139e-07 
0.0004966444581982148 
0.0003634341044629669 
0.0004373736849722205 
-0.0002155983915259992 
-0.0002132941379663583 
-0.0006858523146387278 
-0.0001130926162246093 
6.856279490303958e-05 
0.0003215126699373942 
0.0004615430558317495 
0.0007670738106076132 
-0.0004461675619489423 
-0.0004174668466007519 
-0.00032950266626612 
-0.0003558230241718736 
-0.0005510094502916077 
0.0001647475597540122 
0.0006410383915557917 
0.0004295269867288804 
0.0003663596580509037 
-0.0004650544432057738 
-2.343519346753215e-05 
-0.0004924412768325533 
-0.0002999440752433453 
0.0001312985389003063 
0.000125269398040612 
-0.0007408077362222069 
0.00036197147435411 
0.000383560153967074 
0.0004481349461822118 
-0.0003397504676866501 
-0.000517534914605266 
-0.0001052317938021997 
-0.0001975986130877457 
1.432750162962771e-05 
0.0003926821140974725 
0.0007335358558512374 
4.785463162587439e-05 
-0.0002983025494168946 
-0.0008396405885065906 
0.0002408548818661904 
-0.0001786352272642042 
-0.0001884316146899869 
0.0004747969069802463 
0.0004159002237942268 
0.0003576788703757871 
-0.0002127912202635507 
-0.001216296635137914 
0.000130044738814642 
0.0002207490049142737 
0.0001536323841126027 
0.0003752429601456506 
0.000922816432823567 
0.000656797562751777 
-0.001173254216132464 
-0.001918968999852123 
8.812862027744375e-05 
0.0006623291684176528 
0.0001939418371008392 
0.0003093525073551808 
0.000834829399477901 
0.0005050182656921537 
-0.0006048985661769495 
-0.0007663574544789507 
-0.000210870705954665 
9.810922048965912e-05 
0.0002025816480387385 
0.0002795863106413651 
0.0009290469688384454 
0.0006860939279902106 
-0.00114845768327269 
-0.0006001375194531009 
-0.0006229455169917307 
-7.482786784632752e-05 
0.0006231637519841336 
0.0008120879998743954 
0.0008818084812457549 
2.57699274681005e-05 
-0.0009751870239891122 
-0.0008936171096062048 
-0.0007760678308476974 
0.0004999463524095752 
0.0007527570319222582 
0.00072957061187065 
0.0008844028094870368 
0.0005310303598035347 
-0.001658289992747045 
-0.0006426073141527277 
0.0003610690229301355 
0.0004403235274129709 
0.001110681140673071 
0.0002865261195005727 
0.0004554664220680633 
-0.0003671892632371445 
-0.001574537422902846 
-0.0005398493558535385 
0.001103921444891375 
0.001210787941761267 
0.0006318083438580909 
-0.0002646461862587219 
-0.0002179098703317626 
-0.0003698637570864794 
-0.001484516328688114 
-0.0009048387696440176 
0.001226239100191175 
0.001084067297142795 
0.0007227169129301179 
0.0001364858842880677 
-0.0002498766365308322 
-0.001078729922795948 
-0.0008663316332892291 
-0.0002087838443256991 
0.001101268977061572 
0.0004925783916773905 
0.000286072700240312 
0.0004256329711470363 
-0.0002860531318954833 
-0.0007766057380628713 
-0.0009643780935501481 
-0.0007456489044051446 
0.0002261996449383518 
0.0003983370838689304 
0.0004530805608880897 
0.0004046858177280292 
0.0002271771437127236 
4.95889610627905e-05 
-0.0009436880755016565 
0.0001919816327857618 
-0.0001887578530654614 
0.0002946003119593173 
0.0001286225594085716 
0.0004819434297249672 
-0.0003228887771096254 
-0.0004977064120351124 
-1.806265937628314e-05 
0.0002204321356827401 
6.763055787163627e-05 
-6.358925947196398e-05 
0.0001038375537153053 
-0.0003678317116969773 
-0.000470109209263873 
0.0002042668303043051 
0.0003750953351509483 
0.001504479749398924 
-0.0004868791659155454 
-0.0008044806515011047 
-0.001074731281279467 
-0.0004842061056290265 
-0.0002334934785201451 
9.527976153062685e-05 
0.001553763404207857 
0.0001671539499535808 
0.0002280071365719089 
0.0007316410287648831 
-0.0001293195773057705 
-0.0009307097761672292 
9.864145574637771e-05 
0.000147804077453732 
-0.00024348606272536 
5.057192820406535e-05 
5.69644670216442e-07 
0.0008766546761789937 
-0.0001918725203096629 
-0.000656426743313861 
0.0004538530115162661 
-0.000200687538269125 
-0.000262930226384772 
0.0002582520406202495 
0.0007101954937238947 
0.0006172299549638132 
-0.0004555654510149591 
-0.00139676609626966 
-3.753508241645163e-05 
3.639283778467592e-05 
0.0003375285349005639 
0.0004769929800365241 
0.001115042660784703 
0.0004397598212156454 
-0.0008400501263513595 
-0.001323228552586721 
-1.489803159097006e-05 
0.000377395510643816 
-0.0001612820298595171 
-4.869980617719975e-05 
0.0009388720296832592 
0.001308211826097246 
-0.0006804837178457905 
-0.0007369371602422923 
-0.0003118045811454815 
-0.000284624763794257 
-0.0001148015942833604 
-0.000120727009733089 
-0.0001006114136185944 
0.0001550693528698602 
0.0002049248747689752 
7.700092681147331e-05 
-0.0003755708588032033 
5.153998586496515e-05 
0.0001781063741317367 
-0.0003778711429894123 
0.0002582235404430054 
0.0003148896547041445 
0.0008691583476598538 
2.38997280986969e-05 
-0.0005665256228224965 
-0.0002312991699126472 
-0.0002207431028890299 
3.06451874443728e-05 
0.0002000215426864558 
0.0003394293781715163 
0.000955844892073967 
-0.0001709273778370772 
-0.0006374128768709248 
-0.0004802914255586203 
-0.0001675770878175719 
-7.64696201679911e-05 
-0.0004793462764222393 
4.195535557545053e-05 
0.000625132828809447 
0.0001289102742120895 
-0.0004355943543783573 
0.0002308076656891293 
3.433635897458916e-05 
-0.0004631454533143886 
-7.395408154676472e-05 
1.48150681963584e-05 
-4.706859729319052e-06 
-0.0003602429168226487 
0.0002031048211293012 
9.929452745898923e-05 
0.0006545671269205889 
-0.000692320538434575 
-1.69797879966463e-05 
0.0003204483853381265 
0.0002757136219370934 
-0.0002336232195388365 
0.0006847030210632462 
5.889696144208271e-05 
-0.0003271062115183743 
-2.943236971287628e-05 
0.0001120435391273769 
0.0005227390692237019 
0.0002494254146550491 
-0.0005757714666541684 
0.0003906967465756211 
-0.0002444331734764309 
-0.0003555355274461604 
-0.000542979438183679 
0.0004475383179329288 
0.0004951956644128995 
-0.0003027964600372439 
-4.797967692294407e-05 
0.000456825842090552 
0.000142143635849673 
-0.00057821565285007 
-0.001607061767427039 
-3.517619740921235e-05 
0.0001595147075190203 
0.0005540471154854655 
0.0001937430786918942 
0.0009175726313055123 
0.00066061112468381 
-0.0007735184605573384 
-0.00127956309468649 
0.0001751965575327693 
0.0003382778821786784 
0.0009458032918647968 
-0.0002967133354396899 
0.0005834866861125672 
0.0003618931250229819 
-0.00075864888029348 
-0.000318149531473746 
-0.0006617688147744145 
-0.0008340570523295355 
0.001265616182194501 
0.0008299728343711371 
0.0006276624365458032 
-0.0004372318105905451 
-0.0004023120116510764 
-0.0006802414098565074 
-0.0003832035926567647 
-0.0002333528407358057 
0.001188477179399367 
0.0007327967006651633 
0.0005174793476659942 
4.78281158953027e-05 
-0.001120051268084624 
-0.0009861208401733415 
-1.177394524285539e-05 
0.0001938000223569375 
0.001527655507819008 
0.0007933748769187827 
0.0001369228831438014 
-0.0003249651966373525 
-0.001259161075892878 
-0.0004752020090594787 
-7.205930756004005e-05 
0.0003785180796556587 
0.001446529733594796 
0.0002852885793113789 
-4.823605872536865e-06 
-0.0001831807700860588 
-0.001305338467691603 
-9.160644387991284e-05 
0.001188288734555654 
0.0005138093907467437 
0.0007474871154031652 
0.0001821578115410404 
-0.0009142874993416846 
-0.000853919792933357 
-0.000702197083799551 
-0.0001059692851228103 
0.0005655046246715729 
0.0006041116878342079 
0.001072778980552821 
0.0001456908625493684 
-0.0003123846154639659 
-0.001022272551521055 
-0.0008777274712080046 
-0.001135493462859783 
0.0009959069268564071 
0.0002637392845105738 
0.0005705450269154898 
0.0003688415764682209 
7.637785641700603e-05 
0.0001371961775962598 
-0.001207381153612039 
-0.0006625961318417611 
0.0001689551238865629 
5.416826879494527e-05 
4.004595615305043e-05 
0.0005775178899954857 
3.420845046833963e-05 
0.0003551571699377499 
-0.0004977244951022488 
-2.072036528809537e-05 
-0.0002603590704743352 
-0.0006810198136288614 
-0.0005126821845260602 
1.413848483244329e-05 
0.000407819401547426 
0.0007684926754102984 
0.000354063104419306 
0.001524148643749116 
4.197496132277419e-05 
-0.0008492985293570334 
-0.001226303489376099 
-0.0005561360174188253 
-0.0005979906263981169 
0.0003691360091762692 
0.00136420128059404 
0.0002515376098863361 
0.0007822942985774284 
0.0005982247666567077 
-0.0005919652548066669 
-0.0006631715026662872 
0.0001195806326955316 
-0.0001131119750189546 
-0.0003136563430319863 
-0.0003524876762144646 
-0.0004799162608018967 
0.000849600747730632 
-0.0002472405712118756 
8.097856322992228e-05 
0.0001614729543058988 
0.0002143042861849377 
-0.0001569798109310365 
3.391371009052642e-05 
0.0003273191759081581 
0.0007243322755032672 
-0.0002442005925570103 
-0.001108504672075216 
0.0004163016701297309 
-0.0002317475657290776 
0.0001523182310217354 
0.0001304827267602661 
0.0007444291886335405 
0.0004429113818994672 
-0.0006965054330255376 
-0.0009971289556446996 
-0.0001806425705217703 
0.00061659570874549 
9.590185445368754e-06 
-0.0003679416393350373 
0.0006798286618168416 
0.001009611793935624 
-0.0003555109232091768 
-0.0001632130381388602 
-0.0002583341473644216 
8.681116804777946e-05 
-0.000561519643460634 
-0.0003210997151089621 
0.0001149774350623325 
0.000427385539019754 
0.0006662492885776552 
-0.0004918619863421585 
-0.0008151296722647879 
-0.0001060591340774601 
0.000595270477425733 
-0.0001962867454741377 
0.0001267433699983376 
0.0004485219732651269 
0.0004581801019111525 
-2.764559151864383e-05 
-0.0005569298503078405 
-0.0002113321565524534 
2.848113097057745e-05 
-0.0004749250153872167 
0.0002303495612872377 
0.000182489074829478 
0.0008611103863533396 
0.0002526876003591753 
-0.000466053697300323 
-0.0003511087605928471 
-0.0001648169172567218 
-0.0001674844479309939 
0.0004528087477531303 
0.0001366799768013361 
-0.0001705042159036402 
-0.0002709271190052121 
4.907698357379311e-05 
0.0004793514000716418 
-0.0004392690930679329 
-0.000580592057983453 
2.795085117458796e-05 
0.0003558994757887115 
0.0006526231951025849 
0.0004107020869393723 
0.0003909382869481099 
-2.225120908065373e-06 
-0.001185564484769725 
-0.0004048980645976287 
0.0002489816674317984 
0.0004433433659985492 
0.0007781604354804361 
0.0002819096073726294 
-0.0003364895591754403 
-0.0002584284419570909 
-0.0006828467782611273 
7.868871291449181e-05 
0.0003728731226746244 
0.0005380853867267679 
0.0002876475136601908 
-0.0003498770061712962 
-7.809070609611992e-05 
-0.000181774510690981 
-0.0005978202807255676 
-0.0006098433953166603 
7.900129245561648e-05 
0.0004319561667309582 
9.388693239672235e-05 
-0.0001934142947420883 
0.0003648225025773838 
0.0001396111102041574 
-0.0002362880820139672 
-0.0008275926821142565 
-9.768088705971877e-05 
-0.000366370304759505 
0.0003336026740897504 
0.0008276590871366506 
0.0005173961216863885 
0.0003753537432494954 
-0.0006926355199366888 
-0.0009393320672038939 
-0.0005601324327745414 
-0.0001270953127510779 
0.000335218446529807 
0.0007372294274956546 
0.0005132165530926586 
0.0003393190280767614 
-0.0002286914101732546 
-0.0006978422284656854 
-0.0001605632444776151 
0.0002920084502783238 
-0.000368587179211629 
0.0007236054425536264 
0.0004448803549604594 
-0.0003548445994251159 
0.0001910752360797698 
-0.001096091296180765 
-0.0004137968669736661 
-2.038318806057899e-05 
0.0005335895181509975 
0.001027764946184575 
0.0006957724939530257 
-0.0001482274425404735 
-0.0005088959322409737 
-0.0007894743234673232 
-0.0002831670457944669 
0.0002270925190569818 
0.0002675698876218926 
0.0007144693175179704 
0.0002625706724703508 
-3.059876231903126e-06 
-0.0003262689188813933 
-0.0003868813438236405 
0.0001970296847099563 
-7.259488820948197e-05 
0.0006454936676213565 
0.0005757133591329859 
6.770413431678393e-05 
-4.063933452557806e-05 
-0.000916093046930263 
-0.0002462286001542677 
0.0004935934261518108 
0.0002755035404352373 
-8.903352866890321e-05 
-0.000155321555196803 
-0.0003308182790486686 
-0.0005701808598756397 
0.0006922180886493614 
0.0001301244165563183 
0.0009377637846947212 
0.0006604375477560656 
0.0009842155529341179 
-5.5597173707668e-05 
-0.001277043022064938 
-0.0007026397083356749 
-0.0006075291655407985 
-0.001158748580589963 
0.0004107547793248939 
0.0002732346376399709 
0.001034914578161326 
0.0003812056820575811 
-9.910368549400056e-05 
0.0002464178337159607 
-0.001018943012523644 
-0.001284600360305846 
1.841672833744197e-05 
0.0005236069688094569 
0.0008566858942386596 
0.0005518995625322799 
0.0005278393112526727 
1.366199480494251e-05 
-0.001137777867377481 
-0.0002124543726982155 
-9.311012854968413e-05 
-0.0004778019313416614 
-0.0005149912192272488 
7.642969187459079e-05 
0.0002724229098164429 
0.00118859502929267 
-0.0001693577468747741 
0.001528615778472335 
-0.0001753026037461505 
-0.000838803986189559 
-0.001178204920301441 
-0.0009667854825787466 
-0.000447181840885642 
0.0002563605453325197 
0.001891034742188802 
-0.0001870374598728153 
0.000208513855709815 
0.0001694481779450109 
0.0006747763551425372 
0.0009688467493505584 
-0.000304865436043249 
-0.0004318089820990758 
-0.001028141027840654 
-0.0004765999775639233 
-0.0003415021920047425 
-0.0002623637831438706 
0.001378879725323776 
0.0008255949589190413 
2.001712028411715e-05 
-0.0002516151947845502 
-0.0008226784247377291 
0.000158100726382371 
0.0003093573093506642 
-2.159533007880004e-05 
0.0006431056510744236 
0.0001963088577908451 
-0.0007214206922797688 
-0.000142847693900708 
-0.0003512765960469089 
-2.264783789909223e-05 
0.0002226787720945472 
0.0007725692507563682 
0.0004308238095742297 
0.0001158646493422036 
-0.0005293788555734536 
-0.0005331888155120201 
-0.0003869887404906499 
0.0002258240319700928 
2.479235161377683e-05 
0.0006255976958931624 
8.448544697193027e-05 
-0.0002778779242482507 
-0.0003372204305182207 
-0.0001340278969641138 
-0.0001418410424262613 
0.0002182736305974481 
-1.503430823269605e-05 
0.0005368447345241313 
0.00010880268025596 
-0.0002832373750753723 
-0.0005286969945827183 
-0.0004243705235617718 
0.0004571503883671445 
-0.000261935203865776 
-8.284954868218072e-05 
0.0003941828022886766 
0.0006255011653684236 
0.0004469363650564052 
-0.0007490446324525897 
-0.0001531791727579659 
-0.0001498795426628646 
-0.0005906147790244798 
-0.0001377919747647431 
0.0002228674147282943 
0.0004140153038614554 
0.0004625449305336043 
-0.0006046427566710139 
3.076888528282485e-05 
0.0002725852083461826 
-0.0005027662861481114 
5.445771076288709e-05 
-0.0002463459609627559 
-0.0004105728949539469 
0.0005383671603172573 
-9.759731386063871e-05 
0.0005834641310603879 
0.0001507256860770523 
0.0001003170670663353 
8.091945144661927e-05 
3.208315176613051e-05 
0.0007375548409519943 
-0.0008881538646502011 
0.0001678889234242526 
-5.096824042612958e-05 
-0.0001099090972868765 
-0.000355977624244905 
0.0002037776222360496 
0.0002912651839552903 
0.0005951037275226965 
-0.0008312418772311303 
0.0002977637510754299 
0.0001680190687068101 
-0.0002989776197281222 
-0.0002205703490818257 
8.034081557198859e-07 
3.095167090988021e-05 
0.0004599774883939381 
-0.0001413685493805537 
0.0003180695795800443 
0.0001641258281016363 
-0.0005422568443867202 
-5.771333442676411e-05 
6.368123431149503e-05 
-0.0003344516167438844 
0.0004089633507903155 
-0.0001700152784305314 
0.000822739266160363 
0.0004303585995486696 
-0.001093829988917537 
0.0004812826453604078 
-0.0001629571990820247 
-0.000433358837088743 
-0.0002103697345041606 
0.0003054608220670845 
-0.0001136323208307719 
0.0001052748052457353 
9.803205112458877e-05 
-0.0002446280508647838 
0.0001744977600836192 
-0.0003516953723215938 
-0.0005871939422534715 
0.0002586071335623023 
0.0005101802477399129 
0.0002594966833683331 
5.046777297780789e-05 
0.0001820004176099888 
-0.0002302680491908541 
-0.0003381496541518008 
-0.0006211322786708333 
0.000126218617816306 
0.0001399319712454222 
0.0002604067674463301 
0.000550724440187555 
-0.0007269599215741388 
0.0003631919285615381 
0.0003059517587825317 
0.0003755483697103776 
0.0003690537278374529 
0.0003340125356368694 
-0.0003196855993306558 
-0.0006313805673318663 
-0.0002166361104450711 
-5.122800243841299e-05 
0.0002810303686266949 
0.0004233628514840392 
-0.0002549247959794912 
0.0001236451956569988 
-0.000271707451787414 
3.619017717477202e-05 
0.0002186106450087114 
-8.926564428143293e-05 
-0.000107936650055178 
-1.445273104575747e-06 
-0.000166739422200178 
-0.0001530244351244223 
-0.0001357482158510279 
0.000505281227900229 
0.0009143655635065376 
0.0001028040667243821 
0.0002468295999166098 
0.0003913617518426022 
-0.001290555958591923 
-0.0006632659058017471 
-0.0003506666011255631 
0.0007188597158212483 
0.000133199584089533 
0.0004903975569403249 
0.000614070422729241 
0.001161124941525265 
-0.0002720544788116744 
-0.00080018154516089 
-0.00107174392324254 
-0.0001850803257771421 
-0.0004162415392815401 
-0.0005261924030218685 
0.0004034044927902791 
0.0007837801918877971 
0.0004512597144475598 
0.0004567150012691703 
-0.0001789217023481592 
-0.0009040715234511165 
-0.0009135244065188571 
-0.000144912715231287 
0.0001913569778208722 
0.001472998053319717 
0.0005341873259695387 
0.0005554819558702195 
-0.0003532681346638544 
-0.001272586824274241 
-0.0002986799405540218 
-8.011272613282612e-05 
-0.0001562575299992582 
0.0003356613530414272 
0.0001841569086170926 
0.0002980753933091998 
0.000199169599099862 
-0.0004122808250893631 
0.0008585840402426604 
-1.558145990741055e-05 
-0.0006950491662813709 
-0.0004723019863720084 
-0.0006434714032432738 
-0.0005035539487437177 
0.0002826467730908408 
0.00125845938350642 
0.0002098218543249797 
0.0001064881670066415 
-7.161225393020152e-05 
0.0002725729570246924 
-1.727130182140655e-05 
0.0001373371637016667 
-0.0001078372826926676 
-0.0004597670713215838 
6.301096827294883e-05 
-0.0003602040025478739 
-0.0003396802322940684 
0.0006058269640492645 
-0.0002331521114434205 
0.0003899539341305676 
-0.0001039769125748447 
4.795362469954224e-05 
0.0003850084644107555 
8.128426180316861e-06 
0.0001529705165595193 
-0.0002615295104635847 
-0.000391247216955924 
4.538034511993023e-05 
-0.0002942886919197675 
0.000425309899360869 
-5.628369892728025e-05 
0.0003802884464391047 
0.0004924776453248633 
-0.0001521898768008105 
-0.0004461602531731822 
-0.0002556784604873248 
0.0001892140524625889 
-8.193562254582692e-05 
0.0003205966685709432 
8.47971718215868e-06 
0.0002917762434468526 
0.0002624726320536557 
-0.0003380332599305409 
2.380061732822421e-06 
-0.0003866480630450497 
-9.129176771872307e-05 
0.0003392884690127041 
0.0002242897284022745 
-5.306210013002028e-05 
0.0002259809266992283 
0.0003954416488682689 
-0.0005327636547986075 
-0.000475518145197083 
-5.392464056464531e-05 
-5.834170852137337e-06 
-0.0004078921677167623 
-0.0002784363988062581 
-6.514193165839239e-05 
-0.0001594576848715018 
0.0003861199294682884 
-0.000127527612402833 
0.0007279022691317229 
-9.206190113089392e-05 
-3.157720004702555e-05 
0.0001265126133549383 
-0.000353175542608598 
-0.0002727189036714019 
0.0002512948102445418 
5.438422713096005e-05 
0.0003870741290195951 
-0.0002018921188170552 
-3.752175973596687e-05 
-0.0001553035873738977 
9.180465973394463e-05 
-0.000435830419286606 
0.0001407124795822335 
0.0005649204935669488 
0.0001028424846225228 
-2.387927206593434e-05 
0.0001175503878190566 
0.0001961179061761041 
8.621376211981894e-05 
-0.0004350263391531003 
0.0002621625473193791 
9.984057258847465e-05 
-0.0002332473325116839 
0.0006581339450681641 
-4.183548265070306e-05 
0.0001330947161905731 
0.000280916307121149 
-0.001654861092903925 
-3.901461084419759e-05 
0.0006981759379375656 
3.512251237350854e-05 
-0.0003013961600661646 
0.0002572505608097036 
0.000261404481160727 
2.269696020827212e-05 
4.436671730852672e-05 
0.0001050376178309315 
0.0001385736309068327 
-0.0004582015758667149 
0.0005329517205810498 
0.0002846685079941619 
0.0001222540477773641 
-0.0005455061806800799 
-0.0008435629260892597 
0.0001962771765387576 
0.0007119964845366517 
-0.0003893465983665355 
0.001110596734048898 
0.0001968764008290799 
3.106588912152451e-05 
-0.0003850849520137987 
-0.001355428025567907 
-0.0002416077702528209 
-8.888988688885954e-05 
0.0008022038430160076 
3.690749911861478e-05 
0.0003033701830217175 
-0.0001645928813564137 
-0.0004164936704498233 
-0.0005877848837685096 
7.688806464020276e-05 
0.0002657701641592711 
0.0005556677569270613 
0.0003083373412441898 
-0.0002974756286483072 
-0.0002134373126356227 
-0.0003344349830512428 
-0.0009315476244996883 
5.799540020468854e-05 
0.0004923636204428555 
0.0009879314192352462 
-0.0003492150220412311 
-0.0003693645180450576 
-0.0001159894772883948 
-1.405886285451039e-05 
-0.0001457123742771365 
0.0007054675023995984 
6.728279213039877e-05 
0.0002913221922684443 
-0.0004177590087039312 
0.0001912879071010636 
0.0002331670532216711 
-0.0002172794643094282 
-0.000638459640808726 
0.0003129278249490328 
-0.0002365573197722685 
0.0008424048806147009 
0.0003863681487612081 
5.309308089133465e-06 
-0.0002092177938627142 
0.0001619284216625973 
-0.0003358366272494109 
-0.0002784202000578794 
-0.0001232839219797488 
0.0004628848969289365 
0.0008166415220853366 
-0.0003131359068600005 
0.0001063347598099219 
7.286529816714819e-05 
-0.0006234097209781349 
-0.0006467611794918569 
-0.000374179051424978 
0.001031376510984694 
0.000820162056718911 
-0.0003725139654448878 
3.560199636512809e-05 
0.0003336919446462219 
-0.0005455202049788995 
-0.0005497680007907288 
-0.0004416534352494601 
0.0007897318410258261 
0.0005901316007099175 
-0.0004985304684312379 
0.0001194826937111465 
0.0008033353666269928 
-1.422441506068001e-05 
-0.000396225447212763 
0.0001397310870427444 
-0.0006739681850939974 
-0.0003527403331560159 
-0.0001677422574912531 
-0.0002073097974513212 
0.0001010723315114624 
0.0006697743093186517 
7.461474690704975e-05 
-0.0005342841170261171 
0.0004863473496796657 
-0.0002574939818307936 
1.136144799744467e-05 
0.000129192854586534 
0.0005318177538884671 
-8.873701530520489e-05 
0.0003465788864478745 
-0.000183483833410118 
-0.0004195038800820818 
6.154695845490242e-05 
-0.0001768890412539576 
-0.000556051675317781 
-0.0002081276726948754 
-0.0002893040599001727 
-4.090027204758269e-05 
5.198114395274628e-05 
0.001227476851098851 
0 
